<?xml version="1.0"?>
<MethodSetup Method="BDT::BDTG">
  <GeneralInfo>
    <Info name="TMVA Release" value="4.1.2 [262402]"/>
    <Info name="ROOT Release" value="5.32/00 [335872]"/>
    <Info name="Creator" value="ivo"/>
    <Info name="Date" value="Mon Aug  5 13:43:47 2013"/>
    <Info name="Host" value="Linux lxbuild168.cern.ch 2.6.18-308.16.1.el5 #1 SMP Thu Oct 4 14:02:28 CEST 2012 x86_64 x86_64 x86_64 GNU/Linux"/>
    <Info name="Dir" value="/grid_mnt/vol__vol1__u/llr/cms/ivo/PFAntiElecMVA/CMSSW_5_3_11_patch3_NewTraining/src/IvoNaranjo/ElectronsStudies/test/Macros/tmva"/>
    <Info name="Training events" value="1500"/>
    <Info name="TrainingTime" value="1.08407807e+00"/>
    <Info name="AnalysisType" value="Classification"/>
  </GeneralInfo>
  <Options>
    <Option name="V" modified="Yes">False</Option>
    <Option name="VerbosityLevel" modified="No">Default</Option>
    <Option name="VarTransform" modified="No">None</Option>
    <Option name="H" modified="Yes">False</Option>
    <Option name="CreateMVAPdfs" modified="No">False</Option>
    <Option name="IgnoreNegWeightsInTraining" modified="No">False</Option>
    <Option name="NTrees" modified="Yes">600</Option>
    <Option name="RenormByClass" modified="No">False</Option>
    <Option name="BoostType" modified="Yes">Grad</Option>
    <Option name="AdaBoostR2Loss" modified="No">quadratic</Option>
    <Option name="UseBaggedGrad" modified="Yes">True</Option>
    <Option name="GradBaggingFraction" modified="Yes">6.000000e-01</Option>
    <Option name="Shrinkage" modified="Yes">3.000000e-01</Option>
    <Option name="AdaBoostBeta" modified="No">1.000000e+00</Option>
    <Option name="UseRandomisedTrees" modified="No">False</Option>
    <Option name="UseNvars" modified="No">4</Option>
    <Option name="UsePoissonNvars" modified="No">True</Option>
    <Option name="UseNTrainEvents" modified="No">1500</Option>
    <Option name="UseWeightedTrees" modified="No">True</Option>
    <Option name="UseYesNoLeaf" modified="No">True</Option>
    <Option name="NodePurityLimit" modified="No">5.000000e-01</Option>
    <Option name="SeparationType" modified="Yes">giniindex</Option>
    <Option name="nEventsMin" modified="No">40</Option>
    <Option name="nCuts" modified="Yes">20</Option>
    <Option name="UseFisherCuts" modified="No">False</Option>
    <Option name="MinLinCorrForFisher" modified="No">8.000000e-01</Option>
    <Option name="UseExclusiveVars" modified="No">False</Option>
    <Option name="PruneStrength" modified="Yes">5.000000e+01</Option>
    <Option name="PruneMethod" modified="Yes">costcomplexity</Option>
    <Option name="PruneBeforeBoost" modified="No">False</Option>
    <Option name="PruningValFraction" modified="No">5.000000e-01</Option>
    <Option name="NNodesMax" modified="Yes">5</Option>
    <Option name="MaxDepth" modified="No">3</Option>
    <Option name="DoBoostMonitor" modified="No">False</Option>
    <Option name="NegWeightTreatment" modified="No">ignorenegweights</Option>
  </Options>
  <Variables NVar="14">
    <Variable VarIndex="0" Expression="Elec_EtotOverPin" Label="Elec_EtotOverPin" Title="EtotOverPin" Unit="     " Internal="Elec_EtotOverPin" Type="F" Min="-9.90000000e+01" Max="3.38740387e+01"/>
    <Variable VarIndex="1" Expression="Elec_EgammaOverPdif" Label="Elec_EgammaOverPdif" Title="EgammaOverPdif" Unit="     " Internal="Elec_EgammaOverPdif" Type="F" Min="-9.34871399e+02" Max="4.24347046e+02"/>
    <Variable VarIndex="2" Expression="Elec_Fbrem" Label="Elec_Fbrem" Title="Fbrem" Unit="     " Internal="Elec_Fbrem" Type="F" Min="-4.34568405e+00" Max="9.97981191e-01"/>
    <Variable VarIndex="3" Expression="Elec_Chi2GSF" Label="Elec_Chi2GSF" Title="Chi2GSF" Unit="     " Internal="Elec_Chi2GSF" Type="F" Min="2.28200987e-01" Max="9.31179962e+01"/>
    <Variable VarIndex="4" Expression="Elec_GSFNumHits" Label="Elec_GSFNumHits" Title="Elec_GSFNumHits" Unit="     " Internal="Elec_GSFNumHits" Type="I" Min="6.00000000e+00" Max="2.40000000e+01"/>
    <Variable VarIndex="5" Expression="Elec_GSFTrackResol" Label="Elec_GSFTrackResol" Title="Elec_GSFTrackResol" Unit="     " Internal="Elec_GSFTrackResol" Type="F" Min="1.95979942e-02" Max="3.11882858e+01"/>
    <Variable VarIndex="6" Expression="Elec_GSFTracklnPt" Label="Elec_GSFTracklnPt" Title="Elec_GSFTracklnPt" Unit="     " Internal="Elec_GSFTracklnPt" Type="F" Min="6.74551874e-02" Max="1.57286024e+01"/>
    <Variable VarIndex="7" Expression="Elec_GSFTrackEta" Label="Elec_GSFTrackEta" Title="Elec_GSFTrackEta" Unit="     " Internal="Elec_GSFTrackEta" Type="F" Min="-2.35250902e+00" Max="2.33475375e+00"/>
    <Variable VarIndex="8" Expression="Tau_EtaAtEcalEntrance" Label="Tau_EtaAtEcalEntrance" Title="PFTauEtaAtEcalEntrance" Unit="     " Internal="Tau_EtaAtEcalEntrance" Type="F" Min="-2.29086781e+00" Max="2.29723835e+00"/>
    <Variable VarIndex="9" Expression="Tau_Pt" Label="Tau_Pt" Title="TauPt" Unit="     " Internal="Tau_Pt" Type="F" Min="1.50082531e+01" Max="1.78036407e+02"/>
    <Variable VarIndex="10" Expression="Tau_EmFraction" Label="Tau_EmFraction" Title="TauEmFraction" Unit="     " Internal="Tau_EmFraction" Type="F" Min="0.00000000e+00" Max="1.00000000e+00"/>
    <Variable VarIndex="11" Expression="Tau_HadrHoP" Label="Tau_HadrHoP" Title="TauHadrHoP" Unit="     " Internal="Tau_HadrHoP" Type="F" Min="0.00000000e+00" Max="1.22887564e+00"/>
    <Variable VarIndex="12" Expression="Tau_HadrEoP" Label="Tau_HadrEoP" Title="TauHadrEoP" Unit="     " Internal="Tau_HadrEoP" Type="F" Min="0.00000000e+00" Max="1.10548687e+00"/>
    <Variable VarIndex="13" Expression="Tau_dCrackEta" Label="Tau_dCrackEta" Title="TaudCrackEta" Unit="     " Internal="Tau_dCrackEta" Type="F" Min="8.40690285e-02" Max="8.22598338e-01"/>
  </Variables>
  <Spectators NSpec="0"/>
  <Classes NClass="2">
    <Class Name="Signal" Index="0"/>
    <Class Name="Background" Index="1"/>
  </Classes>
  <Transformations NTransformations="0"/>
  <MVAPdfs/>
  <Weights NTrees="600" AnalysisType="1">
    <BinaryTree type="DecisionTree" boostWeight="1.0000000000000000e+00" itree="0">
      <Node pos="s" depth="0" NCoef="0" IVar="11" Cut="5.8517888188362122e-02" cType="0" res="2.7483442425727844e-01" rms="4.1769132018089294e-01" purity="7.7483445405960083e-01" nType="0">
        <Node pos="l" depth="1" NCoef="0" IVar="-1" Cut="0.0000000000000000e+00" cType="1" res="2.6535210013389587e-01" rms="2.3326341807842255e-01" purity="9.4225353002548218e-01" nType="-99"/>
        <Node pos="r" depth="1" NCoef="0" IVar="12" Cut="4.8140741884708405e-02" cType="0" res="-3.3163264393806458e-01" rms="3.7419217824935913e-01" purity="1.6836734116077423e-01" nType="0">
          <Node pos="l" depth="2" NCoef="0" IVar="-1" Cut="0.0000000000000000e+00" cType="1" res="9.0000003576278687e-02" rms="4.7696959972381592e-01" purity="6.4999997615814209e-01" nType="-99"/>
          <Node pos="r" depth="2" NCoef="0" IVar="-1" Cut="0.0000000000000000e+00" cType="1" res="-2.7307692170143127e-01" rms="2.0702250301837921e-01" purity="4.4871795922517776e-02" nType="-99"/>
        </Node>
      </Node>
    </BinaryTree>
    <BinaryTree type="DecisionTree" boostWeight="1.0000000000000000e+00" itree="1">
      <Node pos="s" depth="0" NCoef="0" IVar="6" Cut="6.7793755531311035e+00" cType="1" res="1.8734116852283478e-01" rms="3.5007849335670471e-01" purity="7.6388889551162720e-01" nType="0">
        <Node pos="l" depth="1" NCoef="0" IVar="-1" Cut="0.0000000000000000e+00" cType="1" res="2.1225678920745850e-01" rms="2.0413954555988312e-01" purity="9.4934874773025513e-01" nType="-99"/>
        <Node pos="r" depth="1" NCoef="0" IVar="11" Cut="1.0121701657772064e-01" cType="0" res="-2.1870683133602142e-01" rms="3.5685065388679504e-01" purity="2.4081632494926453e-01" nType="0">
          <Node pos="l" depth="2" NCoef="0" IVar="-1" Cut="0.0000000000000000e+00" cType="1" res="1.2127441912889481e-01" rms="3.8569459319114685e-01" purity="8.1818181276321411e-01" nType="-99"/>
          <Node pos="r" depth="2" NCoef="0" IVar="-1" Cut="0.0000000000000000e+00" cType="1" res="-1.9795803725719452e-01" rms="2.8000384569168091e-01" purity="1.1442785710096359e-01" nType="-99"/>
        </Node>
      </Node>
    </BinaryTree>
    <BinaryTree type="DecisionTree" boostWeight="1.0000000000000000e+00" itree="2">
      <Node pos="s" depth="0" NCoef="0" IVar="11" Cut="1.1482709646224976e-01" cType="0" res="1.3653379678726196e-01" rms="3.0319046974182129e-01" purity="7.7111113071441650e-01" nType="0">
        <Node pos="l" depth="1" NCoef="0" IVar="-1" Cut="0.0000000000000000e+00" cType="1" res="1.9293111562728882e-01" rms="1.4125041663646698e-01" purity="9.7906601428985596e-01" nType="-99"/>
        <Node pos="r" depth="1" NCoef="0" IVar="12" Cut="5.8963900804519653e-01" cType="0" res="-1.3682344555854797e-01" rms="3.7924396991729736e-01" purity="3.0824372172355652e-01" nType="0">
          <Node pos="l" depth="2" NCoef="0" IVar="-1" Cut="0.0000000000000000e+00" cType="1" res="4.0176894515752792e-02" rms="4.6455433964729309e-01" purity="6.9411766529083252e-01" nType="-99"/>
          <Node pos="r" depth="2" NCoef="0" IVar="-1" Cut="0.0000000000000000e+00" cType="1" res="-1.5808370709419250e-01" rms="2.9641476273536682e-01" purity="1.3917525112628937e-01" nType="-99"/>
        </Node>
      </Node>
    </BinaryTree>
    <BinaryTree type="DecisionTree" boostWeight="1.0000000000000000e+00" itree="3">
      <Node pos="s" depth="0" NCoef="0" IVar="1" Cut="-2.8725769042968750e+01" cType="0" res="1.0387247055768967e-01" rms="2.6512336730957031e-01" purity="7.7133107185363770e-01" nType="0">
        <Node pos="l" depth="1" NCoef="0" IVar="-1" Cut="0.0000000000000000e+00" cType="1" res="1.6617877781391144e-01" rms="1.6068519651889801e-01" purity="9.6474361419677734e-01" nType="-99"/>
        <Node pos="r" depth="1" NCoef="0" IVar="12" Cut="4.2113786935806274e-01" cType="0" res="-1.0175650566816330e-01" rms="3.4576037526130676e-01" purity="2.9803922772407532e-01" nType="0">
          <Node pos="l" depth="2" NCoef="0" IVar="-1" Cut="0.0000000000000000e+00" cType="1" res="6.6894315183162689e-02" rms="4.0249136090278625e-01" purity="7.6388889551162720e-01" nType="-99"/>
          <Node pos="r" depth="2" NCoef="0" IVar="-1" Cut="0.0000000000000000e+00" cType="1" res="-1.4720246195793152e-01" rms="2.8680562973022461e-01" purity="1.1475409567356110e-01" nType="-99"/>
        </Node>
      </Node>
    </BinaryTree>
    <BinaryTree type="DecisionTree" boostWeight="1.0000000000000000e+00" itree="4">
      <Node pos="s" depth="0" NCoef="0" IVar="11" Cut="5.7413548231124878e-02" cType="0" res="8.0768644809722900e-02" rms="2.3728919029235840e-01" purity="7.7111113071441650e-01" nType="0">
        <Node pos="l" depth="1" NCoef="0" IVar="-1" Cut="0.0000000000000000e+00" cType="1" res="1.3976715505123138e-01" rms="1.8760921061038971e-01" purity="9.5058137178421021e-01" nType="-99"/>
        <Node pos="r" depth="1" NCoef="0" IVar="2" Cut="1.5780025720596313e-01" cType="1" res="-9.1640040278434753e-02" rms="2.9313227534294128e-01" purity="1.8867924809455872e-01" nType="0">
          <Node pos="l" depth="2" NCoef="0" IVar="-1" Cut="0.0000000000000000e+00" cType="1" res="4.5721180737018585e-02" rms="3.6911368370056152e-01" purity="3.7500000000000000e-01" nType="-99"/>
          <Node pos="r" depth="2" NCoef="0" IVar="-1" Cut="0.0000000000000000e+00" cType="1" res="-1.2517397105693817e-01" rms="2.5157901644706726e-01" purity="1.3414634764194489e-01" nType="-99"/>
        </Node>
      </Node>
    </BinaryTree>
    <BinaryTree type="DecisionTree" boostWeight="1.0000000000000000e+00" itree="5">
      <Node pos="s" depth="0" NCoef="0" IVar="11" Cut="1.7555366456508636e-01" cType="0" res="4.2489416897296906e-02" rms="2.5501030683517456e-01" purity="7.5396823883056641e-01" nType="0">
        <Node pos="l" depth="1" NCoef="0" IVar="-1" Cut="0.0000000000000000e+00" cType="1" res="1.5544548630714417e-01" rms="1.0782399028539658e-01" purity="9.8729580640792847e-01" nType="-99"/>
        <Node pos="r" depth="1" NCoef="0" IVar="2" Cut="2.2585685551166534e-01" cType="1" res="-7.9117670655250549e-02" rms="3.6091244220733643e-01" purity="3.6555892229080200e-01" nType="0">
          <Node pos="l" depth="2" NCoef="0" IVar="-1" Cut="0.0000000000000000e+00" cType="1" res="3.3013381063938141e-02" rms="3.5079488158226013e-01" purity="4.9166667461395264e-01" nType="-99"/>
          <Node pos="r" depth="2" NCoef="0" IVar="-1" Cut="0.0000000000000000e+00" cType="1" res="-1.4002178609371185e-01" rms="3.5002127289772034e-01" purity="2.9383885860443115e-01" nType="-99"/>
        </Node>
      </Node>
    </BinaryTree>
    <BinaryTree type="DecisionTree" boostWeight="1.0000000000000000e+00" itree="6">
      <Node pos="s" depth="0" NCoef="0" IVar="1" Cut="8.7372988462448120e-01" cType="0" res="3.9850350469350815e-02" rms="2.3525099456310272e-01" purity="7.6897692680358887e-01" nType="0">
        <Node pos="l" depth="1" NCoef="0" IVar="-1" Cut="0.0000000000000000e+00" cType="1" res="1.3784450292587280e-01" rms="1.4682714641094208e-01" purity="9.7250860929489136e-01" nType="-99"/>
        <Node pos="r" depth="1" NCoef="0" IVar="11" Cut="2.0848222076892853e-01" cType="0" res="-4.8181358724832535e-02" rms="3.2151219248771667e-01" purity="4.0672782063484192e-01" nType="0">
          <Node pos="l" depth="2" NCoef="0" IVar="-1" Cut="0.0000000000000000e+00" cType="1" res="1.2024460732936859e-01" rms="1.8305490911006927e-01" purity="9.6491229534149170e-01" nType="-99"/>
          <Node pos="r" depth="2" NCoef="0" IVar="-1" Cut="0.0000000000000000e+00" cType="1" res="-7.5431726872920990e-02" rms="3.3730992674827576e-01" purity="2.8888890147209167e-01" nType="-99"/>
        </Node>
      </Node>
    </BinaryTree>
    <BinaryTree type="DecisionTree" boostWeight="1.0000000000000000e+00" itree="7">
      <Node pos="s" depth="0" NCoef="0" IVar="11" Cut="5.8517888188362122e-02" cType="0" res="3.0348906293511391e-02" rms="2.1365366876125336e-01" purity="7.6879912614822388e-01" nType="0">
        <Node pos="l" depth="1" NCoef="0" IVar="-1" Cut="0.0000000000000000e+00" cType="1" res="1.0804346948862076e-01" rms="1.7969587445259094e-01" purity="9.5328468084335327e-01" nType="-99"/>
        <Node pos="r" depth="1" NCoef="0" IVar="2" Cut="2.9294738173484802e-01" cType="1" res="-8.0792777240276337e-02" rms="2.7202367782592773e-01" purity="1.5533980727195740e-01" nType="0">
          <Node pos="l" depth="2" NCoef="0" IVar="-1" Cut="0.0000000000000000e+00" cType="1" res="-3.1362324953079224e-02" rms="3.3392822742462158e-01" purity="2.6595744490623474e-01" nType="-99"/>
          <Node pos="r" depth="2" NCoef="0" IVar="-1" Cut="0.0000000000000000e+00" cType="1" res="-1.5401834249496460e-01" rms="1.9686554372310638e-01" purity="6.2500000000000000e-02" nType="-99"/>
        </Node>
      </Node>
    </BinaryTree>
    <BinaryTree type="DecisionTree" boostWeight="1.0000000000000000e+00" itree="8">
      <Node pos="s" depth="0" NCoef="0" IVar="0" Cut="-9.3053237915039062e+01" cType="0" res="2.5204826146364212e-02" rms="2.2509609162807465e-01" purity="7.6699030399322510e-01" nType="0">
        <Node pos="l" depth="1" NCoef="0" IVar="-1" Cut="0.0000000000000000e+00" cType="1" res="1.2018228322267532e-01" rms="1.4206936955451965e-01" purity="9.7031247615814209e-01" nType="-99"/>
        <Node pos="r" depth="1" NCoef="0" IVar="2" Cut="2.3460043966770172e-01" cType="1" res="-4.4002577662467957e-02" rms="3.3423075079917908e-01" purity="3.1358885765075684e-01" nType="0">
          <Node pos="l" depth="2" NCoef="0" IVar="-1" Cut="0.0000000000000000e+00" cType="1" res="8.5851596668362617e-03" rms="3.6937904357910156e-01" purity="4.6086955070495605e-01" nType="-99"/>
          <Node pos="r" depth="2" NCoef="0" IVar="-1" Cut="0.0000000000000000e+00" cType="1" res="-1.0117032378911972e-01" rms="3.0348342657089233e-01" purity="2.1511627733707428e-01" nType="-99"/>
        </Node>
      </Node>
    </BinaryTree>
    <BinaryTree type="DecisionTree" boostWeight="1.0000000000000000e+00" itree="9">
      <Node pos="s" depth="0" NCoef="0" IVar="4" Cut="1.8142856597900391e+01" cType="1" res="1.8659323453903198e-02" rms="2.1220904588699341e-01" purity="7.7090120315551758e-01" nType="0">
        <Node pos="l" depth="1" NCoef="0" IVar="-1" Cut="0.0000000000000000e+00" cType="1" res="8.3225578069686890e-02" rms="2.0142921805381775e-01" purity="9.1736692190170288e-01" nType="-99"/>
        <Node pos="r" depth="1" NCoef="0" IVar="2" Cut="1.5507680177688599e-01" cType="1" res="-5.3982496261596680e-02" rms="2.3153007030487061e-01" purity="2.6570048928260803e-01" nType="0">
          <Node pos="l" depth="2" NCoef="0" IVar="-1" Cut="0.0000000000000000e+00" cType="1" res="8.2675985991954803e-02" rms="2.9893463850021362e-01" purity="5.6818181276321411e-01" nType="-99"/>
          <Node pos="r" depth="2" NCoef="0" IVar="-1" Cut="0.0000000000000000e+00" cType="1" res="-1.4944911003112793e-01" rms="1.9448129832744598e-01" purity="1.8404908478260040e-01" nType="-99"/>
        </Node>
      </Node>
    </BinaryTree>
    <BinaryTree type="DecisionTree" boostWeight="1.0000000000000000e+00" itree="10">
      <Node pos="s" depth="0" NCoef="0" IVar="6" Cut="6.5595111846923828e+00" cType="1" res="1.0097748599946499e-02" rms="2.2155709564685822e-01" purity="7.7019339799880981e-01" nType="0">
        <Node pos="l" depth="1" NCoef="0" IVar="-1" Cut="0.0000000000000000e+00" cType="1" res="7.2917193174362183e-02" rms="1.8514317274093628e-01" purity="9.5590549707412720e-01" nType="-99"/>
        <Node pos="r" depth="1" NCoef="0" IVar="10" Cut="8.0952382087707520e-01" cType="1" res="-3.6828957498073578e-02" rms="2.9082727432250977e-01" purity="2.8688523173332214e-01" nType="0">
          <Node pos="l" depth="2" NCoef="0" IVar="-1" Cut="0.0000000000000000e+00" cType="1" res="-1.6251114010810852e-01" rms="2.5420153141021729e-01" purity="2.9670330882072449e-01" nType="-99"/>
          <Node pos="r" depth="2" NCoef="0" IVar="-1" Cut="0.0000000000000000e+00" cType="1" res="1.2817829847335815e-02" rms="3.0090513825416565e-01" purity="2.8104576468467712e-01" nType="-99"/>
        </Node>
      </Node>
    </BinaryTree>
    <BinaryTree type="DecisionTree" boostWeight="1.0000000000000000e+00" itree="11">
      <Node pos="s" depth="0" NCoef="0" IVar="11" Cut="1.7224064469337463e-01" cType="0" res="1.1299982434138656e-03" rms="2.1022723615169525e-01" purity="7.6391983032226562e-01" nType="0">
        <Node pos="l" depth="1" NCoef="0" IVar="-1" Cut="0.0000000000000000e+00" cType="1" res="1.1708368360996246e-01" rms="9.7557440400123596e-02" purity="9.8939931392669678e-01" nType="-99"/>
        <Node pos="r" depth="1" NCoef="0" IVar="1" Cut="8.8256835937500000e+00" cType="0" res="-4.8232056200504303e-02" rms="3.1535601615905762e-01" purity="3.7951806187629700e-01" nType="0">
          <Node pos="l" depth="2" NCoef="0" IVar="-1" Cut="0.0000000000000000e+00" cType="1" res="9.2072695493698120e-02" rms="2.1263122558593750e-01" purity="9.3023258447647095e-01" nType="-99"/>
          <Node pos="r" depth="2" NCoef="0" IVar="-1" Cut="0.0000000000000000e+00" cType="1" res="-8.2826033234596252e-02" rms="3.2464852929115295e-01" purity="2.9757785797119141e-01" nType="-99"/>
        </Node>
      </Node>
    </BinaryTree>
    <BinaryTree type="DecisionTree" boostWeight="1.0000000000000000e+00" itree="12">
      <Node pos="s" depth="0" NCoef="0" IVar="10" Cut="9.5238095521926880e-01" cType="1" res="8.4591209888458252e-03" rms="2.1983277797698975e-01" purity="7.6923078298568726e-01" nType="0">
        <Node pos="l" depth="1" NCoef="0" IVar="-1" Cut="0.0000000000000000e+00" cType="1" res="4.7256559133529663e-02" rms="2.0065319538116455e-01" purity="8.6814624071121216e-01" nType="-99"/>
        <Node pos="r" depth="1" NCoef="0" IVar="13" Cut="2.2936224937438965e-01" cType="1" res="-3.7146206945180893e-02" rms="2.9791873693466187e-01" purity="2.4305555224418640e-01" nType="0">
          <Node pos="l" depth="2" NCoef="0" IVar="-1" Cut="0.0000000000000000e+00" cType="1" res="6.1697214841842651e-02" rms="3.5267117619514465e-01" purity="5.0000000000000000e-01" nType="-99"/>
          <Node pos="r" depth="2" NCoef="0" IVar="-1" Cut="0.0000000000000000e+00" cType="1" res="-1.1351704597473145e-01" rms="2.6591667532920837e-01" purity="1.4423076808452606e-01" nType="-99"/>
        </Node>
      </Node>
    </BinaryTree>
    <BinaryTree type="DecisionTree" boostWeight="1.0000000000000000e+00" itree="13">
      <Node pos="s" depth="0" NCoef="0" IVar="11" Cut="1.7555366456508636e-01" cType="0" res="-1.1108934413641691e-03" rms="2.1351857483386993e-01" purity="7.6490068435668945e-01" nType="0">
        <Node pos="l" depth="1" NCoef="0" IVar="-1" Cut="0.0000000000000000e+00" cType="1" res="1.0893324017524719e-01" rms="8.9769601821899414e-02" purity="9.9133449792861938e-01" nType="-99"/>
        <Node pos="r" depth="1" NCoef="0" IVar="6" Cut="4.1885399818420410e+00" cType="1" res="-3.8504511117935181e-02" rms="3.3048072457313538e-01" purity="3.6778116226196289e-01" nType="0">
          <Node pos="l" depth="2" NCoef="0" IVar="-1" Cut="0.0000000000000000e+00" cType="1" res="-1.7647756636142731e-01" rms="4.0579870343208313e-01" purity="6.7123287916183472e-01" nType="-99"/>
          <Node pos="r" depth="2" NCoef="0" IVar="-1" Cut="0.0000000000000000e+00" cType="1" res="-9.8728239536285400e-03" rms="2.9851600527763367e-01" purity="2.8125000000000000e-01" nType="-99"/>
        </Node>
      </Node>
    </BinaryTree>
    <BinaryTree type="DecisionTree" boostWeight="1.0000000000000000e+00" itree="14">
      <Node pos="s" depth="0" NCoef="0" IVar="7" Cut="1.8883477449417114e+00" cType="0" res="1.4394260942935944e-02" rms="2.1029917895793915e-01" purity="7.7728778123855591e-01" nType="0">
        <Node pos="l" depth="1" NCoef="0" IVar="-1" Cut="0.0000000000000000e+00" cType="1" res="1.7215642333030701e-01" rms="2.1292605996131897e-01" purity="9.5402300357818604e-01" nType="-99"/>
        <Node pos="r" depth="1" NCoef="0" IVar="2" Cut="3.1039935350418091e-01" cType="1" res="6.7993234843015671e-03" rms="2.0858195424079895e-01" purity="7.5853657722473145e-01" nType="0">
          <Node pos="l" depth="2" NCoef="0" IVar="-1" Cut="0.0000000000000000e+00" cType="1" res="7.1325629949569702e-02" rms="2.0124697685241699e-01" purity="8.0733942985534668e-01" nType="-99"/>
          <Node pos="r" depth="2" NCoef="0" IVar="-1" Cut="0.0000000000000000e+00" cType="1" res="-4.3513339012861252e-02" rms="2.1441641449928284e-01" purity="7.0312500000000000e-01" nType="-99"/>
        </Node>
      </Node>
    </BinaryTree>
    <BinaryTree type="DecisionTree" boostWeight="1.0000000000000000e+00" itree="15">
      <Node pos="s" depth="0" NCoef="0" IVar="3" Cut="4.8395175933837891e+00" cType="1" res="3.4967125393450260e-03" rms="2.1742166578769684e-01" purity="7.6278561353683472e-01" nType="0">
        <Node pos="l" depth="1" NCoef="0" IVar="1" Cut="-2.8725769042968750e+01" cType="0" res="-1.5692376473452896e-04" rms="2.0319975912570953e-01" purity="7.6443415880203247e-01" nType="0">
          <Node pos="l" depth="2" NCoef="0" IVar="-1" Cut="0.0000000000000000e+00" cType="1" res="5.6944370269775391e-02" rms="1.4288409054279327e-01" purity="9.6910572052001953e-01" nType="-99"/>
          <Node pos="r" depth="2" NCoef="0" IVar="-1" Cut="0.0000000000000000e+00" cType="1" res="-4.7851789742708206e-02" rms="3.0163615942001343e-01" purity="2.6294821500778198e-01" nType="-99"/>
        </Node>
        <Node pos="r" depth="1" NCoef="0" IVar="-1" Cut="0.0000000000000000e+00" cType="1" res="6.1537064611911774e-02" rms="3.7581169605255127e-01" purity="7.3584908246994019e-01" nType="-99"/>
      </Node>
    </BinaryTree>
    <BinaryTree type="DecisionTree" boostWeight="1.0000000000000000e+00" itree="16">
      <Node pos="s" depth="0" NCoef="0" IVar="2" Cut="1.2701123952865601e-01" cType="1" res="9.5498812152072787e-04" rms="2.1497175097465515e-01" purity="7.6548671722412109e-01" nType="0">
        <Node pos="l" depth="1" NCoef="0" IVar="-1" Cut="0.0000000000000000e+00" cType="1" res="8.2385577261447906e-02" rms="2.3589931428432465e-01" purity="8.7570619583129883e-01" nType="-99"/>
        <Node pos="r" depth="1" NCoef="0" IVar="11" Cut="1.1703577637672424e-01" cType="0" res="-7.1380110457539558e-03" rms="2.0876081287860870e-01" purity="7.3865199089050293e-01" nType="0">
          <Node pos="l" depth="2" NCoef="0" IVar="-1" Cut="0.0000000000000000e+00" cType="1" res="3.4781910479068756e-02" rms="1.4086739718914032e-01" purity="9.7336065769195557e-01" nType="-99"/>
          <Node pos="r" depth="2" NCoef="0" IVar="-1" Cut="0.0000000000000000e+00" cType="1" res="-5.2872914820909500e-02" rms="3.0141782760620117e-01" purity="2.5941422581672668e-01" nType="-99"/>
        </Node>
      </Node>
    </BinaryTree>
    <BinaryTree type="DecisionTree" boostWeight="1.0000000000000000e+00" itree="17">
      <Node pos="s" depth="0" NCoef="0" IVar="4" Cut="1.1142857551574707e+01" cType="0" res="3.0832632910460234e-03" rms="2.0824556052684784e-01" purity="7.7813851833343506e-01" nType="0">
        <Node pos="l" depth="1" NCoef="0" IVar="4" Cut="1.6571428298950195e+01" cType="1" res="7.9305544495582581e-03" rms="1.8756222724914551e-01" purity="7.8636366128921509e-01" nType="0">
          <Node pos="l" depth="2" NCoef="0" IVar="-1" Cut="0.0000000000000000e+00" cType="1" res="8.8085412979125977e-02" rms="1.6112196445465088e-01" purity="9.5588237047195435e-01" nType="-99"/>
          <Node pos="r" depth="2" NCoef="0" IVar="-1" Cut="0.0000000000000000e+00" cType="1" res="-1.3723766431212425e-02" rms="2.0682649314403534e-01" purity="6.3983052968978882e-01" nType="-99"/>
        </Node>
        <Node pos="r" depth="1" NCoef="0" IVar="-1" Cut="0.0000000000000000e+00" cType="1" res="-9.9148996174335480e-02" rms="4.4410616159439087e-01" purity="6.1363637447357178e-01" nType="-99"/>
      </Node>
    </BinaryTree>
    <BinaryTree type="DecisionTree" boostWeight="1.0000000000000000e+00" itree="18">
      <Node pos="s" depth="0" NCoef="0" IVar="12" Cut="8.9491796493530273e-01" cType="1" res="-1.3530431315302849e-03" rms="2.0112892985343933e-01" purity="7.6846748590469360e-01" nType="0">
        <Node pos="l" depth="1" NCoef="0" IVar="7" Cut="1.8901022672653198e+00" cType="0" res="3.8364608772099018e-03" rms="1.7469252645969391e-01" purity="7.7331757545471191e-01" nType="0">
          <Node pos="l" depth="2" NCoef="0" IVar="-1" Cut="0.0000000000000000e+00" cType="1" res="2.0318037271499634e-01" rms="1.0768452286720276e-01" purity="1.0000000000000000e+00" nType="-99"/>
          <Node pos="r" depth="2" NCoef="0" IVar="-1" Cut="0.0000000000000000e+00" cType="1" res="-3.5858729388564825e-03" rms="1.7886798083782196e-01" purity="7.5225806236267090e-01" nType="-99"/>
        </Node>
        <Node pos="r" depth="1" NCoef="0" IVar="-1" Cut="0.0000000000000000e+00" cType="1" res="-7.9927429556846619e-02" rms="4.1828238964080811e-01" purity="6.9999998807907104e-01" nType="-99"/>
      </Node>
    </BinaryTree>
    <BinaryTree type="DecisionTree" boostWeight="1.0000000000000000e+00" itree="19">
      <Node pos="s" depth="0" NCoef="0" IVar="4" Cut="1.7142856597900391e+01" cType="1" res="1.6862836200743914e-03" rms="2.0313675701618195e-01" purity="7.6650941371917725e-01" nType="0">
        <Node pos="l" depth="1" NCoef="0" IVar="-1" Cut="0.0000000000000000e+00" cType="1" res="5.8084368705749512e-02" rms="1.8190276622772217e-01" purity="9.3381035327911377e-01" nType="-99"/>
        <Node pos="r" depth="1" NCoef="0" IVar="7" Cut="-1.6811217069625854e+00" cType="1" res="-2.6255419477820396e-02" rms="2.3642018437385559e-01" purity="4.4290658831596375e-01" nType="0">
          <Node pos="l" depth="2" NCoef="0" IVar="-1" Cut="0.0000000000000000e+00" cType="1" res="7.3114097118377686e-02" rms="2.6912432909011841e-01" purity="8.9795917272567749e-01" nType="-99"/>
          <Node pos="r" depth="2" NCoef="0" IVar="-1" Cut="0.0000000000000000e+00" cType="1" res="-8.6232669651508331e-02" rms="2.2692510485649109e-01" purity="3.4999999403953552e-01" nType="-99"/>
        </Node>
      </Node>
    </BinaryTree>
    <BinaryTree type="DecisionTree" boostWeight="1.0000000000000000e+00" itree="20">
      <Node pos="s" depth="0" NCoef="0" IVar="4" Cut="1.1142857551574707e+01" cType="0" res="-1.9797333516180515e-03" rms="2.2438336908817291e-01" purity="7.6106196641921997e-01" nType="0">
        <Node pos="l" depth="1" NCoef="0" IVar="3" Cut="3.5793685913085938e+00" cType="0" res="3.3087879419326782e-03" rms="2.0561631023883820e-01" purity="7.6833528280258179e-01" nType="0">
          <Node pos="l" depth="2" NCoef="0" IVar="-1" Cut="0.0000000000000000e+00" cType="1" res="1.1540662497282028e-01" rms="2.7640309929847717e-01" purity="7.8723406791687012e-01" nType="-99"/>
          <Node pos="r" depth="2" NCoef="0" IVar="-1" Cut="0.0000000000000000e+00" cType="1" res="-5.6755505502223969e-03" rms="1.9965955615043640e-01" purity="7.6724135875701904e-01" nType="-99"/>
        </Node>
        <Node pos="r" depth="1" NCoef="0" IVar="-1" Cut="0.0000000000000000e+00" cType="1" res="-1.3053090870380402e-01" rms="4.4007593393325806e-01" purity="6.2222224473953247e-01" nType="-99"/>
      </Node>
    </BinaryTree>
    <BinaryTree type="DecisionTree" boostWeight="1.0000000000000000e+00" itree="21">
      <Node pos="s" depth="0" NCoef="0" IVar="12" Cut="8.4227573871612549e-01" cType="0" res="2.5143064558506012e-03" rms="2.1061858534812927e-01" purity="7.6769912242889404e-01" nType="0">
        <Node pos="l" depth="1" NCoef="0" IVar="-1" Cut="0.0000000000000000e+00" cType="1" res="5.2226796746253967e-02" rms="3.9194443821907043e-01" purity="8.0898874998092651e-01" nType="-99"/>
        <Node pos="r" depth="1" NCoef="0" IVar="6" Cut="6.7189769744873047e+00" cType="1" res="-2.3110576439648867e-03" rms="1.7942182719707489e-01" purity="7.6319020986557007e-01" nType="0">
          <Node pos="l" depth="2" NCoef="0" IVar="-1" Cut="0.0000000000000000e+00" cType="1" res="3.9778705686330795e-02" rms="1.4943218231201172e-01" purity="9.6838599443435669e-01" nType="-99"/>
          <Node pos="r" depth="2" NCoef="0" IVar="-1" Cut="0.0000000000000000e+00" cType="1" res="-5.9398703277111053e-02" rms="2.4270632863044739e-01" purity="1.8691588938236237e-01" nType="-99"/>
        </Node>
      </Node>
    </BinaryTree>
    <BinaryTree type="DecisionTree" boostWeight="1.0000000000000000e+00" itree="22">
      <Node pos="s" depth="0" NCoef="0" IVar="12" Cut="8.9491796493530273e-01" cType="1" res="1.1486196890473366e-03" rms="2.0048600435256958e-01" purity="7.7061313390731812e-01" nType="0">
        <Node pos="l" depth="1" NCoef="0" IVar="9" Cut="3.6810680389404297e+01" cType="0" res="4.6265907585620880e-03" rms="1.7424300312995911e-01" purity="7.7777779102325439e-01" nType="0">
          <Node pos="l" depth="2" NCoef="0" IVar="-1" Cut="0.0000000000000000e+00" cType="1" res="1.4269737899303436e-01" rms="1.4105458557605743e-01" purity="8.2178217172622681e-01" nType="-99"/>
          <Node pos="r" depth="2" NCoef="0" IVar="-1" Cut="0.0000000000000000e+00" cType="1" res="-1.9301869906485081e-03" rms="1.7744335532188416e-01" purity="7.7208709716796875e-01" nType="-99"/>
        </Node>
        <Node pos="r" depth="1" NCoef="0" IVar="-1" Cut="0.0000000000000000e+00" cType="1" res="-4.7528982162475586e-02" rms="4.1623979806900024e-01" purity="6.7187500000000000e-01" nType="-99"/>
      </Node>
    </BinaryTree>
    <BinaryTree type="DecisionTree" boostWeight="1.0000000000000000e+00" itree="23">
      <Node pos="s" depth="0" NCoef="0" IVar="2" Cut="2.6339244842529297e-01" cType="1" res="-4.0448326617479324e-03" rms="2.0904751121997833e-01" purity="7.6983237266540527e-01" nType="0">
        <Node pos="l" depth="1" NCoef="0" IVar="-1" Cut="0.0000000000000000e+00" cType="1" res="5.0772462040185928e-02" rms="1.8816924095153809e-01" purity="8.2882881164550781e-01" nType="-99"/>
        <Node pos="r" depth="1" NCoef="0" IVar="9" Cut="2.2289466857910156e+01" cType="0" res="-2.3333609104156494e-02" rms="2.2608707845211029e-01" purity="7.1175163984298706e-01" nType="0">
          <Node pos="l" depth="2" NCoef="0" IVar="-1" Cut="0.0000000000000000e+00" cType="1" res="2.0336093381047249e-02" rms="1.9976761937141418e-01" purity="7.3140496015548706e-01" nType="-99"/>
          <Node pos="r" depth="2" NCoef="0" IVar="-1" Cut="0.0000000000000000e+00" cType="1" res="-1.5715646743774414e-01" rms="2.4890509247779846e-01" purity="6.8899524211883545e-01" nType="-99"/>
        </Node>
      </Node>
    </BinaryTree>
    <BinaryTree type="DecisionTree" boostWeight="1.0000000000000000e+00" itree="24">
      <Node pos="s" depth="0" NCoef="0" IVar="4" Cut="1.1142857551574707e+01" cType="0" res="-2.6617189869284630e-03" rms="2.0409616827964783e-01" purity="7.5355970859527588e-01" nType="0">
        <Node pos="l" depth="1" NCoef="0" IVar="10" Cut="9.0476191043853760e-01" cType="1" res="1.0535888141021132e-03" rms="1.9115109741687775e-01" purity="7.6174110174179077e-01" nType="0">
          <Node pos="l" depth="2" NCoef="0" IVar="-1" Cut="0.0000000000000000e+00" cType="1" res="3.5345625132322311e-02" rms="1.4812481403350830e-01" purity="8.7865495681762695e-01" nType="-99"/>
          <Node pos="r" depth="2" NCoef="0" IVar="-1" Cut="0.0000000000000000e+00" cType="1" res="-3.3733710646629333e-02" rms="2.9785838723182678e-01" purity="3.3862432837486267e-01" nType="-99"/>
        </Node>
        <Node pos="r" depth="1" NCoef="0" IVar="-1" Cut="0.0000000000000000e+00" cType="1" res="-9.5128506422042847e-02" rms="3.8268333673477173e-01" purity="5.7499998807907104e-01" nType="-99"/>
      </Node>
    </BinaryTree>
    <BinaryTree type="DecisionTree" boostWeight="1.0000000000000000e+00" itree="25">
      <Node pos="s" depth="0" NCoef="0" IVar="6" Cut="3.8248052597045898e+00" cType="1" res="-6.7391349002718925e-03" rms="2.2220318019390106e-01" purity="7.5946545600891113e-01" nType="0">
        <Node pos="l" depth="1" NCoef="0" IVar="-1" Cut="0.0000000000000000e+00" cType="1" res="-1.2034016847610474e-01" rms="2.0107899606227875e-01" purity="9.2288559675216675e-01" nType="-99"/>
        <Node pos="r" depth="1" NCoef="0" IVar="10" Cut="8.0952382087707520e-01" cType="1" res="9.0410262346267700e-03" rms="2.3678034543991089e-01" purity="6.2701612710952759e-01" nType="0">
          <Node pos="l" depth="2" NCoef="0" IVar="-1" Cut="0.0000000000000000e+00" cType="1" res="-9.0120270848274231e-02" rms="1.8383304774761200e-01" purity="7.4827587604522705e-01" nType="-99"/>
          <Node pos="r" depth="2" NCoef="0" IVar="-1" Cut="0.0000000000000000e+00" cType="1" res="9.0727627277374268e-02" rms="2.9006925225257874e-01" purity="4.5631068944931030e-01" nType="-99"/>
        </Node>
      </Node>
    </BinaryTree>
    <BinaryTree type="DecisionTree" boostWeight="1.0000000000000000e+00" itree="26">
      <Node pos="s" depth="0" NCoef="0" IVar="4" Cut="1.5428571701049805e+01" cType="1" res="4.2747408151626587e-03" rms="2.0040193200111389e-01" purity="7.6636570692062378e-01" nType="0">
        <Node pos="l" depth="1" NCoef="0" IVar="-1" Cut="0.0000000000000000e+00" cType="1" res="9.1842569410800934e-02" rms="2.0543976128101349e-01" purity="9.1666668653488159e-01" nType="-99"/>
        <Node pos="r" depth="1" NCoef="0" IVar="13" Cut="4.6533298492431641e-01" cType="0" res="-5.6878039613366127e-03" rms="1.9757260382175446e-01" purity="7.1052628755569458e-01" nType="0">
          <Node pos="l" depth="2" NCoef="0" IVar="-1" Cut="0.0000000000000000e+00" cType="1" res="-1.1920777708292007e-01" rms="3.0367478728294373e-01" purity="7.7358490228652954e-01" nType="-99"/>
          <Node pos="r" depth="2" NCoef="0" IVar="-1" Cut="0.0000000000000000e+00" cType="1" res="-8.5252331336960196e-04" rms="1.8417970836162567e-01" purity="7.0489037036895752e-01" nType="-99"/>
        </Node>
      </Node>
    </BinaryTree>
    <BinaryTree type="DecisionTree" boostWeight="1.0000000000000000e+00" itree="27">
      <Node pos="s" depth="0" NCoef="0" IVar="10" Cut="9.0476191043853760e-01" cType="1" res="5.0083207897841930e-03" rms="2.0091240108013153e-01" purity="7.8280043601989746e-01" nType="0">
        <Node pos="l" depth="1" NCoef="0" IVar="-1" Cut="0.0000000000000000e+00" cType="1" res="5.5343367159366608e-02" rms="1.3778659701347351e-01" purity="8.9971750974655151e-01" nType="-99"/>
        <Node pos="r" depth="1" NCoef="0" IVar="10" Cut="9.4147568941116333e-01" cType="1" res="-1.8606530502438545e-02" rms="3.4017527103424072e-01" purity="3.6683416366577148e-01" nType="0">
          <Node pos="l" depth="2" NCoef="0" IVar="-1" Cut="0.0000000000000000e+00" cType="1" res="-1.4808268845081329e-01" rms="4.0254124999046326e-01" purity="6.2222224473953247e-01" nType="-99"/>
          <Node pos="r" depth="2" NCoef="0" IVar="-1" Cut="0.0000000000000000e+00" cType="1" res="2.0587693899869919e-02" rms="3.1256890296936035e-01" purity="2.9220777750015259e-01" nType="-99"/>
        </Node>
      </Node>
    </BinaryTree>
    <BinaryTree type="DecisionTree" boostWeight="1.0000000000000000e+00" itree="28">
      <Node pos="s" depth="0" NCoef="0" IVar="11" Cut="2.3407155275344849e-01" cType="0" res="-5.3960299119353294e-03" rms="2.0661446452140808e-01" purity="7.7001124620437622e-01" nType="0">
        <Node pos="l" depth="1" NCoef="0" IVar="-1" Cut="0.0000000000000000e+00" cType="1" res="7.6699607074260712e-02" rms="8.5985429584980011e-02" purity="9.9249529838562012e-01" nType="-99"/>
        <Node pos="r" depth="1" NCoef="0" IVar="10" Cut="6.1904764175415039e-01" cType="0" res="-2.4780316278338432e-02" rms="3.0855745077133179e-01" purity="4.3502825498580933e-01" nType="0">
          <Node pos="l" depth="2" NCoef="0" IVar="-1" Cut="0.0000000000000000e+00" cType="1" res="-2.1691232919692993e-02" rms="3.1288626790046692e-01" purity="4.9831649661064148e-01" nType="-99"/>
          <Node pos="r" depth="2" NCoef="0" IVar="-1" Cut="0.0000000000000000e+00" cType="1" res="-1.2959530949592590e-01" rms="2.7926555275917053e-01" purity="1.0526315867900848e-01" nType="-99"/>
        </Node>
      </Node>
    </BinaryTree>
    <BinaryTree type="DecisionTree" boostWeight="1.0000000000000000e+00" itree="29">
      <Node pos="s" depth="0" NCoef="0" IVar="2" Cut="8.0359631776809692e-01" cType="1" res="-4.4954470358788967e-03" rms="2.1760909259319305e-01" purity="7.6829266548156738e-01" nType="0">
        <Node pos="l" depth="1" NCoef="0" IVar="2" Cut="1.4192935824394226e-01" cType="1" res="-8.4028644487261772e-03" rms="2.0881971716880798e-01" purity="7.8066039085388184e-01" nType="0">
          <Node pos="l" depth="2" NCoef="0" IVar="-1" Cut="0.0000000000000000e+00" cType="1" res="5.4773822426795959e-02" rms="2.3554103076457977e-01" purity="8.6792451143264771e-01" nType="-99"/>
          <Node pos="r" depth="2" NCoef="0" IVar="-1" Cut="0.0000000000000000e+00" cType="1" res="-6.6483013331890106e-02" rms="1.9823610782623291e-01" purity="7.5157231092453003e-01" nType="-99"/>
        </Node>
        <Node pos="r" depth="1" NCoef="0" IVar="-1" Cut="0.0000000000000000e+00" cType="1" res="7.7755510807037354e-02" rms="3.1969827413558960e-01" purity="5.7407408952713013e-01" nType="-99"/>
      </Node>
    </BinaryTree>
    <BinaryTree type="DecisionTree" boostWeight="1.0000000000000000e+00" itree="30">
      <Node pos="s" depth="0" NCoef="0" IVar="10" Cut="9.5238095521926880e-01" cType="1" res="-1.8110940000042319e-03" rms="2.0216529071331024e-01" purity="7.5911599397659302e-01" nType="0">
        <Node pos="l" depth="1" NCoef="0" IVar="-1" Cut="0.0000000000000000e+00" cType="1" res="1.7626928165555000e-02" rms="1.7736209928989410e-01" purity="8.6754965782165527e-01" nType="-99"/>
        <Node pos="r" depth="1" NCoef="0" IVar="13" Cut="2.2662021219730377e-01" cType="1" res="-3.3123187720775604e-02" rms="2.9508775472640991e-01" purity="2.1333333849906921e-01" nType="0">
          <Node pos="l" depth="2" NCoef="0" IVar="-1" Cut="0.0000000000000000e+00" cType="1" res="-7.7323347330093384e-02" rms="3.4220528602600098e-01" purity="3.3333334326744080e-01" nType="-99"/>
          <Node pos="r" depth="2" NCoef="0" IVar="-1" Cut="0.0000000000000000e+00" cType="1" res="-3.0567215755581856e-02" rms="2.6828742027282715e-01" purity="1.5686275064945221e-01" nType="-99"/>
        </Node>
      </Node>
    </BinaryTree>
    <BinaryTree type="DecisionTree" boostWeight="1.0000000000000000e+00" itree="31">
      <Node pos="s" depth="0" NCoef="0" IVar="1" Cut="6.8515157699584961e-01" cType="0" res="1.3694930821657181e-03" rms="1.9563615322113037e-01" purity="7.5701946020126343e-01" nType="0">
        <Node pos="l" depth="1" NCoef="0" IVar="-1" Cut="0.0000000000000000e+00" cType="1" res="6.7307949066162109e-02" rms="1.1530394852161407e-01" purity="9.7500002384185791e-01" nType="-99"/>
        <Node pos="r" depth="1" NCoef="0" IVar="10" Cut="6.6666668653488159e-01" cType="0" res="-1.6301404684782028e-02" rms="2.8942060470581055e-01" purity="3.5582822561264038e-01" nType="0">
          <Node pos="l" depth="2" NCoef="0" IVar="-1" Cut="0.0000000000000000e+00" cType="1" res="9.3833608552813530e-03" rms="3.1945699453353882e-01" purity="3.6363637447357178e-01" nType="-99"/>
          <Node pos="r" depth="2" NCoef="0" IVar="-1" Cut="0.0000000000000000e+00" cType="1" res="-1.7337524890899658e-01" rms="2.0614926517009735e-01" purity="3.3962264657020569e-01" nType="-99"/>
        </Node>
      </Node>
    </BinaryTree>
    <BinaryTree type="DecisionTree" boostWeight="1.0000000000000000e+00" itree="32">
      <Node pos="s" depth="0" NCoef="0" IVar="10" Cut="9.0476191043853760e-01" cType="1" res="-2.6597166433930397e-03" rms="1.9461807608604431e-01" purity="7.6647400856018066e-01" nType="0">
        <Node pos="l" depth="1" NCoef="0" IVar="-1" Cut="0.0000000000000000e+00" cType="1" res="2.0774595439434052e-02" rms="1.3994346559047699e-01" purity="8.8296294212341309e-01" nType="-99"/>
        <Node pos="r" depth="1" NCoef="0" IVar="2" Cut="6.2609976530075073e-01" cType="1" res="-2.5129165500402451e-02" rms="3.1970930099487305e-01" purity="3.5263156890869141e-01" nType="0">
          <Node pos="l" depth="2" NCoef="0" IVar="-1" Cut="0.0000000000000000e+00" cType="1" res="-1.2673650868237019e-02" rms="2.9342406988143921e-01" purity="3.8461539149284363e-01" nType="-99"/>
          <Node pos="r" depth="2" NCoef="0" IVar="-1" Cut="0.0000000000000000e+00" cType="1" res="-8.5399828851222992e-02" rms="3.8427510857582092e-01" purity="2.5531914830207825e-01" nType="-99"/>
        </Node>
      </Node>
    </BinaryTree>
    <BinaryTree type="DecisionTree" boostWeight="1.0000000000000000e+00" itree="33">
      <Node pos="s" depth="0" NCoef="0" IVar="13" Cut="6.4689511060714722e-01" cType="1" res="-2.2678689565509558e-03" rms="2.0482696592807770e-01" purity="7.7802687883377075e-01" nType="0">
        <Node pos="l" depth="1" NCoef="0" IVar="13" Cut="1.6487550735473633e-01" cType="0" res="1.5077725402079523e-04" rms="1.9108079373836517e-01" purity="7.8394335508346558e-01" nType="0">
          <Node pos="l" depth="2" NCoef="0" IVar="-1" Cut="0.0000000000000000e+00" cType="1" res="2.6346324011683464e-02" rms="1.8067815899848938e-01" purity="7.8892213106155396e-01" nType="-99"/>
          <Node pos="r" depth="2" NCoef="0" IVar="-1" Cut="0.0000000000000000e+00" cType="1" res="-9.1547973453998566e-02" rms="2.2380515933036804e-01" purity="7.6536315679550171e-01" nType="-99"/>
        </Node>
        <Node pos="r" depth="1" NCoef="0" IVar="-1" Cut="0.0000000000000000e+00" cType="1" res="-6.3822887837886810e-02" rms="3.7710228562355042e-01" purity="6.6666668653488159e-01" nType="-99"/>
      </Node>
    </BinaryTree>
    <BinaryTree type="DecisionTree" boostWeight="1.0000000000000000e+00" itree="34">
      <Node pos="s" depth="0" NCoef="0" IVar="9" Cut="3.0534744262695312e+01" cType="1" res="6.6171013750135899e-03" rms="1.9410325586795807e-01" purity="7.6274943351745605e-01" nType="0">
        <Node pos="l" depth="1" NCoef="0" IVar="-1" Cut="0.0000000000000000e+00" cType="1" res="4.0528368204832077e-02" rms="2.0682133734226227e-01" purity="7.7155822515487671e-01" nType="-99"/>
        <Node pos="r" depth="1" NCoef="0" IVar="11" Cut="5.3578309714794159e-02" cType="0" res="-1.0132375173270702e-02" rms="1.5266968309879303e-01" purity="7.3858922719955444e-01" nType="0">
          <Node pos="l" depth="2" NCoef="0" IVar="-1" Cut="0.0000000000000000e+00" cType="1" res="3.6669749766588211e-02" rms="1.3341760635375977e-01" purity="9.6648043394088745e-01" nType="-99"/>
          <Node pos="r" depth="2" NCoef="0" IVar="-1" Cut="0.0000000000000000e+00" cType="1" res="-1.0717540979385376e-01" rms="1.9069269299507141e-01" purity="8.0645158886909485e-02" nType="-99"/>
        </Node>
      </Node>
    </BinaryTree>
    <BinaryTree type="DecisionTree" boostWeight="1.0000000000000000e+00" itree="35">
      <Node pos="s" depth="0" NCoef="0" IVar="13" Cut="1.8957321345806122e-01" cType="1" res="3.3928270568139851e-04" rms="2.0063309371471405e-01" purity="7.6728868484497070e-01" nType="0">
        <Node pos="l" depth="1" NCoef="0" IVar="-1" Cut="0.0000000000000000e+00" cType="1" res="9.4502761960029602e-02" rms="2.0853139460086823e-01" purity="8.6497890949249268e-01" nType="-99"/>
        <Node pos="r" depth="1" NCoef="0" IVar="10" Cut="5.2380955219268799e-01" cType="1" res="-8.8851703330874443e-03" rms="1.9695225358009338e-01" purity="7.3293769359588623e-01" nType="0">
          <Node pos="l" depth="2" NCoef="0" IVar="-1" Cut="0.0000000000000000e+00" cType="1" res="9.8311096429824829e-02" rms="8.6928255856037140e-02" purity="8.7719297409057617e-01" nType="-99"/>
          <Node pos="r" depth="2" NCoef="0" IVar="-1" Cut="0.0000000000000000e+00" cType="1" res="-5.0786435604095459e-02" rms="2.3334135115146637e-01" purity="6.5919280052185059e-01" nType="-99"/>
        </Node>
      </Node>
    </BinaryTree>
    <BinaryTree type="DecisionTree" boostWeight="1.0000000000000000e+00" itree="36">
      <Node pos="s" depth="0" NCoef="0" IVar="12" Cut="7.8963345289230347e-01" cType="1" res="7.5012091547250748e-03" rms="1.9501048326492310e-01" purity="7.8740155696868896e-01" nType="0">
        <Node pos="l" depth="1" NCoef="0" IVar="-1" Cut="0.0000000000000000e+00" cType="1" res="6.5951749682426453e-02" rms="1.5656712651252747e-01" purity="7.9262083768844604e-01" nType="-99"/>
        <Node pos="r" depth="1" NCoef="0" IVar="10" Cut="9.2140853404998779e-01" cType="1" res="-3.7695523351430893e-02" rms="3.7263771891593933e-01" purity="7.4757283926010132e-01" nType="0">
          <Node pos="l" depth="2" NCoef="0" IVar="-1" Cut="0.0000000000000000e+00" cType="1" res="-1.5372303128242493e-01" rms="3.4042471647262573e-01" purity="8.1034481525421143e-01" nType="-99"/>
          <Node pos="r" depth="2" NCoef="0" IVar="-1" Cut="0.0000000000000000e+00" cType="1" res="1.4328162185847759e-02" rms="4.0426155924797058e-01" purity="6.6666668653488159e-01" nType="-99"/>
        </Node>
      </Node>
    </BinaryTree>
    <BinaryTree type="DecisionTree" boostWeight="1.0000000000000000e+00" itree="37">
      <Node pos="s" depth="0" NCoef="0" IVar="2" Cut="7.3380583524703979e-01" cType="1" res="1.4489026216324419e-04" rms="1.9630819559097290e-01" purity="7.7393311262130737e-01" nType="0">
        <Node pos="l" depth="1" NCoef="0" IVar="-1" Cut="0.0000000000000000e+00" cType="1" res="-2.0229669287800789e-02" rms="1.8349449336528778e-01" purity="7.8826528787612915e-01" nType="-99"/>
        <Node pos="r" depth="1" NCoef="0" IVar="10" Cut="8.5714286565780640e-01" cType="1" res="4.9225524067878723e-02" rms="2.8608143329620361e-01" purity="6.3855421543121338e-01" nType="0">
          <Node pos="l" depth="2" NCoef="0" IVar="-1" Cut="0.0000000000000000e+00" cType="1" res="2.3873005062341690e-02" rms="1.8422828614711761e-01" purity="7.6190477609634399e-01" nType="-99"/>
          <Node pos="r" depth="2" NCoef="0" IVar="-1" Cut="0.0000000000000000e+00" cType="1" res="1.0192334651947021e-01" rms="3.5668390989303589e-01" purity="5.1219511032104492e-01" nType="-99"/>
        </Node>
      </Node>
    </BinaryTree>
    <BinaryTree type="DecisionTree" boostWeight="1.0000000000000000e+00" itree="38">
      <Node pos="s" depth="0" NCoef="0" IVar="3" Cut="4.8247065544128418e+00" cType="1" res="2.0758050959557295e-03" rms="1.9596093893051147e-01" purity="7.6681613922119141e-01" nType="0">
        <Node pos="l" depth="1" NCoef="0" IVar="2" Cut="9.7853839397430420e-02" cType="1" res="-2.4200491607189178e-03" rms="1.8700522184371948e-01" purity="7.6886790990829468e-01" nType="0">
          <Node pos="l" depth="2" NCoef="0" IVar="-1" Cut="0.0000000000000000e+00" cType="1" res="8.2203149795532227e-02" rms="2.1453836560249329e-01" purity="8.9075630903244019e-01" nType="-99"/>
          <Node pos="r" depth="2" NCoef="0" IVar="-1" Cut="0.0000000000000000e+00" cType="1" res="-3.1870950013399124e-02" rms="1.8152888119220734e-01" purity="7.4897116422653198e-01" nType="-99"/>
        </Node>
        <Node pos="r" depth="1" NCoef="0" IVar="-1" Cut="0.0000000000000000e+00" cType="1" res="1.0090960562229156e-01" rms="3.1081151962280273e-01" purity="7.2727274894714355e-01" nType="-99"/>
      </Node>
    </BinaryTree>
    <BinaryTree type="DecisionTree" boostWeight="1.0000000000000000e+00" itree="39">
      <Node pos="s" depth="0" NCoef="0" IVar="13" Cut="6.0703957080841064e-01" cType="1" res="-6.0158967971801758e-03" rms="1.9372494518756866e-01" purity="7.5192093849182129e-01" nType="0">
        <Node pos="l" depth="1" NCoef="0" IVar="5" Cut="2.8561514616012573e-01" cType="0" res="-2.0612927619367838e-03" rms="1.7985558509826660e-01" purity="7.5750577449798584e-01" nType="0">
          <Node pos="l" depth="2" NCoef="0" IVar="-1" Cut="0.0000000000000000e+00" cType="1" res="3.0386062338948250e-02" rms="1.6546183824539185e-01" purity="8.4148395061492920e-01" nType="-99"/>
          <Node pos="r" depth="2" NCoef="0" IVar="-1" Cut="0.0000000000000000e+00" cType="1" res="-6.2241759151220322e-02" rms="2.0653502643108368e-01" purity="5.7509160041809082e-01" nType="-99"/>
        </Node>
        <Node pos="r" depth="1" NCoef="0" IVar="-1" Cut="0.0000000000000000e+00" cType="1" res="-1.1236384510993958e-01" rms="3.6214396357536316e-01" purity="6.4444446563720703e-01" nType="-99"/>
      </Node>
    </BinaryTree>
    <BinaryTree type="DecisionTree" boostWeight="1.0000000000000000e+00" itree="40">
      <Node pos="s" depth="0" NCoef="0" IVar="13" Cut="6.4080762863159180e-01" cType="1" res="-3.5163003485649824e-03" rms="2.0370589196681976e-01" purity="7.5846499204635620e-01" nType="0">
        <Node pos="l" depth="1" NCoef="0" IVar="11" Cut="1.1482709646224976e-01" cType="0" res="-8.6992289870977402e-03" rms="1.9427296519279480e-01" purity="7.5976330041885376e-01" nType="0">
          <Node pos="l" depth="2" NCoef="0" IVar="-1" Cut="0.0000000000000000e+00" cType="1" res="8.7065929546952248e-03" rms="1.1487828940153122e-01" purity="9.8109966516494751e-01" nType="-99"/>
          <Node pos="r" depth="2" NCoef="0" IVar="-1" Cut="0.0000000000000000e+00" cType="1" res="-4.9370620399713516e-02" rms="3.0231279134750366e-01" purity="2.6996198296546936e-01" nType="-99"/>
        </Node>
        <Node pos="r" depth="1" NCoef="0" IVar="-1" Cut="0.0000000000000000e+00" cType="1" res="1.1409342288970947e-01" rms="3.2696086168289185e-01" purity="7.3170733451843262e-01" nType="-99"/>
      </Node>
    </BinaryTree>
    <BinaryTree type="DecisionTree" boostWeight="1.0000000000000000e+00" itree="41">
      <Node pos="s" depth="0" NCoef="0" IVar="11" Cut="5.7413548231124878e-02" cType="0" res="9.5148524269461632e-03" rms="1.9593355059623718e-01" purity="7.7461707592010498e-01" nType="0">
        <Node pos="l" depth="1" NCoef="0" IVar="-1" Cut="0.0000000000000000e+00" cType="1" res="5.9193335473537445e-03" rms="1.5392106771469116e-01" purity="9.3874645233154297e-01" nType="-99"/>
        <Node pos="r" depth="1" NCoef="0" IVar="13" Cut="2.9653725028038025e-01" cType="0" res="3.6994438618421555e-02" rms="2.9338955879211426e-01" purity="2.3113207519054413e-01" nType="0">
          <Node pos="l" depth="2" NCoef="0" IVar="-1" Cut="0.0000000000000000e+00" cType="1" res="1.2163715064525604e-01" rms="3.9984765648841858e-01" purity="4.6511629223823547e-01" nType="-99"/>
          <Node pos="r" depth="2" NCoef="0" IVar="-1" Cut="0.0000000000000000e+00" cType="1" res="3.7315797060728073e-02" rms="2.5537124276161194e-01" purity="1.7159762978553772e-01" nType="-99"/>
        </Node>
      </Node>
    </BinaryTree>
    <BinaryTree type="DecisionTree" boostWeight="1.0000000000000000e+00" itree="42">
      <Node pos="s" depth="0" NCoef="0" IVar="3" Cut="4.6515245437622070e+00" cType="1" res="-2.6637131813913584e-03" rms="1.9806446135044098e-01" purity="7.6109212636947632e-01" nType="0">
        <Node pos="l" depth="1" NCoef="0" IVar="12" Cut="7.3699122667312622e-01" cType="0" res="4.0453681722283363e-03" rms="1.7597831785678864e-01" purity="7.7548545598983765e-01" nType="0">
          <Node pos="l" depth="2" NCoef="0" IVar="-1" Cut="0.0000000000000000e+00" cType="1" res="7.0939309895038605e-02" rms="2.7627557516098022e-01" purity="8.7500000000000000e-01" nType="-99"/>
          <Node pos="r" depth="2" NCoef="0" IVar="-1" Cut="0.0000000000000000e+00" cType="1" res="-9.7779678180813789e-03" rms="1.5532195568084717e-01" purity="7.6111114025115967e-01" nType="-99"/>
        </Node>
        <Node pos="r" depth="1" NCoef="0" IVar="-1" Cut="0.0000000000000000e+00" cType="1" res="-1.2280791997909546e-01" rms="3.9015290141105652e-01" purity="5.4545456171035767e-01" nType="-99"/>
      </Node>
    </BinaryTree>
    <BinaryTree type="DecisionTree" boostWeight="1.0000000000000000e+00" itree="43">
      <Node pos="s" depth="0" NCoef="0" IVar="6" Cut="3.7962996959686279e+00" cType="1" res="-4.1690142825245857e-03" rms="2.0449408888816833e-01" purity="7.5345623493194580e-01" nType="0">
        <Node pos="l" depth="1" NCoef="0" IVar="-1" Cut="0.0000000000000000e+00" cType="1" res="-1.0694465786218643e-01" rms="1.8818509578704834e-01" purity="9.3370163440704346e-01" nType="-99"/>
        <Node pos="r" depth="1" NCoef="0" IVar="10" Cut="7.6190477609634399e-01" cType="1" res="6.7795487120747566e-03" rms="2.1473720669746399e-01" purity="6.2450593709945679e-01" nType="0">
          <Node pos="l" depth="2" NCoef="0" IVar="-1" Cut="0.0000000000000000e+00" cType="1" res="-7.2855062782764435e-02" rms="1.4247292280197144e-01" purity="7.6208180189132690e-01" nType="-99"/>
          <Node pos="r" depth="2" NCoef="0" IVar="-1" Cut="0.0000000000000000e+00" cType="1" res="5.0633955746889114e-02" rms="2.7308577299118042e-01" purity="4.6835443377494812e-01" nType="-99"/>
        </Node>
      </Node>
    </BinaryTree>
    <BinaryTree type="DecisionTree" boostWeight="1.0000000000000000e+00" itree="44">
      <Node pos="s" depth="0" NCoef="0" IVar="7" Cut="-1.6829000711441040e+00" cType="1" res="2.3632389493286610e-03" rms="1.8574835360050201e-01" purity="7.6906079053878784e-01" nType="0">
        <Node pos="l" depth="1" NCoef="0" IVar="-1" Cut="0.0000000000000000e+00" cType="1" res="6.3150599598884583e-02" rms="1.8575569987297058e-01" purity="9.2578125000000000e-01" nType="-99"/>
        <Node pos="r" depth="1" NCoef="0" IVar="0" Cut="4.7449917793273926e+00" cType="0" res="-4.4788164086639881e-03" rms="1.8529944121837616e-01" purity="7.0724189281463623e-01" nType="0">
          <Node pos="l" depth="2" NCoef="0" IVar="-1" Cut="0.0000000000000000e+00" cType="1" res="1.1846883594989777e-01" rms="1.2225050479173660e-01" purity="9.8787879943847656e-01" nType="-99"/>
          <Node pos="r" depth="2" NCoef="0" IVar="-1" Cut="0.0000000000000000e+00" cType="1" res="-3.6071419715881348e-02" rms="2.0191882550716400e-01" purity="6.1157023906707764e-01" nType="-99"/>
        </Node>
      </Node>
    </BinaryTree>
    <BinaryTree type="DecisionTree" boostWeight="1.0000000000000000e+00" itree="45">
      <Node pos="s" depth="0" NCoef="0" IVar="1" Cut="-1.9561302661895752e+00" cType="0" res="-1.5617435565218329e-04" rms="1.9271335005760193e-01" purity="7.6837414503097534e-01" nType="0">
        <Node pos="l" depth="1" NCoef="0" IVar="-1" Cut="0.0000000000000000e+00" cType="1" res="4.3644007295370102e-02" rms="1.3449624180793762e-01" purity="9.6984124183654785e-01" nType="-99"/>
        <Node pos="r" depth="1" NCoef="0" IVar="6" Cut="7.6828813552856445e+00" cType="1" res="-1.7201121896505356e-02" rms="2.8548929095268250e-01" purity="2.9477611184120178e-01" nType="0">
          <Node pos="l" depth="2" NCoef="0" IVar="-1" Cut="0.0000000000000000e+00" cType="1" res="-1.0303738713264465e-01" rms="3.2856667041778564e-01" purity="3.9344263076782227e-01" nType="-99"/>
          <Node pos="r" depth="2" NCoef="0" IVar="-1" Cut="0.0000000000000000e+00" cType="1" res="5.9820078313350677e-02" rms="2.3370228707790375e-01" purity="2.1232876181602478e-01" nType="-99"/>
        </Node>
      </Node>
    </BinaryTree>
    <BinaryTree type="DecisionTree" boostWeight="1.0000000000000000e+00" itree="46">
      <Node pos="s" depth="0" NCoef="0" IVar="8" Cut="1.8602758646011353e+00" cType="0" res="2.4971647653728724e-03" rms="1.9535999000072479e-01" purity="7.8390806913375854e-01" nType="0">
        <Node pos="l" depth="1" NCoef="0" IVar="-1" Cut="0.0000000000000000e+00" cType="1" res="9.9076278507709503e-02" rms="1.7012177407741547e-01" purity="9.3181818723678589e-01" nType="-99"/>
        <Node pos="r" depth="1" NCoef="0" IVar="3" Cut="3.8020834922790527e+00" cType="1" res="-1.5703456010669470e-03" rms="1.9758534431457520e-01" purity="7.6726341247558594e-01" nType="0">
          <Node pos="l" depth="2" NCoef="0" IVar="-1" Cut="0.0000000000000000e+00" cType="1" res="8.0093834549188614e-03" rms="1.8724328279495239e-01" purity="7.7762800455093384e-01" nType="-99"/>
          <Node pos="r" depth="2" NCoef="0" IVar="-1" Cut="0.0000000000000000e+00" cType="1" res="-8.5062727332115173e-02" rms="3.2918712496757507e-01" purity="5.7499998807907104e-01" nType="-99"/>
        </Node>
      </Node>
    </BinaryTree>
    <BinaryTree type="DecisionTree" boostWeight="1.0000000000000000e+00" itree="47">
      <Node pos="s" depth="0" NCoef="0" IVar="9" Cut="2.2793411254882812e+01" cType="1" res="1.1313956929370761e-03" rms="1.9011928141117096e-01" purity="7.7947598695755005e-01" nType="0">
        <Node pos="l" depth="1" NCoef="0" IVar="-1" Cut="0.0000000000000000e+00" cType="1" res="4.2069878429174423e-02" rms="2.1221706271171570e-01" purity="8.0508476495742798e-01" nType="-99"/>
        <Node pos="r" depth="1" NCoef="0" IVar="11" Cut="5.5051490664482117e-02" cType="0" res="-1.0812512598931789e-02" rms="1.6253331303596497e-01" purity="7.5225228071212769e-01" nType="0">
          <Node pos="l" depth="2" NCoef="0" IVar="-1" Cut="0.0000000000000000e+00" cType="1" res="-1.0824086144566536e-02" rms="1.4897246658802032e-01" purity="9.5857989788055420e-01" nType="-99"/>
          <Node pos="r" depth="2" NCoef="0" IVar="-1" Cut="0.0000000000000000e+00" cType="1" res="-7.7366396784782410e-02" rms="1.9694459438323975e-01" purity="9.4339624047279358e-02" nType="-99"/>
        </Node>
      </Node>
    </BinaryTree>
    <BinaryTree type="DecisionTree" boostWeight="1.0000000000000000e+00" itree="48">
      <Node pos="s" depth="0" NCoef="0" IVar="6" Cut="6.3944544792175293e+00" cType="1" res="5.3529266733676195e-04" rms="1.9195182621479034e-01" purity="7.7282851934432983e-01" nType="0">
        <Node pos="l" depth="1" NCoef="0" IVar="-1" Cut="0.0000000000000000e+00" cType="1" res="4.8547536134719849e-02" rms="1.4940251410007477e-01" purity="9.6604937314987183e-01" nType="-99"/>
        <Node pos="r" depth="1" NCoef="0" IVar="9" Cut="1.8045660018920898e+01" cType="0" res="-2.0110439509153366e-02" rms="2.7184927463531494e-01" purity="2.7200001478195190e-01" nType="0">
          <Node pos="l" depth="2" NCoef="0" IVar="-1" Cut="0.0000000000000000e+00" cType="1" res="1.2268872931599617e-02" rms="2.5879499316215515e-01" purity="2.7500000596046448e-01" nType="-99"/>
          <Node pos="r" depth="2" NCoef="0" IVar="-1" Cut="0.0000000000000000e+00" cType="1" res="-1.7894153296947479e-01" rms="2.9624721407890320e-01" purity="2.5999999046325684e-01" nType="-99"/>
        </Node>
      </Node>
    </BinaryTree>
    <BinaryTree type="DecisionTree" boostWeight="1.0000000000000000e+00" itree="49">
      <Node pos="s" depth="0" NCoef="0" IVar="0" Cut="-9.3053237915039062e+01" cType="0" res="3.0029690824449062e-03" rms="1.9773343205451965e-01" purity="7.7728778123855591e-01" nType="0">
        <Node pos="l" depth="1" NCoef="0" IVar="-1" Cut="0.0000000000000000e+00" cType="1" res="-2.8643554076552391e-02" rms="1.3826389610767365e-01" purity="9.6372240781784058e-01" nType="-99"/>
        <Node pos="r" depth="1" NCoef="0" IVar="11" Cut="9.5971383154392242e-02" cType="0" res="1.9461235031485558e-02" rms="2.9174503684043884e-01" purity="3.4432235360145569e-01" nType="0">
          <Node pos="l" depth="2" NCoef="0" IVar="-1" Cut="0.0000000000000000e+00" cType="1" res="-5.5436532944440842e-02" rms="3.2341918349266052e-01" purity="8.0645161867141724e-01" nType="-99"/>
          <Node pos="r" depth="2" NCoef="0" IVar="-1" Cut="0.0000000000000000e+00" cType="1" res="7.2428867220878601e-02" rms="2.7937635779380798e-01" purity="2.0853079855442047e-01" nType="-99"/>
        </Node>
      </Node>
    </BinaryTree>
    <BinaryTree type="DecisionTree" boostWeight="1.0000000000000000e+00" itree="50">
      <Node pos="s" depth="0" NCoef="0" IVar="12" Cut="8.4227573871612549e-01" cType="1" res="-8.8845705613493919e-03" rms="2.0164005458354950e-01" purity="7.6315790414810181e-01" nType="0">
        <Node pos="l" depth="1" NCoef="0" IVar="-1" Cut="0.0000000000000000e+00" cType="1" res="-7.4704871512949467e-03" rms="1.6468654572963715e-01" purity="7.7035236358642578e-01" nType="-99"/>
        <Node pos="r" depth="1" NCoef="0" IVar="6" Cut="4.8678755760192871e+00" cType="0" res="-7.6068244874477386e-02" rms="4.0104451775550842e-01" purity="6.9662922620773315e-01" nType="0">
          <Node pos="l" depth="2" NCoef="0" IVar="-1" Cut="0.0000000000000000e+00" cType="1" res="-2.5332545861601830e-02" rms="3.9365527033805847e-01" purity="7.0454543828964233e-01" nType="-99"/>
          <Node pos="r" depth="2" NCoef="0" IVar="-1" Cut="0.0000000000000000e+00" cType="1" res="-1.6972020268440247e-01" rms="4.0213835239410400e-01" purity="6.8888890743255615e-01" nType="-99"/>
        </Node>
      </Node>
    </BinaryTree>
    <BinaryTree type="DecisionTree" boostWeight="1.0000000000000000e+00" itree="51">
      <Node pos="s" depth="0" NCoef="0" IVar="12" Cut="7.8963345289230347e-01" cType="0" res="6.9939466193318367e-03" rms="1.7362631857395172e-01" purity="7.6632302999496460e-01" nType="0">
        <Node pos="l" depth="1" NCoef="0" IVar="-1" Cut="0.0000000000000000e+00" cType="1" res="8.2656040787696838e-02" rms="2.9421335458755493e-01" purity="8.3928573131561279e-01" nType="-99"/>
        <Node pos="r" depth="1" NCoef="0" IVar="6" Cut="6.9122858047485352e+00" cType="1" res="-2.2384878247976303e-03" rms="1.4552929997444153e-01" purity="7.5558477640151978e-01" nType="0">
          <Node pos="l" depth="2" NCoef="0" IVar="-1" Cut="0.0000000000000000e+00" cType="1" res="8.6596757173538208e-02" rms="1.3351605832576752e-01" purity="9.7330963611602783e-01" nType="-99"/>
          <Node pos="r" depth="2" NCoef="0" IVar="-1" Cut="0.0000000000000000e+00" cType="1" res="-8.5102178156375885e-02" rms="1.7080740630626678e-01" purity="1.4070351421833038e-01" nType="-99"/>
        </Node>
      </Node>
    </BinaryTree>
    <BinaryTree type="DecisionTree" boostWeight="1.0000000000000000e+00" itree="52">
      <Node pos="s" depth="0" NCoef="0" IVar="6" Cut="5.6764430999755859e+00" cType="1" res="-7.3367967270314693e-03" rms="2.0394429564476013e-01" purity="7.7599143981933594e-01" nType="0">
        <Node pos="l" depth="1" NCoef="0" IVar="-1" Cut="0.0000000000000000e+00" cType="1" res="-2.2041492629796267e-03" rms="1.6894574463367462e-01" purity="9.6060603857040405e-01" nType="-99"/>
        <Node pos="r" depth="1" NCoef="0" IVar="6" Cut="7.1296257972717285e+00" cType="1" res="-2.4135261774063110e-02" rms="2.6971337199211121e-01" purity="3.2967033982276917e-01" nType="0">
          <Node pos="l" depth="2" NCoef="0" IVar="-1" Cut="0.0000000000000000e+00" cType="1" res="-1.9246290624141693e-01" rms="3.3654105663299561e-01" purity="6.2318837642669678e-01" nType="-99"/>
          <Node pos="r" depth="2" NCoef="0" IVar="-1" Cut="0.0000000000000000e+00" cType="1" res="5.2747116424143314e-03" rms="2.3707099258899689e-01" purity="2.3039215803146362e-01" nType="-99"/>
        </Node>
      </Node>
    </BinaryTree>
    <BinaryTree type="DecisionTree" boostWeight="1.0000000000000000e+00" itree="53">
      <Node pos="s" depth="0" NCoef="0" IVar="4" Cut="1.8333333969116211e+01" cType="1" res="-2.4297572672367096e-03" rms="2.0103791356086731e-01" purity="7.6905828714370728e-01" nType="0">
        <Node pos="l" depth="1" NCoef="0" IVar="-1" Cut="0.0000000000000000e+00" cType="1" res="-4.2952179908752441e-02" rms="1.9539831578731537e-01" purity="9.0434783697128296e-01" nType="-99"/>
        <Node pos="r" depth="1" NCoef="0" IVar="5" Cut="2.4114099144935608e-01" cType="1" res="2.3944701999425888e-02" rms="2.1714955568313599e-01" purity="3.0693069100379944e-01" nType="0">
          <Node pos="l" depth="2" NCoef="0" IVar="-1" Cut="0.0000000000000000e+00" cType="1" res="1.8644835054874420e-01" rms="2.5160244107246399e-01" purity="5.9574466943740845e-01" nType="-99"/>
          <Node pos="r" depth="2" NCoef="0" IVar="-1" Cut="0.0000000000000000e+00" cType="1" res="2.8992150910198689e-03" rms="2.0002567768096924e-01" purity="2.1935483813285828e-01" nType="-99"/>
        </Node>
      </Node>
    </BinaryTree>
    <BinaryTree type="DecisionTree" boostWeight="1.0000000000000000e+00" itree="54">
      <Node pos="s" depth="0" NCoef="0" IVar="3" Cut="4.6409301757812500e+00" cType="1" res="1.9938098266720772e-03" rms="1.9215686619281769e-01" purity="7.5960481166839600e-01" nType="0">
        <Node pos="l" depth="1" NCoef="0" IVar="7" Cut="-1.9061030149459839e+00" cType="1" res="-9.8266091663390398e-04" rms="1.8229697644710541e-01" purity="7.6608186960220337e-01" nType="0">
          <Node pos="l" depth="2" NCoef="0" IVar="-1" Cut="0.0000000000000000e+00" cType="1" res="-7.5511515140533447e-02" rms="3.0707165598869324e-01" purity="8.0000001192092896e-01" nType="-99"/>
          <Node pos="r" depth="2" NCoef="0" IVar="-1" Cut="0.0000000000000000e+00" cType="1" res="1.1471878737211227e-02" rms="1.6499294340610504e-01" purity="7.6282054185867310e-01" nType="-99"/>
        </Node>
        <Node pos="r" depth="1" NCoef="0" IVar="-1" Cut="0.0000000000000000e+00" cType="1" res="5.1071893423795700e-02" rms="3.0181759595870972e-01" purity="6.6071426868438721e-01" nType="-99"/>
      </Node>
    </BinaryTree>
    <BinaryTree type="DecisionTree" boostWeight="1.0000000000000000e+00" itree="55">
      <Node pos="s" depth="0" NCoef="0" IVar="13" Cut="1.1978533864021301e-01" cType="1" res="-3.5186689347028732e-03" rms="1.9879309833049774e-01" purity="7.6888889074325562e-01" nType="0">
        <Node pos="l" depth="1" NCoef="0" IVar="-1" Cut="0.0000000000000000e+00" cType="1" res="1.3194331526756287e-01" rms="2.3334951698780060e-01" purity="8.6153846979141235e-01" nType="-99"/>
        <Node pos="r" depth="1" NCoef="0" IVar="10" Cut="9.5238095521926880e-01" cType="1" res="-6.9883400574326515e-03" rms="1.9542142748832703e-01" purity="7.6167666912078857e-01" nType="0">
          <Node pos="l" depth="2" NCoef="0" IVar="-1" Cut="0.0000000000000000e+00" cType="1" res="7.3449156479910016e-04" rms="1.7483438551425934e-01" purity="8.6571431159973145e-01" nType="-99"/>
          <Node pos="r" depth="2" NCoef="0" IVar="-1" Cut="0.0000000000000000e+00" cType="1" res="-7.6534025371074677e-02" rms="2.7580392360687256e-01" purity="2.2222222387790680e-01" nType="-99"/>
        </Node>
      </Node>
    </BinaryTree>
    <BinaryTree type="DecisionTree" boostWeight="1.0000000000000000e+00" itree="56">
      <Node pos="s" depth="0" NCoef="0" IVar="12" Cut="8.3788198232650757e-01" cType="1" res="-1.6102037625387311e-03" rms="1.9683377444744110e-01" purity="7.7237570285797119e-01" nType="0">
        <Node pos="l" depth="1" NCoef="0" IVar="-1" Cut="0.0000000000000000e+00" cType="1" res="1.2281983159482479e-02" rms="1.6717508435249329e-01" purity="7.7573531866073608e-01" nType="-99"/>
        <Node pos="r" depth="1" NCoef="0" IVar="2" Cut="2.2206644713878632e-01" cType="1" res="-3.7851069122552872e-02" rms="3.6914855241775513e-01" purity="7.4157303571701050e-01" nType="0">
          <Node pos="l" depth="2" NCoef="0" IVar="-1" Cut="0.0000000000000000e+00" cType="1" res="-3.0335602350533009e-03" rms="3.2955038547515869e-01" purity="8.4444445371627808e-01" nType="-99"/>
          <Node pos="r" depth="2" NCoef="0" IVar="-1" Cut="0.0000000000000000e+00" cType="1" res="-7.4438288807868958e-02" rms="4.0242734551429749e-01" purity="6.3636362552642822e-01" nType="-99"/>
        </Node>
      </Node>
    </BinaryTree>
    <BinaryTree type="DecisionTree" boostWeight="1.0000000000000000e+00" itree="57">
      <Node pos="s" depth="0" NCoef="0" IVar="12" Cut="9.0572762489318848e-01" cType="0" res="2.8664050623774529e-03" rms="1.9437292218208313e-01" purity="7.6612019538879395e-01" nType="0">
        <Node pos="l" depth="1" NCoef="0" IVar="-1" Cut="0.0000000000000000e+00" cType="1" res="8.7652243673801422e-02" rms="3.6006936430931091e-01" purity="7.7999997138977051e-01" nType="-99"/>
        <Node pos="r" depth="1" NCoef="0" IVar="2" Cut="2.8404298424720764e-01" cType="1" res="-2.6647876948118210e-03" rms="1.7863540351390839e-01" purity="7.6531791687011719e-01" nType="0">
          <Node pos="l" depth="2" NCoef="0" IVar="-1" Cut="0.0000000000000000e+00" cType="1" res="6.0587733983993530e-02" rms="1.6166663169860840e-01" purity="8.3221477270126343e-01" nType="-99"/>
          <Node pos="r" depth="2" NCoef="0" IVar="-1" Cut="0.0000000000000000e+00" cType="1" res="-8.3800479769706726e-02" rms="1.9371779263019562e-01" purity="6.9377988576889038e-01" nType="-99"/>
        </Node>
      </Node>
    </BinaryTree>
    <BinaryTree type="DecisionTree" boostWeight="1.0000000000000000e+00" itree="58">
      <Node pos="s" depth="0" NCoef="0" IVar="13" Cut="5.3641915321350098e-01" cType="0" res="-7.8893511090427637e-04" rms="1.8504466116428375e-01" purity="7.6336747407913208e-01" nType="0">
        <Node pos="l" depth="1" NCoef="0" IVar="-1" Cut="0.0000000000000000e+00" cType="1" res="6.9157809019088745e-02" rms="2.5865203142166138e-01" purity="8.2499998807907104e-01" nType="-99"/>
        <Node pos="r" depth="1" NCoef="0" IVar="6" Cut="6.2478890419006348e+00" cType="1" res="-5.4364958778023720e-03" rms="1.7531165480613708e-01" purity="7.5719648599624634e-01" nType="0">
          <Node pos="l" depth="2" NCoef="0" IVar="-1" Cut="0.0000000000000000e+00" cType="1" res="1.5194085426628590e-02" rms="1.4977560937404633e-01" purity="9.6341460943222046e-01" nType="-99"/>
          <Node pos="r" depth="2" NCoef="0" IVar="-1" Cut="0.0000000000000000e+00" cType="1" res="-6.1286412179470062e-02" rms="2.2660741209983826e-01" purity="2.3111110925674438e-01" nType="-99"/>
        </Node>
      </Node>
    </BinaryTree>
    <BinaryTree type="DecisionTree" boostWeight="1.0000000000000000e+00" itree="59">
      <Node pos="s" depth="0" NCoef="0" IVar="6" Cut="6.3944544792175293e+00" cType="1" res="4.9348687753081322e-03" rms="1.8758451938629150e-01" purity="7.7537798881530762e-01" nType="0">
        <Node pos="l" depth="1" NCoef="0" IVar="-1" Cut="0.0000000000000000e+00" cType="1" res="-2.0686278119683266e-02" rms="1.5131786465644836e-01" purity="9.5366215705871582e-01" nType="-99"/>
        <Node pos="r" depth="1" NCoef="0" IVar="10" Cut="6.6666668653488159e-01" cType="0" res="2.7202306315302849e-02" rms="2.5786840915679932e-01" purity="3.1128403544425964e-01" nType="0">
          <Node pos="l" depth="2" NCoef="0" IVar="-1" Cut="0.0000000000000000e+00" cType="1" res="8.8630273938179016e-02" rms="2.8677034378051758e-01" purity="3.2960894703865051e-01" nType="-99"/>
          <Node pos="r" depth="2" NCoef="0" IVar="-1" Cut="0.0000000000000000e+00" cType="1" res="-8.0071367323398590e-02" rms="1.6001556813716888e-01" purity="2.6923078298568726e-01" nType="-99"/>
        </Node>
      </Node>
    </BinaryTree>
    <BinaryTree type="DecisionTree" boostWeight="1.0000000000000000e+00" itree="60">
      <Node pos="s" depth="0" NCoef="0" IVar="3" Cut="4.4677481651306152e+00" cType="1" res="-3.0492905061691999e-03" rms="1.9360381364822388e-01" purity="7.7024072408676147e-01" nType="0">
        <Node pos="l" depth="1" NCoef="0" IVar="10" Cut="9.5238095521926880e-01" cType="1" res="-6.0264132916927338e-03" rms="1.8412697315216064e-01" purity="7.7598154544830322e-01" nType="0">
          <Node pos="l" depth="2" NCoef="0" IVar="-1" Cut="0.0000000000000000e+00" cType="1" res="-4.3100146576762199e-03" rms="1.6475109755992889e-01" purity="8.7079405784606934e-01" nType="-99"/>
          <Node pos="r" depth="2" NCoef="0" IVar="-1" Cut="0.0000000000000000e+00" cType="1" res="-6.5802104771137238e-02" rms="2.7123114466667175e-01" purity="2.0325203239917755e-01" nType="-99"/>
        </Node>
        <Node pos="r" depth="1" NCoef="0" IVar="-1" Cut="0.0000000000000000e+00" cType="1" res="6.0457482933998108e-02" rms="3.1467634439468384e-01" purity="6.6666668653488159e-01" nType="-99"/>
      </Node>
    </BinaryTree>
    <BinaryTree type="DecisionTree" boostWeight="1.0000000000000000e+00" itree="61">
      <Node pos="s" depth="0" NCoef="0" IVar="12" Cut="7.8963345289230347e-01" cType="1" res="-1.1821117950603366e-03" rms="1.8544241786003113e-01" purity="7.7085649967193604e-01" nType="0">
        <Node pos="l" depth="1" NCoef="0" IVar="-1" Cut="0.0000000000000000e+00" cType="1" res="2.2416977211833000e-02" rms="1.4927323162555695e-01" purity="7.7358490228652954e-01" nType="-99"/>
        <Node pos="r" depth="1" NCoef="0" IVar="6" Cut="4.3220663070678711e+00" cType="0" res="-4.4551014900207520e-02" rms="3.5327899456024170e-01" purity="7.5000000000000000e-01" nType="0">
          <Node pos="l" depth="2" NCoef="0" IVar="-1" Cut="0.0000000000000000e+00" cType="1" res="1.7703747376799583e-02" rms="3.5586422681808472e-01" purity="7.9629629850387573e-01" nType="-99"/>
          <Node pos="r" depth="2" NCoef="0" IVar="-1" Cut="0.0000000000000000e+00" cType="1" res="-1.4782473444938660e-01" rms="3.3887234330177307e-01" purity="6.9999998807907104e-01" nType="-99"/>
        </Node>
      </Node>
    </BinaryTree>
    <BinaryTree type="DecisionTree" boostWeight="1.0000000000000000e+00" itree="62">
      <Node pos="s" depth="0" NCoef="0" IVar="13" Cut="1.8957321345806122e-01" cType="1" res="7.0314486511051655e-03" rms="1.9285663962364197e-01" purity="7.6251453161239624e-01" nType="0">
        <Node pos="l" depth="1" NCoef="0" IVar="-1" Cut="0.0000000000000000e+00" cType="1" res="9.9396288394927979e-02" rms="1.6375355422496796e-01" purity="8.2568806409835815e-01" nType="-99"/>
        <Node pos="r" depth="1" NCoef="0" IVar="6" Cut="7.7568182945251465e+00" cType="1" res="4.8578385030850768e-04" rms="2.0138148963451385e-01" purity="7.4102962017059326e-01" nType="0">
          <Node pos="l" depth="2" NCoef="0" IVar="-1" Cut="0.0000000000000000e+00" cType="1" res="-3.7329178303480148e-02" rms="1.8406787514686584e-01" purity="8.5575050115585327e-01" nType="-99"/>
          <Node pos="r" depth="2" NCoef="0" IVar="-1" Cut="0.0000000000000000e+00" cType="1" res="7.6947718858718872e-02" rms="2.5593039393424988e-01" purity="2.8125000000000000e-01" nType="-99"/>
        </Node>
      </Node>
    </BinaryTree>
    <BinaryTree type="DecisionTree" boostWeight="1.0000000000000000e+00" itree="63">
      <Node pos="s" depth="0" NCoef="0" IVar="6" Cut="6.4493713378906250e+00" cType="1" res="-2.9680687002837658e-03" rms="1.8570849299430847e-01" purity="7.6692563295364380e-01" nType="0">
        <Node pos="l" depth="1" NCoef="0" IVar="-1" Cut="0.0000000000000000e+00" cType="1" res="2.9390340670943260e-02" rms="1.5082331001758575e-01" purity="9.5718652009963989e-01" nType="-99"/>
        <Node pos="r" depth="1" NCoef="0" IVar="12" Cut="6.8434900045394897e-01" cType="0" res="-2.5395728647708893e-02" rms="2.5471445918083191e-01" purity="2.6315790414810181e-01" nType="0">
          <Node pos="l" depth="2" NCoef="0" IVar="-1" Cut="0.0000000000000000e+00" cType="1" res="-8.6641944944858551e-02" rms="4.0065413713455200e-01" purity="6.7441862821578979e-01" nType="-99"/>
          <Node pos="r" depth="2" NCoef="0" IVar="-1" Cut="0.0000000000000000e+00" cType="1" res="-2.9237171635031700e-02" rms="2.0930105447769165e-01" purity="1.7647059261798859e-01" nType="-99"/>
        </Node>
      </Node>
    </BinaryTree>
    <BinaryTree type="DecisionTree" boostWeight="1.0000000000000000e+00" itree="64">
      <Node pos="s" depth="0" NCoef="0" IVar="10" Cut="9.0476191043853760e-01" cType="1" res="2.5774748064577579e-04" rms="1.8297989666461945e-01" purity="7.6914662122726440e-01" nType="0">
        <Node pos="l" depth="1" NCoef="0" IVar="-1" Cut="0.0000000000000000e+00" cType="1" res="6.7995361983776093e-02" rms="1.2460028380155563e-01" purity="8.8812154531478882e-01" nType="-99"/>
        <Node pos="r" depth="1" NCoef="0" IVar="6" Cut="4.1305627822875977e+00" cType="1" res="-3.7913002073764801e-02" rms="3.1633153557777405e-01" purity="3.1578946113586426e-01" nType="0">
          <Node pos="l" depth="2" NCoef="0" IVar="-1" Cut="0.0000000000000000e+00" cType="1" res="-1.2804459035396576e-01" rms="3.8238707184791565e-01" purity="5.6521737575531006e-01" nType="-99"/>
          <Node pos="r" depth="2" NCoef="0" IVar="-1" Cut="0.0000000000000000e+00" cType="1" res="-2.0937796682119370e-02" rms="2.8748738765716553e-01" purity="2.3611110448837280e-01" nType="-99"/>
        </Node>
      </Node>
    </BinaryTree>
    <BinaryTree type="DecisionTree" boostWeight="1.0000000000000000e+00" itree="65">
      <Node pos="s" depth="0" NCoef="0" IVar="11" Cut="5.8517888188362122e-02" cType="0" res="3.8156677037477493e-03" rms="1.8853497505187988e-01" purity="7.8416484594345093e-01" nType="0">
        <Node pos="l" depth="1" NCoef="0" IVar="-1" Cut="0.0000000000000000e+00" cType="1" res="-2.7644021436572075e-02" rms="1.5329635143280029e-01" purity="9.3871867656707764e-01" nType="-99"/>
        <Node pos="r" depth="1" NCoef="0" IVar="6" Cut="6.5412259101867676e+00" cType="1" res="3.4774020314216614e-02" rms="2.7696701884269714e-01" purity="2.4019607901573181e-01" nType="0">
          <Node pos="l" depth="2" NCoef="0" IVar="-1" Cut="0.0000000000000000e+00" cType="1" res="1.3919429481029510e-01" rms="3.4847307205200195e-01" purity="7.7777779102325439e-01" nType="-99"/>
          <Node pos="r" depth="2" NCoef="0" IVar="-1" Cut="0.0000000000000000e+00" cType="1" res="-3.2309666858054698e-04" rms="2.4193300306797028e-01" purity="8.8050313293933868e-02" nType="-99"/>
        </Node>
      </Node>
    </BinaryTree>
    <BinaryTree type="DecisionTree" boostWeight="1.0000000000000000e+00" itree="66">
      <Node pos="s" depth="0" NCoef="0" IVar="13" Cut="1.5563558042049408e-01" cType="1" res="2.3073081392794847e-03" rms="1.7982922494411469e-01" purity="7.7777779102325439e-01" nType="0">
        <Node pos="l" depth="1" NCoef="0" IVar="-1" Cut="0.0000000000000000e+00" cType="1" res="-1.1204785853624344e-01" rms="2.0578774809837341e-01" purity="7.8651684522628784e-01" nType="-99"/>
        <Node pos="r" depth="1" NCoef="0" IVar="4" Cut="1.3476190567016602e+01" cType="1" res="9.0178065001964569e-03" rms="1.7208759486675262e-01" purity="7.7559608221054077e-01" nType="0">
          <Node pos="l" depth="2" NCoef="0" IVar="-1" Cut="0.0000000000000000e+00" cType="1" res="-5.9366121888160706e-02" rms="2.7885180711746216e-01" purity="7.9411762952804565e-01" nType="-99"/>
          <Node pos="r" depth="2" NCoef="0" IVar="-1" Cut="0.0000000000000000e+00" cType="1" res="5.4503675550222397e-02" rms="1.5600755810737610e-01" purity="7.7364343404769897e-01" nType="-99"/>
        </Node>
      </Node>
    </BinaryTree>
    <BinaryTree type="DecisionTree" boostWeight="1.0000000000000000e+00" itree="67">
      <Node pos="s" depth="0" NCoef="0" IVar="13" Cut="5.0608575344085693e-01" cType="0" res="2.4350164458155632e-03" rms="1.8915034830570221e-01" purity="7.6206511259078979e-01" nType="0">
        <Node pos="l" depth="1" NCoef="0" IVar="-1" Cut="0.0000000000000000e+00" cType="1" res="5.5465180426836014e-02" rms="2.8271749615669250e-01" purity="8.4444445371627808e-01" nType="-99"/>
        <Node pos="r" depth="1" NCoef="0" IVar="10" Cut="9.0476191043853760e-01" cType="1" res="-1.1983601143583655e-03" rms="1.7517516016960144e-01" purity="7.5280898809432983e-01" nType="0">
          <Node pos="l" depth="2" NCoef="0" IVar="-1" Cut="0.0000000000000000e+00" cType="1" res="3.6959834396839142e-02" rms="1.2515173852443695e-01" purity="8.8338655233383179e-01" nType="-99"/>
          <Node pos="r" depth="2" NCoef="0" IVar="-1" Cut="0.0000000000000000e+00" cType="1" res="-4.7129169106483459e-02" rms="2.8926670551300049e-01" purity="2.8571429848670959e-01" nType="-99"/>
        </Node>
      </Node>
    </BinaryTree>
    <BinaryTree type="DecisionTree" boostWeight="1.0000000000000000e+00" itree="68">
      <Node pos="s" depth="0" NCoef="0" IVar="4" Cut="1.3285714149475098e+01" cType="1" res="-1.5321596292778850e-03" rms="1.7535595595836639e-01" purity="7.6799142360687256e-01" nType="0">
        <Node pos="l" depth="1" NCoef="0" IVar="-1" Cut="0.0000000000000000e+00" cType="1" res="-8.2028254866600037e-02" rms="2.6832088828086853e-01" purity="7.7631580829620361e-01" nType="-99"/>
        <Node pos="r" depth="1" NCoef="0" IVar="8" Cut="1.8453637361526489e+00" cType="0" res="2.2234774660319090e-03" rms="1.6404443979263306e-01" purity="7.6725149154663086e-01" nType="0">
          <Node pos="l" depth="2" NCoef="0" IVar="-1" Cut="0.0000000000000000e+00" cType="1" res="1.3086192309856415e-01" rms="1.2133090943098068e-01" purity="9.7435897588729858e-01" nType="-99"/>
          <Node pos="r" depth="2" NCoef="0" IVar="-1" Cut="0.0000000000000000e+00" cType="1" res="-4.9932287074625492e-03" rms="1.6736185550689697e-01" purity="7.4646073579788208e-01" nType="-99"/>
        </Node>
      </Node>
    </BinaryTree>
    <BinaryTree type="DecisionTree" boostWeight="1.0000000000000000e+00" itree="69">
      <Node pos="s" depth="0" NCoef="0" IVar="4" Cut="1.2857142448425293e+01" cType="0" res="-9.7260728944092989e-04" rms="1.8628220260143280e-01" purity="7.8165936470031738e-01" nType="0">
        <Node pos="l" depth="1" NCoef="0" IVar="6" Cut="8.4798278808593750e+00" cType="1" res="-4.2296866886317730e-03" rms="1.7315642535686493e-01" purity="7.8350514173507690e-01" nType="0">
          <Node pos="l" depth="2" NCoef="0" IVar="-1" Cut="0.0000000000000000e+00" cType="1" res="-2.4386546574532986e-03" rms="1.6988211870193481e-01" purity="8.4898477792739868e-01" nType="-99"/>
          <Node pos="r" depth="2" NCoef="0" IVar="-1" Cut="0.0000000000000000e+00" cType="1" res="-8.4479644894599915e-02" rms="1.9763098657131195e-01" purity="1.7647059261798859e-01" nType="-99"/>
        </Node>
        <Node pos="r" depth="1" NCoef="0" IVar="-1" Cut="0.0000000000000000e+00" cType="1" res="9.1149963438510895e-02" rms="3.5482051968574524e-01" purity="7.4418604373931885e-01" nType="-99"/>
      </Node>
    </BinaryTree>
    <BinaryTree type="DecisionTree" boostWeight="1.0000000000000000e+00" itree="70">
      <Node pos="s" depth="0" NCoef="0" IVar="2" Cut="7.2333008050918579e-01" cType="1" res="-6.3787901308387518e-04" rms="1.9190350174903870e-01" purity="7.6053214073181152e-01" nType="0">
        <Node pos="l" depth="1" NCoef="0" IVar="-1" Cut="0.0000000000000000e+00" cType="1" res="-1.5948541462421417e-02" rms="1.8246316909790039e-01" purity="7.7654320001602173e-01" nType="-99"/>
        <Node pos="r" depth="1" NCoef="0" IVar="4" Cut="1.6666666030883789e+01" cType="1" res="2.7921900153160095e-02" rms="2.5891023874282837e-01" purity="6.1956518888473511e-01" nType="0">
          <Node pos="l" depth="2" NCoef="0" IVar="-1" Cut="0.0000000000000000e+00" cType="1" res="1.1624950915575027e-01" rms="2.9236248135566711e-01" purity="7.5000000000000000e-01" nType="-99"/>
          <Node pos="r" depth="2" NCoef="0" IVar="-1" Cut="0.0000000000000000e+00" cType="1" res="-4.1948314756155014e-02" rms="2.1407718956470490e-01" purity="5.0000000000000000e-01" nType="-99"/>
        </Node>
      </Node>
    </BinaryTree>
    <BinaryTree type="DecisionTree" boostWeight="1.0000000000000000e+00" itree="71">
      <Node pos="s" depth="0" NCoef="0" IVar="13" Cut="6.4080762863159180e-01" cType="0" res="1.2849356280639768e-03" rms="1.8691980838775635e-01" purity="7.8375285863876343e-01" nType="0">
        <Node pos="l" depth="1" NCoef="0" IVar="-1" Cut="0.0000000000000000e+00" cType="1" res="8.4789976477622986e-02" rms="2.9188027977943420e-01" purity="8.0487805604934692e-01" nType="-99"/>
        <Node pos="r" depth="1" NCoef="0" IVar="10" Cut="9.5238095521926880e-01" cType="1" res="-2.2801852319389582e-03" rms="1.7942835390567780e-01" purity="7.8271305561065674e-01" nType="0">
          <Node pos="l" depth="2" NCoef="0" IVar="-1" Cut="0.0000000000000000e+00" cType="1" res="-3.9016399532556534e-02" rms="1.5602491796016693e-01" purity="8.5911601781845093e-01" nType="-99"/>
          <Node pos="r" depth="2" NCoef="0" IVar="-1" Cut="0.0000000000000000e+00" cType="1" res="6.0534983873367310e-02" rms="2.8835964202880859e-01" purity="2.7522936463356018e-01" nType="-99"/>
        </Node>
      </Node>
    </BinaryTree>
    <BinaryTree type="DecisionTree" boostWeight="1.0000000000000000e+00" itree="72">
      <Node pos="s" depth="0" NCoef="0" IVar="4" Cut="1.3714285850524902e+01" cType="0" res="-8.1192224752157927e-04" rms="1.9290640950202942e-01" purity="7.7090120315551758e-01" nType="0">
        <Node pos="l" depth="1" NCoef="0" IVar="-1" Cut="0.0000000000000000e+00" cType="1" res="8.9866705238819122e-03" rms="1.7452631890773773e-01" purity="7.7245509624481201e-01" nType="-99"/>
        <Node pos="r" depth="1" NCoef="0" IVar="11" Cut="2.0544645190238953e-01" cType="0" res="-3.0030062422156334e-02" rms="3.1912773847579956e-01" purity="7.5581395626068115e-01" nType="0">
          <Node pos="l" depth="2" NCoef="0" IVar="-1" Cut="0.0000000000000000e+00" cType="1" res="1.6629058122634888e-01" rms="3.7613771855831146e-02" purity="1.0000000000000000e+00" nType="-99"/>
          <Node pos="r" depth="2" NCoef="0" IVar="-1" Cut="0.0000000000000000e+00" cType="1" res="-6.9241881370544434e-02" rms="4.3519204854965210e-01" purity="5.3333336114883423e-01" nType="-99"/>
        </Node>
      </Node>
    </BinaryTree>
    <BinaryTree type="DecisionTree" boostWeight="1.0000000000000000e+00" itree="73">
      <Node pos="s" depth="0" NCoef="0" IVar="10" Cut="9.5238095521926880e-01" cType="1" res="-6.0105305165052414e-03" rms="1.8749099969863892e-01" purity="7.6544624567031860e-01" nType="0">
        <Node pos="l" depth="1" NCoef="0" IVar="-1" Cut="0.0000000000000000e+00" cType="1" res="1.6958328196778893e-03" rms="1.5956138074398041e-01" purity="8.6369770765304565e-01" nType="-99"/>
        <Node pos="r" depth="1" NCoef="0" IVar="13" Cut="2.6089680194854736e-01" cType="1" res="-4.1541844606399536e-02" rms="2.9608762264251709e-01" purity="2.1804511547088623e-01" nType="0">
          <Node pos="l" depth="2" NCoef="0" IVar="-1" Cut="0.0000000000000000e+00" cType="1" res="3.2295007258653641e-03" rms="3.4453150629997253e-01" purity="3.3870968222618103e-01" nType="-99"/>
          <Node pos="r" depth="2" NCoef="0" IVar="-1" Cut="0.0000000000000000e+00" cType="1" res="-1.5321283042430878e-01" rms="2.3957218229770660e-01" purity="1.1267605423927307e-01" nType="-99"/>
        </Node>
      </Node>
    </BinaryTree>
    <BinaryTree type="DecisionTree" boostWeight="1.0000000000000000e+00" itree="74">
      <Node pos="s" depth="0" NCoef="0" IVar="11" Cut="5.7413548231124878e-02" cType="0" res="3.0130988452583551e-03" rms="1.9382385909557343e-01" purity="7.7815699577331543e-01" nType="0">
        <Node pos="l" depth="1" NCoef="0" IVar="-1" Cut="0.0000000000000000e+00" cType="1" res="-4.5447375625371933e-02" rms="1.6285619139671326e-01" purity="9.3098384141921997e-01" nType="-99"/>
        <Node pos="r" depth="1" NCoef="0" IVar="6" Cut="6.7688746452331543e+00" cType="1" res="4.3549023568630219e-02" rms="2.7099224925041199e-01" purity="2.5252524018287659e-01" nType="0">
          <Node pos="l" depth="2" NCoef="0" IVar="-1" Cut="0.0000000000000000e+00" cType="1" res="1.2731245160102844e-01" rms="3.7125918269157410e-01" purity="7.4509805440902710e-01" nType="-99"/>
          <Node pos="r" depth="2" NCoef="0" IVar="-1" Cut="0.0000000000000000e+00" cType="1" res="3.5422723740339279e-02" rms="2.1742096543312073e-01" purity="8.1632651388645172e-02" nType="-99"/>
        </Node>
      </Node>
    </BinaryTree>
    <BinaryTree type="DecisionTree" boostWeight="1.0000000000000000e+00" itree="75">
      <Node pos="s" depth="0" NCoef="0" IVar="12" Cut="8.4227573871612549e-01" cType="0" res="-7.4025098001584411e-04" rms="1.8025363981723785e-01" purity="7.6030367612838745e-01" nType="0">
        <Node pos="l" depth="1" NCoef="0" IVar="-1" Cut="0.0000000000000000e+00" cType="1" res="3.9424143731594086e-02" rms="3.2607069611549377e-01" purity="7.7647060155868530e-01" nType="-99"/>
        <Node pos="r" depth="1" NCoef="0" IVar="10" Cut="9.5238095521926880e-01" cType="1" res="-4.2488719336688519e-03" rms="1.5767087042331696e-01" purity="7.5866186618804932e-01" nType="0">
          <Node pos="l" depth="2" NCoef="0" IVar="-1" Cut="0.0000000000000000e+00" cType="1" res="2.5652389973402023e-02" rms="1.3528333604335785e-01" purity="8.6666667461395264e-01" nType="-99"/>
          <Node pos="r" depth="2" NCoef="0" IVar="-1" Cut="0.0000000000000000e+00" cType="1" res="-1.3165339827537537e-01" rms="2.4915318191051483e-01" purity="9.4017095863819122e-02" nType="-99"/>
        </Node>
      </Node>
    </BinaryTree>
    <BinaryTree type="DecisionTree" boostWeight="1.0000000000000000e+00" itree="76">
      <Node pos="s" depth="0" NCoef="0" IVar="13" Cut="6.0703957080841064e-01" cType="1" res="1.9440486794337630e-03" rms="1.8753597140312195e-01" purity="7.6838636398315430e-01" nType="0">
        <Node pos="l" depth="1" NCoef="0" IVar="3" Cut="4.4086718559265137e+00" cType="1" res="5.0937356427311897e-03" rms="1.7487733066082001e-01" purity="7.7066355943679810e-01" nType="0">
          <Node pos="l" depth="2" NCoef="0" IVar="-1" Cut="0.0000000000000000e+00" cType="1" res="1.0750519111752510e-02" rms="1.6730983555316925e-01" purity="7.7411478757858276e-01" nType="-99"/>
          <Node pos="r" depth="2" NCoef="0" IVar="-1" Cut="0.0000000000000000e+00" cType="1" res="7.9077459871768951e-02" rms="2.8289756178855896e-01" purity="6.9999998807907104e-01" nType="-99"/>
        </Node>
        <Node pos="r" depth="1" NCoef="0" IVar="-1" Cut="0.0000000000000000e+00" cType="1" res="-6.3268750905990601e-02" rms="3.2876026630401611e-01" purity="7.3076921701431274e-01" nType="-99"/>
      </Node>
    </BinaryTree>
    <BinaryTree type="DecisionTree" boostWeight="1.0000000000000000e+00" itree="77">
      <Node pos="s" depth="0" NCoef="0" IVar="4" Cut="2.0761905670166016e+01" cType="1" res="5.0921780057251453e-03" rms="1.8054148554801941e-01" purity="7.7631580829620361e-01" nType="0">
        <Node pos="l" depth="1" NCoef="0" IVar="6" Cut="5.7402696609497070e+00" cType="1" res="1.8985937349498272e-03" rms="1.7376251518726349e-01" purity="8.2359951734542847e-01" nType="0">
          <Node pos="l" depth="2" NCoef="0" IVar="-1" Cut="0.0000000000000000e+00" cType="1" res="3.8342922925949097e-02" rms="1.4242245256900787e-01" purity="9.6366506814956665e-01" nType="-99"/>
          <Node pos="r" depth="2" NCoef="0" IVar="-1" Cut="0.0000000000000000e+00" cType="1" res="-2.3374298587441444e-02" rms="2.4570038914680481e-01" purity="3.9320388436317444e-01" nType="-99"/>
        </Node>
        <Node pos="r" depth="1" NCoef="0" IVar="-1" Cut="0.0000000000000000e+00" cType="1" res="1.1871422082185745e-01" rms="2.4235348403453827e-01" purity="2.3287671804428101e-01" nType="-99"/>
      </Node>
    </BinaryTree>
    <BinaryTree type="DecisionTree" boostWeight="1.0000000000000000e+00" itree="78">
      <Node pos="s" depth="0" NCoef="0" IVar="4" Cut="1.2666666984558105e+01" cType="1" res="1.9208698067814112e-03" rms="1.8839082121849060e-01" purity="7.7080959081649780e-01" nType="0">
        <Node pos="l" depth="1" NCoef="0" IVar="-1" Cut="0.0000000000000000e+00" cType="1" res="1.3380043208599091e-01" rms="3.1129917502403259e-01" purity="7.9545456171035767e-01" nType="-99"/>
        <Node pos="r" depth="1" NCoef="0" IVar="11" Cut="5.8517888188362122e-02" cType="0" res="-3.1149017158895731e-03" rms="1.7816168069839478e-01" purity="7.6950782537460327e-01" nType="0">
          <Node pos="l" depth="2" NCoef="0" IVar="-1" Cut="0.0000000000000000e+00" cType="1" res="2.3473560810089111e-02" rms="1.4607043564319611e-01" purity="9.4891643524169922e-01" nType="-99"/>
          <Node pos="r" depth="2" NCoef="0" IVar="-1" Cut="0.0000000000000000e+00" cType="1" res="-6.0004003345966339e-02" rms="2.5853729248046875e-01" purity="1.4973261952400208e-01" nType="-99"/>
        </Node>
      </Node>
    </BinaryTree>
    <BinaryTree type="DecisionTree" boostWeight="1.0000000000000000e+00" itree="79">
      <Node pos="s" depth="0" NCoef="0" IVar="3" Cut="4.6515245437622070e+00" cType="1" res="-4.2581288143992424e-03" rms="1.8038716912269592e-01" purity="7.6889377832412720e-01" nType="0">
        <Node pos="l" depth="1" NCoef="0" IVar="10" Cut="9.0476191043853760e-01" cType="1" res="-2.4657300673425198e-04" rms="1.6608230769634247e-01" purity="7.7389276027679443e-01" nType="0">
          <Node pos="l" depth="2" NCoef="0" IVar="-1" Cut="0.0000000000000000e+00" cType="1" res="-3.5451799631118774e-02" rms="1.1923419684171677e-01" purity="8.7463974952697754e-01" nType="-99"/>
          <Node pos="r" depth="2" NCoef="0" IVar="-1" Cut="0.0000000000000000e+00" cType="1" res="3.1372241675853729e-02" rms="2.8933545947074890e-01" purity="3.4756097197532654e-01" nType="-99"/>
        </Node>
        <Node pos="r" depth="1" NCoef="0" IVar="-1" Cut="0.0000000000000000e+00" cType="1" res="-8.9628748595714569e-02" rms="3.2509833574295044e-01" purity="6.9090908765792847e-01" nType="-99"/>
      </Node>
    </BinaryTree>
    <BinaryTree type="DecisionTree" boostWeight="1.0000000000000000e+00" itree="80">
      <Node pos="s" depth="0" NCoef="0" IVar="4" Cut="1.2857142448425293e+01" cType="0" res="1.1268397793173790e-03" rms="1.8075940012931824e-01" purity="7.7608698606491089e-01" nType="0">
        <Node pos="l" depth="1" NCoef="0" IVar="10" Cut="9.5238095521926880e-01" cType="1" res="3.8437587209045887e-03" rms="1.6355408728122711e-01" purity="7.8310501575469971e-01" nType="0">
          <Node pos="l" depth="2" NCoef="0" IVar="-1" Cut="0.0000000000000000e+00" cType="1" res="5.9322647750377655e-02" rms="1.2754297256469727e-01" purity="8.8575267791748047e-01" nType="-99"/>
          <Node pos="r" depth="2" NCoef="0" IVar="-1" Cut="0.0000000000000000e+00" cType="1" res="-6.3630536198616028e-02" rms="2.8978908061981201e-01" purity="2.0454545319080353e-01" nType="-99"/>
        </Node>
        <Node pos="r" depth="1" NCoef="0" IVar="-1" Cut="0.0000000000000000e+00" cType="1" res="-6.2701590359210968e-02" rms="3.8411331176757812e-01" purity="6.3636362552642822e-01" nType="-99"/>
      </Node>
    </BinaryTree>
    <BinaryTree type="DecisionTree" boostWeight="1.0000000000000000e+00" itree="81">
      <Node pos="s" depth="0" NCoef="0" IVar="6" Cut="6.3051953315734863e+00" cType="1" res="1.2345890281721950e-03" rms="1.8507470190525055e-01" purity="7.7681475877761841e-01" nType="0">
        <Node pos="l" depth="1" NCoef="0" IVar="-1" Cut="0.0000000000000000e+00" cType="1" res="-3.2132375985383987e-02" rms="1.5306632220745087e-01" purity="9.5652174949645996e-01" nType="-99"/>
        <Node pos="r" depth="1" NCoef="0" IVar="2" Cut="2.1346938610076904e-01" cType="1" res="1.7900517210364342e-02" rms="2.4913485348224640e-01" purity="3.0859375000000000e-01" nType="0">
          <Node pos="l" depth="2" NCoef="0" IVar="-1" Cut="0.0000000000000000e+00" cType="1" res="8.7246857583522797e-02" rms="3.2056280970573425e-01" purity="4.2307692766189575e-01" nType="-99"/>
          <Node pos="r" depth="2" NCoef="0" IVar="-1" Cut="0.0000000000000000e+00" cType="1" res="-1.4917206717655063e-03" rms="2.0765784382820129e-01" purity="2.5842696428298950e-01" nType="-99"/>
        </Node>
      </Node>
    </BinaryTree>
    <BinaryTree type="DecisionTree" boostWeight="1.0000000000000000e+00" itree="82">
      <Node pos="s" depth="0" NCoef="0" IVar="13" Cut="6.4675801992416382e-01" cType="1" res="-6.4289709553122520e-03" rms="1.9687411189079285e-01" purity="7.4972558021545410e-01" nType="0">
        <Node pos="l" depth="1" NCoef="0" IVar="10" Cut="9.0476191043853760e-01" cType="1" res="-3.8335591088980436e-03" rms="1.8433621525764465e-01" purity="7.5404155254364014e-01" nType="0">
          <Node pos="l" depth="2" NCoef="0" IVar="-1" Cut="0.0000000000000000e+00" cType="1" res="-6.9089740514755249e-02" rms="1.3901902735233307e-01" purity="8.6627906560897827e-01" nType="-99"/>
          <Node pos="r" depth="2" NCoef="0" IVar="-1" Cut="0.0000000000000000e+00" cType="1" res="3.4724012017250061e-02" rms="2.9981988668441772e-01" purity="3.2022473216056824e-01" nType="-99"/>
        </Node>
        <Node pos="r" depth="1" NCoef="0" IVar="-1" Cut="0.0000000000000000e+00" cType="1" res="-7.1139425039291382e-02" rms="3.5793194174766541e-01" purity="6.6666668653488159e-01" nType="-99"/>
      </Node>
    </BinaryTree>
    <BinaryTree type="DecisionTree" boostWeight="1.0000000000000000e+00" itree="83">
      <Node pos="s" depth="0" NCoef="0" IVar="13" Cut="5.4147315025329590e-01" cType="0" res="-1.3969914289191365e-03" rms="1.7978070676326752e-01" purity="7.4697470664978027e-01" nType="0">
        <Node pos="l" depth="1" NCoef="0" IVar="-1" Cut="0.0000000000000000e+00" cType="1" res="6.7130513489246368e-02" rms="2.6685345172882080e-01" purity="8.2926827669143677e-01" nType="-99"/>
        <Node pos="r" depth="1" NCoef="0" IVar="11" Cut="1.1703577637672424e-01" cType="0" res="-5.6430986151099205e-03" rms="1.6812254488468170e-01" purity="7.3881500959396362e-01" nType="0">
          <Node pos="l" depth="2" NCoef="0" IVar="-1" Cut="0.0000000000000000e+00" cType="1" res="4.4184900820255280e-02" rms="9.4346441328525543e-02" purity="9.8566305637359619e-01" nType="-99"/>
          <Node pos="r" depth="2" NCoef="0" IVar="-1" Cut="0.0000000000000000e+00" cType="1" res="-5.0785183906555176e-02" rms="2.6036083698272705e-01" purity="2.2676579654216766e-01" nType="-99"/>
        </Node>
      </Node>
    </BinaryTree>
    <BinaryTree type="DecisionTree" boostWeight="1.0000000000000000e+00" itree="84">
      <Node pos="s" depth="0" NCoef="0" IVar="3" Cut="3.5914154052734375e+00" cType="1" res="-1.2144072679802775e-03" rms="1.8084625899791718e-01" purity="7.7576446533203125e-01" nType="0">
        <Node pos="l" depth="1" NCoef="0" IVar="2" Cut="6.4552478492259979e-02" cType="1" res="-4.6097571030259132e-03" rms="1.7028510570526123e-01" purity="7.8234583139419556e-01" nType="0">
          <Node pos="l" depth="2" NCoef="0" IVar="-1" Cut="0.0000000000000000e+00" cType="1" res="-1.1978073418140411e-01" rms="2.2584266960620880e-01" purity="7.8333336114883423e-01" nType="-99"/>
          <Node pos="r" depth="2" NCoef="0" IVar="-1" Cut="0.0000000000000000e+00" cType="1" res="-6.4900387078523636e-03" rms="1.6470418870449066e-01" purity="7.8226858377456665e-01" nType="-99"/>
        </Node>
        <Node pos="r" depth="1" NCoef="0" IVar="-1" Cut="0.0000000000000000e+00" cType="1" res="5.9820648282766342e-02" rms="2.9117915034294128e-01" purity="6.7857140302658081e-01" nType="-99"/>
      </Node>
    </BinaryTree>
