<?xml version="1.0"?>
<MethodSetup Method="BDT::BDTG">
  <GeneralInfo>
    <Info name="TMVA Release" value="4.1.2 [262402]"/>
    <Info name="ROOT Release" value="5.32/00 [335872]"/>
    <Info name="Creator" value="ivo"/>
    <Info name="Date" value="Mon Aug  5 13:46:56 2013"/>
    <Info name="Host" value="Linux lxbuild168.cern.ch 2.6.18-308.16.1.el5 #1 SMP Thu Oct 4 14:02:28 CEST 2012 x86_64 x86_64 x86_64 GNU/Linux"/>
    <Info name="Dir" value="/grid_mnt/vol__vol1__u/llr/cms/ivo/PFAntiElecMVA/CMSSW_5_3_11_patch3_NewTraining/src/IvoNaranjo/ElectronsStudies/test/Macros/tmva"/>
    <Info name="Training events" value="128063"/>
    <Info name="TrainingTime" value="1.64653858e+02"/>
    <Info name="AnalysisType" value="Classification"/>
  </GeneralInfo>
  <Options>
    <Option name="V" modified="Yes">False</Option>
    <Option name="VerbosityLevel" modified="No">Default</Option>
    <Option name="VarTransform" modified="No">None</Option>
    <Option name="H" modified="Yes">False</Option>
    <Option name="CreateMVAPdfs" modified="No">False</Option>
    <Option name="IgnoreNegWeightsInTraining" modified="No">False</Option>
    <Option name="NTrees" modified="Yes">600</Option>
    <Option name="RenormByClass" modified="No">False</Option>
    <Option name="BoostType" modified="Yes">Grad</Option>
    <Option name="AdaBoostR2Loss" modified="No">quadratic</Option>
    <Option name="UseBaggedGrad" modified="Yes">True</Option>
    <Option name="GradBaggingFraction" modified="Yes">6.000000e-01</Option>
    <Option name="Shrinkage" modified="Yes">3.000000e-01</Option>
    <Option name="AdaBoostBeta" modified="No">1.000000e+00</Option>
    <Option name="UseRandomisedTrees" modified="No">False</Option>
    <Option name="UseNvars" modified="No">5</Option>
    <Option name="UsePoissonNvars" modified="No">True</Option>
    <Option name="UseNTrainEvents" modified="No">128063</Option>
    <Option name="UseWeightedTrees" modified="No">True</Option>
    <Option name="UseYesNoLeaf" modified="No">True</Option>
    <Option name="NodePurityLimit" modified="No">5.000000e-01</Option>
    <Option name="SeparationType" modified="Yes">giniindex</Option>
    <Option name="nEventsMin" modified="No">40</Option>
    <Option name="nCuts" modified="Yes">20</Option>
    <Option name="UseFisherCuts" modified="No">False</Option>
    <Option name="MinLinCorrForFisher" modified="No">8.000000e-01</Option>
    <Option name="UseExclusiveVars" modified="No">False</Option>
    <Option name="PruneStrength" modified="Yes">5.000000e+01</Option>
    <Option name="PruneMethod" modified="Yes">costcomplexity</Option>
    <Option name="PruneBeforeBoost" modified="No">False</Option>
    <Option name="PruningValFraction" modified="No">5.000000e-01</Option>
    <Option name="NNodesMax" modified="Yes">5</Option>
    <Option name="MaxDepth" modified="No">3</Option>
    <Option name="DoBoostMonitor" modified="No">False</Option>
    <Option name="NegWeightTreatment" modified="No">ignorenegweights</Option>
  </Options>
  <Variables NVar="20">
    <Variable VarIndex="0" Expression="Elec_EtotOverPin" Label="Elec_EtotOverPin" Title="EtotOverPin" Unit="     " Internal="Elec_EtotOverPin" Type="F" Min="-9.90000000e+01" Max="1.66445450e+02"/>
    <Variable VarIndex="1" Expression="Elec_EgammaOverPdif" Label="Elec_EgammaOverPdif" Title="EgammaOverPdif" Unit="     " Internal="Elec_EgammaOverPdif" Type="F" Min="-3.27535156e+05" Max="9.67253784e+02"/>
    <Variable VarIndex="2" Expression="Elec_Fbrem" Label="Elec_Fbrem" Title="Fbrem" Unit="     " Internal="Elec_Fbrem" Type="F" Min="-8.97603226e+01" Max="9.99316871e-01"/>
    <Variable VarIndex="3" Expression="Elec_Chi2GSF" Label="Elec_Chi2GSF" Title="Elec_Chi2GSF" Unit="     " Internal="Elec_Chi2GSF" Type="F" Min="1.18062265e-01" Max="1.38330029e+03"/>
    <Variable VarIndex="4" Expression="Elec_GSFNumHits" Label="Elec_GSFNumHits" Title="Elec_GSFNumHits" Unit="     " Internal="Elec_GSFNumHits" Type="I" Min="5.00000000e+00" Max="2.40000000e+01"/>
    <Variable VarIndex="5" Expression="Elec_GSFTrackResol" Label="Elec_GSFTrackResol" Title="Elec_GSFTrackResol" Unit="     " Internal="Elec_GSFTrackResol" Type="F" Min="1.05642024e-02" Max="1.13222117e+05"/>
    <Variable VarIndex="6" Expression="Elec_GSFTracklnPt" Label="Elec_GSFTracklnPt" Title="Elec_GSFTracklnPt" Unit="     " Internal="Elec_GSFTracklnPt" Type="F" Min="-2.52012682e+00" Max="3.50670662e+01"/>
    <Variable VarIndex="7" Expression="Elec_GSFTrackEta" Label="Elec_GSFTrackEta" Title="Elec_GSFTrackEta" Unit="     " Internal="Elec_GSFTrackEta" Type="F" Min="-2.38330626e+00" Max="2.35108733e+00"/>
    <Variable VarIndex="8" Expression="Tau_EtaAtEcalEntrance" Label="Tau_EtaAtEcalEntrance" Title="PFTauEtaAtEcalEntrance" Unit="     " Internal="Tau_EtaAtEcalEntrance" Type="F" Min="-2.29991436e+00" Max="2.29991460e+00"/>
    <Variable VarIndex="9" Expression="Tau_Pt" Label="Tau_Pt" Title="TauPt" Unit="     " Internal="Tau_Pt" Type="F" Min="1.50000753e+01" Max="2.89987274e+02"/>
    <Variable VarIndex="10" Expression="Tau_EmFraction" Label="Tau_EmFraction" Title="TauEmFraction" Unit="     " Internal="Tau_EmFraction" Type="F" Min="0.00000000e+00" Max="1.00000000e+00"/>
    <Variable VarIndex="11" Expression="Tau_HadrHoP" Label="Tau_HadrHoP" Title="TauHadrHoP" Unit="     " Internal="Tau_HadrHoP" Type="F" Min="0.00000000e+00" Max="1.72487411e+01"/>
    <Variable VarIndex="12" Expression="Tau_HadrEoP" Label="Tau_HadrEoP" Title="TauHadrEoP" Unit="     " Internal="Tau_HadrEoP" Type="F" Min="0.00000000e+00" Max="9.00835323e+00"/>
    <Variable VarIndex="13" Expression="Tau_HadrMva" Label="Tau_HadrMva" Title="HadrMva" Unit="     " Internal="Tau_HadrMva" Type="F" Min="-1.00000000e+00" Max="1.00000000e+00"/>
    <Variable VarIndex="14" Expression="Tau_GSFChi2" Label="Tau_GSFChi2" Title="Tau_GSFChi2" Unit="     " Internal="Tau_GSFChi2" Type="F" Min="1.18062265e-01" Max="1.38330029e+03"/>
    <Variable VarIndex="15" Expression="(Tau_GSFNumHits-Tau_KFNumHits)/(Tau_GSFNumHits+Tau_KFNumHits)" Label="(Tau_GSFNumHits-Tau_KFNumHits)/(Tau_GSFNumHits+Tau_KFNumHits)" Title="Tau_NumHitsVariable" Unit="     " Internal="_Tau_GSFNumHits_M_Tau_KFNumHits__D__Tau_GSFNumHits_P_Tau_KFNumHits_" Type="F" Min="-1.60526311e+00" Max="7.69230783e-01"/>
    <Variable VarIndex="16" Expression="Tau_GSFTrackResol" Label="Tau_GSFTrackResol" Title="Tau_GSFTrackResol" Unit="     " Internal="Tau_GSFTrackResol" Type="F" Min="1.05642024e-02" Max="1.13222117e+05"/>
    <Variable VarIndex="17" Expression="Tau_GSFTracklnPt" Label="Tau_GSFTracklnPt" Title="Tau_GSFTracklnPt" Unit="     " Internal="Tau_GSFTracklnPt" Type="F" Min="-2.52012682e+00" Max="3.50670662e+01"/>
    <Variable VarIndex="18" Expression="Tau_GSFTrackEta" Label="Tau_GSFTrackEta" Title="Tau_GSFTrackEta" Unit="     " Internal="Tau_GSFTrackEta" Type="F" Min="-2.38330626e+00" Max="2.35108733e+00"/>
    <Variable VarIndex="19" Expression="Tau_dCrackEta" Label="Tau_dCrackEta" Title="TaudCrackEta" Unit="     " Internal="Tau_dCrackEta" Type="F" Min="8.33623558e-02" Max="8.25274587e-01"/>
  </Variables>
  <Spectators NSpec="0"/>
  <Classes NClass="2">
    <Class Name="Signal" Index="0"/>
    <Class Name="Background" Index="1"/>
  </Classes>
  <Transformations NTransformations="0"/>
  <MVAPdfs/>
  <Weights NTrees="600" AnalysisType="1">
    <BinaryTree type="DecisionTree" boostWeight="1.0000000000000000e+00" itree="0">
      <Node pos="s" depth="0" NCoef="0" IVar="13" Cut="2.3809523880481720e-01" cType="1" res="-2.2666995227336884e-01" rms="4.4566884636878967e-01" purity="2.7333003282546997e-01" nType="0">
        <Node pos="l" depth="1" NCoef="0" IVar="-1" Cut="0.0000000000000000e+00" cType="1" res="3.6211125552654266e-02" rms="4.9634429812431335e-01" purity="5.6035184860229492e-01" nType="-99"/>
        <Node pos="r" depth="1" NCoef="0" IVar="9" Cut="6.1075473785400391e+01" cType="0" res="-4.1546386480331421e-01" rms="2.7819016575813293e-01" purity="8.4536127746105194e-02" nType="0">
          <Node pos="l" depth="2" NCoef="0" IVar="-1" Cut="0.0000000000000000e+00" cType="1" res="6.7405976355075836e-02" rms="4.8721554875373840e-01" purity="6.1234331130981445e-01" nType="-99"/>
          <Node pos="r" depth="2" NCoef="0" IVar="-1" Cut="0.0000000000000000e+00" cType="1" res="-2.5650355219841003e-01" rms="2.5930419564247131e-01" purity="7.2494059801101685e-02" nType="-99"/>
        </Node>
      </Node>
    </BinaryTree>
    <BinaryTree type="DecisionTree" boostWeight="1.0000000000000000e+00" itree="1">
      <Node pos="s" depth="0" NCoef="0" IVar="13" Cut="1.4285714924335480e-01" cType="1" res="-1.6074368357658386e-01" rms="4.1165155172348022e-01" purity="2.7277225255966187e-01" nType="0">
        <Node pos="l" depth="1" NCoef="0" IVar="-1" Cut="0.0000000000000000e+00" cType="1" res="4.3077714741230011e-02" rms="4.9186989665031433e-01" purity="5.8979976177215576e-01" nType="-99"/>
        <Node pos="r" depth="1" NCoef="0" IVar="0" Cut="1.9183436632156372e+00" cType="0" res="-2.8303739428520203e-01" rms="2.9655039310455322e-01" purity="1.0597869008779526e-01" nType="0">
          <Node pos="l" depth="2" NCoef="0" IVar="-1" Cut="0.0000000000000000e+00" cType="1" res="-4.6529389917850494e-02" rms="4.5241615176200867e-01" purity="3.3195927739143372e-01" nType="-99"/>
          <Node pos="r" depth="2" NCoef="0" IVar="-1" Cut="0.0000000000000000e+00" cType="1" res="-2.0649075508117676e-01" rms="2.3402793705463409e-01" purity="6.1667934060096741e-02" nType="-99"/>
        </Node>
      </Node>
    </BinaryTree>
    <BinaryTree type="DecisionTree" boostWeight="1.0000000000000000e+00" itree="2">
      <Node pos="s" depth="0" NCoef="0" IVar="0" Cut="-8.6359741210937500e+01" cType="1" res="-1.1429332196712494e-01" rms="3.9107611775398254e-01" purity="2.7444535493850708e-01" nType="0">
        <Node pos="l" depth="1" NCoef="0" IVar="-1" Cut="0.0000000000000000e+00" cType="1" res="2.4072815477848053e-01" rms="2.4074518680572510e-01" purity="9.3756359815597534e-01" nType="-99"/>
        <Node pos="r" depth="1" NCoef="0" IVar="9" Cut="5.4283962249755859e+01" cType="0" res="-1.5700159966945648e-01" rms="3.7030136585235596e-01" purity="2.1922375261783600e-01" nType="0">
          <Node pos="l" depth="2" NCoef="0" IVar="-1" Cut="0.0000000000000000e+00" cType="1" res="1.6404286026954651e-01" rms="3.9901065826416016e-01" purity="7.5906038284301758e-01" nType="-99"/>
          <Node pos="r" depth="2" NCoef="0" IVar="-1" Cut="0.0000000000000000e+00" cType="1" res="-1.2642489373683929e-01" rms="3.5028111934661865e-01" purity="1.8283137679100037e-01" nType="-99"/>
        </Node>
      </Node>
    </BinaryTree>
    <BinaryTree type="DecisionTree" boostWeight="1.0000000000000000e+00" itree="3">
      <Node pos="s" depth="0" NCoef="0" IVar="13" Cut="4.2857143282890320e-01" cType="1" res="-8.0882087349891663e-02" rms="3.7057843804359436e-01" purity="2.7510291337966919e-01" nType="0">
        <Node pos="l" depth="1" NCoef="0" IVar="-1" Cut="0.0000000000000000e+00" cType="1" res="2.0018825307488441e-02" rms="4.4827222824096680e-01" purity="4.8720470070838928e-01" nType="-99"/>
        <Node pos="r" depth="1" NCoef="0" IVar="0" Cut="3.8933994770050049e+00" cType="0" res="-2.0019577443599701e-01" rms="2.0436131954193115e-01" purity="4.8354491591453552e-02" nType="0">
          <Node pos="l" depth="2" NCoef="0" IVar="-1" Cut="0.0000000000000000e+00" cType="1" res="-1.6131075099110603e-02" rms="4.3919509649276733e-01" purity="3.1775069236755371e-01" nType="-99"/>
          <Node pos="r" depth="2" NCoef="0" IVar="-1" Cut="0.0000000000000000e+00" cType="1" res="-1.6954289376735687e-01" rms="1.8479388952255249e-01" purity="3.7192981690168381e-02" nType="-99"/>
        </Node>
      </Node>
    </BinaryTree>
    <BinaryTree type="DecisionTree" boostWeight="1.0000000000000000e+00" itree="4">
      <Node pos="s" depth="0" NCoef="0" IVar="0" Cut="-8.6945396423339844e+01" cType="1" res="-5.8291550725698471e-02" rms="3.6197277903556824e-01" purity="2.7569800615310669e-01" nType="0">
        <Node pos="l" depth="1" NCoef="0" IVar="-1" Cut="0.0000000000000000e+00" cType="1" res="1.8396835029125214e-01" rms="2.4210865795612335e-01" purity="9.3695211410522461e-01" nType="-99"/>
        <Node pos="r" depth="1" NCoef="0" IVar="9" Cut="4.9556583404541016e+01" cType="0" res="-8.6118742823600769e-02" rms="3.5647937655448914e-01" purity="2.2028367221355438e-01" nType="0">
          <Node pos="l" depth="2" NCoef="0" IVar="-1" Cut="0.0000000000000000e+00" cType="1" res="1.0971959680318832e-01" rms="4.0609598159790039e-01" purity="6.7671775817871094e-01" nType="-99"/>
          <Node pos="r" depth="2" NCoef="0" IVar="-1" Cut="0.0000000000000000e+00" cType="1" res="-8.7907195091247559e-02" rms="3.4194791316986084e-01" purity="1.7748041450977325e-01" nType="-99"/>
        </Node>
      </Node>
    </BinaryTree>
    <BinaryTree type="DecisionTree" boostWeight="1.0000000000000000e+00" itree="5">
      <Node pos="s" depth="0" NCoef="0" IVar="13" Cut="3.3333334326744080e-01" cType="1" res="-4.0797866880893707e-02" rms="3.5300767421722412e-01" purity="2.7623778581619263e-01" nType="0">
        <Node pos="l" depth="1" NCoef="0" IVar="-1" Cut="0.0000000000000000e+00" cType="1" res="3.1290691345930099e-02" rms="4.4292339682579041e-01" purity="5.2911233901977539e-01" nType="-99"/>
        <Node pos="r" depth="1" NCoef="0" IVar="13" Cut="5.8731508255004883e-01" cType="1" res="-1.1359860002994537e-01" rms="2.3134863376617432e-01" purity="6.6326409578323364e-02" nType="0">
          <Node pos="l" depth="2" NCoef="0" IVar="-1" Cut="0.0000000000000000e+00" cType="1" res="-5.5819559842348099e-02" rms="3.3239105343818665e-01" purity="1.4830808341503143e-01" nType="-99"/>
          <Node pos="r" depth="2" NCoef="0" IVar="-1" Cut="0.0000000000000000e+00" cType="1" res="-1.5523359179496765e-01" rms="1.4974844455718994e-01" purity="2.4965178221464157e-02" nType="-99"/>
        </Node>
      </Node>
    </BinaryTree>
    <BinaryTree type="DecisionTree" boostWeight="1.0000000000000000e+00" itree="6">
      <Node pos="s" depth="0" NCoef="0" IVar="0" Cut="2.1220760345458984e+00" cType="0" res="-3.0122384428977966e-02" rms="3.4828856587409973e-01" purity="2.7627873420715332e-01" nType="0">
        <Node pos="l" depth="1" NCoef="0" IVar="-1" Cut="0.0000000000000000e+00" cType="1" res="9.6407800912857056e-02" rms="4.2943656444549561e-01" purity="5.2461415529251099e-01" nType="-99"/>
        <Node pos="r" depth="1" NCoef="0" IVar="13" Cut="-4.2857143282890320e-01" cType="1" res="-6.1176545917987823e-02" rms="3.2129824161529541e-01" purity="2.2881408035755157e-01" nType="0">
          <Node pos="l" depth="2" NCoef="0" IVar="-1" Cut="0.0000000000000000e+00" cType="1" res="1.0156882554292679e-01" rms="3.7198883295059204e-01" purity="7.6929408311843872e-01" nType="-99"/>
          <Node pos="r" depth="2" NCoef="0" IVar="-1" Cut="0.0000000000000000e+00" cType="1" res="-9.5805421471595764e-02" rms="2.9685592651367188e-01" purity="1.3277135789394379e-01" nType="-99"/>
        </Node>
      </Node>
    </BinaryTree>
    <BinaryTree type="DecisionTree" boostWeight="1.0000000000000000e+00" itree="7">
      <Node pos="s" depth="0" NCoef="0" IVar="13" Cut="-5.2380955219268799e-01" cType="1" res="-2.3149479180574417e-02" rms="3.3897310495376587e-01" purity="2.7444651722908020e-01" nType="0">
        <Node pos="l" depth="1" NCoef="0" IVar="-1" Cut="0.0000000000000000e+00" cType="1" res="9.4659484922885895e-02" rms="3.5610538721084595e-01" purity="8.0400419235229492e-01" nType="-99"/>
        <Node pos="r" depth="1" NCoef="0" IVar="0" Cut="2.1220760345458984e+00" cType="0" res="-4.1755482554435730e-02" rms="3.3210438489913940e-01" purity="2.0852099359035492e-01" nType="0">
          <Node pos="l" depth="2" NCoef="0" IVar="-1" Cut="0.0000000000000000e+00" cType="1" res="6.4972907304763794e-02" rms="4.2533162236213684e-01" purity="5.2111136913299561e-01" nType="-99"/>
          <Node pos="r" depth="2" NCoef="0" IVar="-1" Cut="0.0000000000000000e+00" cType="1" res="-7.3226988315582275e-02" rms="3.0161121487617493e-01" purity="1.4283698797225952e-01" nType="-99"/>
        </Node>
      </Node>
    </BinaryTree>
    <BinaryTree type="DecisionTree" boostWeight="1.0000000000000000e+00" itree="8">
      <Node pos="s" depth="0" NCoef="0" IVar="13" Cut="5.2380955219268799e-01" cType="1" res="-1.5943512320518494e-02" rms="3.3543199300765991e-01" purity="2.7556964755058289e-01" nType="0">
        <Node pos="l" depth="1" NCoef="0" IVar="-1" Cut="0.0000000000000000e+00" cType="1" res="2.0911104977130890e-02" rms="4.0991738438606262e-01" purity="4.4882732629776001e-01" nType="-99"/>
        <Node pos="r" depth="1" NCoef="0" IVar="4" Cut="1.2238095283508301e+01" cType="1" res="-7.6144151389598846e-02" rms="1.6850297152996063e-01" purity="3.2415367662906647e-02" nType="0">
          <Node pos="l" depth="2" NCoef="0" IVar="-1" Cut="0.0000000000000000e+00" cType="1" res="1.6722258180379868e-02" rms="3.3860900998115540e-01" purity="1.5375854074954987e-01" nType="-99"/>
          <Node pos="r" depth="2" NCoef="0" IVar="-1" Cut="0.0000000000000000e+00" cType="1" res="-1.2737162411212921e-01" rms="1.6040982306003571e-01" purity="2.8991097584366798e-02" nType="-99"/>
        </Node>
      </Node>
    </BinaryTree>
    <BinaryTree type="DecisionTree" boostWeight="1.0000000000000000e+00" itree="9">
      <Node pos="s" depth="0" NCoef="0" IVar="1" Cut="-9.6196327209472656e+01" cType="1" res="-1.2202416546642780e-02" rms="3.3366683125495911e-01" purity="2.7450188994407654e-01" nType="0">
        <Node pos="l" depth="1" NCoef="0" IVar="-1" Cut="0.0000000000000000e+00" cType="1" res="1.2687383592128754e-01" rms="2.4228638410568237e-01" purity="9.3545669317245483e-01" nType="-99"/>
        <Node pos="r" depth="1" NCoef="0" IVar="9" Cut="2.8094703674316406e+01" cType="0" res="-2.4124579504132271e-02" rms="3.3748054504394531e-01" purity="2.1922828257083893e-01" nType="0">
          <Node pos="l" depth="2" NCoef="0" IVar="-1" Cut="0.0000000000000000e+00" cType="1" res="2.4983787909150124e-02" rms="3.7550777196884155e-01" purity="3.3902448415756226e-01" nType="-99"/>
          <Node pos="r" depth="2" NCoef="0" IVar="-1" Cut="0.0000000000000000e+00" cType="1" res="-6.5855853259563446e-02" rms="3.0509769916534424e-01" purity="1.4007535576820374e-01" nType="-99"/>
        </Node>
      </Node>
    </BinaryTree>
    <BinaryTree type="DecisionTree" boostWeight="1.0000000000000000e+00" itree="10">
      <Node pos="s" depth="0" NCoef="0" IVar="19" Cut="5.7795190811157227e-01" cType="0" res="-8.4397792816162109e-03" rms="3.3209374547004700e-01" purity="2.7489724755287170e-01" nType="0">
        <Node pos="l" depth="1" NCoef="0" IVar="-1" Cut="0.0000000000000000e+00" cType="1" res="-7.0902109146118164e-02" rms="3.6842900514602661e-01" purity="2.8547897934913635e-01" nType="-99"/>
        <Node pos="r" depth="1" NCoef="0" IVar="13" Cut="4.7619048506021500e-02" cType="1" res="1.0977851226925850e-02" rms="3.1917634606361389e-01" purity="2.7216330170631409e-01" nType="0">
          <Node pos="l" depth="2" NCoef="0" IVar="-1" Cut="0.0000000000000000e+00" cType="1" res="8.5123024880886078e-02" rms="3.9554816484451294e-01" purity="7.0546633005142212e-01" nType="-99"/>
          <Node pos="r" depth="2" NCoef="0" IVar="-1" Cut="0.0000000000000000e+00" cType="1" res="-3.2177668064832687e-02" rms="2.8143829107284546e-01" purity="1.2953898310661316e-01" nType="-99"/>
        </Node>
      </Node>
    </BinaryTree>
    <BinaryTree type="DecisionTree" boostWeight="1.0000000000000000e+00" itree="11">
      <Node pos="s" depth="0" NCoef="0" IVar="9" Cut="5.4283962249755859e+01" cType="0" res="-5.4084057919681072e-03" rms="3.2919281721115112e-01" purity="2.7696129679679871e-01" nType="0">
        <Node pos="l" depth="1" NCoef="0" IVar="-1" Cut="0.0000000000000000e+00" cType="1" res="1.0045422613620758e-01" rms="3.5092166066169739e-01" purity="7.8065592050552368e-01" nType="-99"/>
        <Node pos="r" depth="1" NCoef="0" IVar="12" Cut="8.5793840885162354e-01" cType="1" res="-1.4489792287349701e-02" rms="3.2567179203033447e-01" purity="2.4351951479911804e-01" nType="0">
          <Node pos="l" depth="2" NCoef="0" IVar="-1" Cut="0.0000000000000000e+00" cType="1" res="1.0457901656627655e-01" rms="3.6583426594734192e-01" purity="6.3017493486404419e-01" nType="-99"/>
          <Node pos="r" depth="2" NCoef="0" IVar="-1" Cut="0.0000000000000000e+00" cType="1" res="-2.8144219890236855e-02" rms="3.1992921233177185e-01" purity="2.0986612141132355e-01" nType="-99"/>
        </Node>
      </Node>
    </BinaryTree>
    <BinaryTree type="DecisionTree" boostWeight="1.0000000000000000e+00" itree="12">
      <Node pos="s" depth="0" NCoef="0" IVar="17" Cut="6.1022272109985352e+00" cType="1" res="-5.1178489811718464e-03" rms="3.2621464133262634e-01" purity="2.7511835098266602e-01" nType="0">
        <Node pos="l" depth="1" NCoef="0" IVar="-1" Cut="0.0000000000000000e+00" cType="1" res="5.8878593146800995e-02" rms="3.8827428221702576e-01" purity="3.8924592733383179e-01" nType="-99"/>
        <Node pos="r" depth="1" NCoef="0" IVar="12" Cut="9.8230373859405518e-01" cType="1" res="-2.0610574632883072e-02" rms="3.0853754281997681e-01" purity="2.4962110817432404e-01" nType="0">
          <Node pos="l" depth="2" NCoef="0" IVar="-1" Cut="0.0000000000000000e+00" cType="1" res="8.5147731006145477e-02" rms="3.3152639865875244e-01" purity="6.9184088706970215e-01" nType="-99"/>
          <Node pos="r" depth="2" NCoef="0" IVar="-1" Cut="0.0000000000000000e+00" cType="1" res="-4.4430989772081375e-02" rms="3.0147981643676758e-01" purity="1.7646184563636780e-01" nType="-99"/>
        </Node>
      </Node>
    </BinaryTree>
    <BinaryTree type="DecisionTree" boostWeight="1.0000000000000000e+00" itree="13">
      <Node pos="s" depth="0" NCoef="0" IVar="13" Cut="6.1904764175415039e-01" cType="1" res="-4.3390267528593540e-03" rms="3.2464328408241272e-01" purity="2.7299299836158752e-01" nType="0">
        <Node pos="l" depth="1" NCoef="0" IVar="-1" Cut="0.0000000000000000e+00" cType="1" res="1.5701660886406898e-02" rms="3.8424441218376160e-01" purity="4.0197804570198059e-01" nType="-99"/>
        <Node pos="r" depth="1" NCoef="0" IVar="0" Cut="9.7021770477294922e+00" cType="0" res="-4.6365387737751007e-02" rms="1.4424192905426025e-01" purity="2.2932086139917374e-02" nType="0">
          <Node pos="l" depth="2" NCoef="0" IVar="-1" Cut="0.0000000000000000e+00" cType="1" res="-1.3816159963607788e-01" rms="3.4178575873374939e-01" purity="1.7021276056766510e-01" nType="-99"/>
          <Node pos="r" depth="2" NCoef="0" IVar="-1" Cut="0.0000000000000000e+00" cType="1" res="-1.1192702502012253e-01" rms="1.4207409322261810e-01" purity="2.2131400182843208e-02" nType="-99"/>
        </Node>
      </Node>
    </BinaryTree>
    <BinaryTree type="DecisionTree" boostWeight="1.0000000000000000e+00" itree="14">
      <Node pos="s" depth="0" NCoef="0" IVar="2" Cut="1.0129246115684509e-01" cType="1" res="-3.8267548661679029e-03" rms="3.2312989234924316e-01" purity="2.7305033802986145e-01" nType="0">
        <Node pos="l" depth="1" NCoef="0" IVar="-1" Cut="0.0000000000000000e+00" cType="1" res="1.2437806278467178e-01" rms="3.4486183524131775e-01" purity="7.6014763116836548e-01" nType="-99"/>
        <Node pos="r" depth="1" NCoef="0" IVar="19" Cut="5.4264134168624878e-01" cType="0" res="-1.8452562391757965e-02" rms="3.1723618507385254e-01" purity="2.2177140414714813e-01" nType="0">
          <Node pos="l" depth="2" NCoef="0" IVar="-1" Cut="0.0000000000000000e+00" cType="1" res="-7.1764260530471802e-02" rms="3.4827157855033875e-01" purity="2.3757274448871613e-01" nType="-99"/>
          <Node pos="r" depth="2" NCoef="0" IVar="-1" Cut="0.0000000000000000e+00" cType="1" res="-5.2575138397514820e-04" rms="3.0469167232513428e-01" purity="2.1685406565666199e-01" nType="-99"/>
        </Node>
      </Node>
    </BinaryTree>
    <BinaryTree type="DecisionTree" boostWeight="1.0000000000000000e+00" itree="15">
      <Node pos="s" depth="0" NCoef="0" IVar="9" Cut="2.8094703674316406e+01" cType="0" res="-3.0270921997725964e-03" rms="3.2039275765419006e-01" purity="2.7231585979461670e-01" nType="0">
        <Node pos="l" depth="1" NCoef="0" IVar="-1" Cut="0.0000000000000000e+00" cType="1" res="3.2965440303087234e-02" rms="3.6021023988723755e-01" purity="3.7833964824676514e-01" nType="-99"/>
        <Node pos="r" depth="1" NCoef="0" IVar="2" Cut="1.7739950120449066e-01" cType="1" res="-2.5805495679378510e-02" rms="2.8977429866790771e-01" purity="2.0442424714565277e-01" nType="0">
          <Node pos="l" depth="2" NCoef="0" IVar="-1" Cut="0.0000000000000000e+00" cType="1" res="5.5158175528049469e-02" rms="3.4816145896911621e-01" purity="5.8864152431488037e-01" nType="-99"/>
          <Node pos="r" depth="2" NCoef="0" IVar="-1" Cut="0.0000000000000000e+00" cType="1" res="-6.2978692352771759e-02" rms="2.7229568362236023e-01" purity="1.2055926769971848e-01" nType="-99"/>
        </Node>
      </Node>
    </BinaryTree>
    <BinaryTree type="DecisionTree" boostWeight="1.0000000000000000e+00" itree="16">
      <Node pos="s" depth="0" NCoef="0" IVar="10" Cut="9.5238095521926880e-01" cType="1" res="-4.4642231659963727e-04" rms="3.1876891851425171e-01" purity="2.7544078230857849e-01" nType="0">
        <Node pos="l" depth="1" NCoef="0" IVar="-1" Cut="0.0000000000000000e+00" cType="1" res="3.9322528988122940e-02" rms="3.5625225305557251e-01" purity="4.7190612554550171e-01" nType="-99"/>
        <Node pos="r" depth="1" NCoef="0" IVar="0" Cut="2.1220760345458984e+00" cType="0" res="-2.0076774060726166e-02" rms="2.9664388298988342e-01" purity="1.7878934741020203e-01" nType="0">
          <Node pos="l" depth="2" NCoef="0" IVar="-1" Cut="0.0000000000000000e+00" cType="1" res="3.9249874651432037e-02" rms="4.1242161393165588e-01" purity="4.9116894602775574e-01" nType="-99"/>
          <Node pos="r" depth="2" NCoef="0" IVar="-1" Cut="0.0000000000000000e+00" cType="1" res="-5.3795706480741501e-02" rms="2.6541814208030701e-01" purity="1.1629745364189148e-01" nType="-99"/>
        </Node>
      </Node>
    </BinaryTree>
    <BinaryTree type="DecisionTree" boostWeight="1.0000000000000000e+00" itree="17">
      <Node pos="s" depth="0" NCoef="0" IVar="19" Cut="1.8934981524944305e-01" cType="1" res="-2.1638273028656840e-04" rms="3.1810927391052246e-01" purity="2.7552071213722229e-01" nType="0">
        <Node pos="l" depth="1" NCoef="0" IVar="-1" Cut="0.0000000000000000e+00" cType="1" res="9.4020962715148926e-02" rms="3.2260760664939880e-01" purity="3.2584473490715027e-01" nType="-99"/>
        <Node pos="r" depth="1" NCoef="0" IVar="11" Cut="4.7091025114059448e-01" cType="1" res="-1.1232375167310238e-02" rms="3.1601145863533020e-01" purity="2.6714879274368286e-01" nType="0">
          <Node pos="l" depth="2" NCoef="0" IVar="-1" Cut="0.0000000000000000e+00" cType="1" res="-7.9800849780440331e-03" rms="3.1210577487945557e-01" purity="2.6842674612998962e-01" nType="-99"/>
          <Node pos="r" depth="2" NCoef="0" IVar="-1" Cut="0.0000000000000000e+00" cType="1" res="-1.0849645733833313e-01" rms="3.8891223073005676e-01" purity="2.2930233180522919e-01" nType="-99"/>
        </Node>
      </Node>
    </BinaryTree>
    <BinaryTree type="DecisionTree" boostWeight="1.0000000000000000e+00" itree="18">
      <Node pos="s" depth="0" NCoef="0" IVar="6" Cut="2.1697912216186523e+00" cType="0" res="1.5455226821359247e-04" rms="3.1552889943122864e-01" purity="2.7547612786293030e-01" nType="0">
        <Node pos="l" depth="1" NCoef="0" IVar="-1" Cut="0.0000000000000000e+00" cType="1" res="2.5081716012209654e-03" rms="3.1384629011154175e-01" purity="2.7585846185684204e-01" nType="-99"/>
        <Node pos="r" depth="1" NCoef="0" IVar="6" Cut="1.7629566192626953e+00" cType="0" res="-3.3756086230278015e-01" rms="4.2194786667823792e-01" purity="2.0574162900447845e-01" nType="0">
          <Node pos="l" depth="2" NCoef="0" IVar="-1" Cut="0.0000000000000000e+00" cType="1" res="-1.3656514883041382e-01" rms="4.4581326842308044e-01" purity="3.0898874998092651e-01" nType="-99"/>
          <Node pos="r" depth="2" NCoef="0" IVar="-1" Cut="0.0000000000000000e+00" cType="1" res="-2.9919081926345825e-01" rms="3.7196096777915955e-01" purity="1.2916666269302368e-01" nType="-99"/>
        </Node>
      </Node>
    </BinaryTree>
    <BinaryTree type="DecisionTree" boostWeight="1.0000000000000000e+00" itree="19">
      <Node pos="s" depth="0" NCoef="0" IVar="10" Cut="9.5238095521926880e-01" cType="1" res="-1.1079413816332817e-03" rms="3.1582435965538025e-01" purity="2.7463987469673157e-01" nType="0">
        <Node pos="l" depth="1" NCoef="0" IVar="-1" Cut="0.0000000000000000e+00" cType="1" res="3.0021313577890396e-02" rms="3.5544517636299133e-01" purity="4.7132396697998047e-01" nType="-99"/>
        <Node pos="r" depth="1" NCoef="0" IVar="17" Cut="4.9970383644104004e+00" cType="1" res="-1.6542274504899979e-02" rms="2.9313230514526367e-01" purity="1.7778903245925903e-01" nType="0">
          <Node pos="l" depth="2" NCoef="0" IVar="-1" Cut="0.0000000000000000e+00" cType="1" res="4.2520917952060699e-02" rms="4.1460269689559937e-01" purity="4.8913535475730896e-01" nType="-99"/>
          <Node pos="r" depth="2" NCoef="0" IVar="-1" Cut="0.0000000000000000e+00" cType="1" res="-3.4996386617422104e-02" rms="2.7809315919876099e-01" purity="1.4845383167266846e-01" nType="-99"/>
        </Node>
      </Node>
    </BinaryTree>
    <BinaryTree type="DecisionTree" boostWeight="1.0000000000000000e+00" itree="20">
      <Node pos="s" depth="0" NCoef="0" IVar="12" Cut="3.3856895565986633e-01" cType="0" res="-1.3026974629610777e-03" rms="3.1471750140190125e-01" purity="2.7381587028503418e-01" nType="0">
        <Node pos="l" depth="1" NCoef="0" IVar="-1" Cut="0.0000000000000000e+00" cType="1" res="2.3008520656730980e-04" rms="3.1357541680335999e-01" purity="2.7413800358772278e-01" nType="-99"/>
        <Node pos="r" depth="1" NCoef="0" IVar="2" Cut="7.2675979137420654e-01" cType="1" res="-2.9824325442314148e-01" rms="3.9226877689361572e-01" purity="2.0942407846450806e-01" nType="0">
          <Node pos="l" depth="2" NCoef="0" IVar="-1" Cut="0.0000000000000000e+00" cType="1" res="-3.7442389130592346e-01" rms="3.6416062712669373e-01" purity="2.1925133466720581e-01" nType="-99"/>
          <Node pos="r" depth="2" NCoef="0" IVar="-1" Cut="0.0000000000000000e+00" cType="1" res="-1.2985171377658844e-01" rms="3.4960871934890747e-01" purity="2.0000000298023224e-01" nType="-99"/>
        </Node>
      </Node>
    </BinaryTree>
    <BinaryTree type="DecisionTree" boostWeight="1.0000000000000000e+00" itree="21">
      <Node pos="s" depth="0" NCoef="0" IVar="19" Cut="3.3065712451934814e-01" cType="0" res="-1.6159734514076263e-04" rms="3.1409457325935364e-01" purity="2.7487653493881226e-01" nType="0">
        <Node pos="l" depth="1" NCoef="0" IVar="-1" Cut="0.0000000000000000e+00" cType="1" res="-2.1382946521043777e-02" rms="3.2262277603149414e-01" purity="2.7730038762092590e-01" nType="-99"/>
        <Node pos="r" depth="1" NCoef="0" IVar="13" Cut="4.2857143282890320e-01" cType="1" res="2.5517133995890617e-02" rms="2.9999378323554993e-01" purity="2.7151805162429810e-01" nType="0">
          <Node pos="l" depth="2" NCoef="0" IVar="-1" Cut="0.0000000000000000e+00" cType="1" res="7.8851595520973206e-02" rms="3.9704778790473938e-01" purity="6.0386925935745239e-01" nType="-99"/>
          <Node pos="r" depth="2" NCoef="0" IVar="-1" Cut="0.0000000000000000e+00" cType="1" res="-4.4320106506347656e-02" rms="2.0201894640922546e-01" purity="5.2282199263572693e-02" nType="-99"/>
        </Node>
      </Node>
    </BinaryTree>
    <BinaryTree type="DecisionTree" boostWeight="1.0000000000000000e+00" itree="22">
      <Node pos="s" depth="0" NCoef="0" IVar="15" Cut="2.0387509465217590e-01" cType="1" res="-4.2292141006328166e-04" rms="3.1231683492660522e-01" purity="2.7468296885490417e-01" nType="0">
        <Node pos="l" depth="1" NCoef="0" IVar="-1" Cut="0.0000000000000000e+00" cType="1" res="2.1952455863356590e-02" rms="3.3699503540992737e-01" purity="3.6766666173934937e-01" nType="-99"/>
        <Node pos="r" depth="1" NCoef="0" IVar="6" Cut="2.9956717491149902e+00" cType="1" res="-2.2495511919260025e-02" rms="2.8062415122985840e-01" purity="1.7099942266941071e-01" nType="0">
          <Node pos="l" depth="2" NCoef="0" IVar="-1" Cut="0.0000000000000000e+00" cType="1" res="-1.2603899836540222e-01" rms="4.4622033834457397e-01" purity="3.0245232582092285e-01" nType="-99"/>
          <Node pos="r" depth="2" NCoef="0" IVar="-1" Cut="0.0000000000000000e+00" cType="1" res="-2.9397513717412949e-02" rms="2.7527084946632385e-01" purity="1.6829042136669159e-01" nType="-99"/>
        </Node>
      </Node>
    </BinaryTree>
    <BinaryTree type="DecisionTree" boostWeight="1.0000000000000000e+00" itree="23">
      <Node pos="s" depth="0" NCoef="0" IVar="2" Cut="1.0129246115684509e-01" cType="1" res="-1.4494874048978090e-03" rms="3.1191045045852661e-01" purity="2.7357056736946106e-01" nType="0">
        <Node pos="l" depth="1" NCoef="0" IVar="-1" Cut="0.0000000000000000e+00" cType="1" res="7.5248710811138153e-02" rms="3.3306771516799927e-01" purity="7.6606506109237671e-01" nType="-99"/>
        <Node pos="r" depth="1" NCoef="0" IVar="2" Cut="1.8683546781539917e-01" cType="1" res="-9.1359755024313927e-03" rms="3.0859932303428650e-01" purity="2.2185853123664856e-01" nType="0">
          <Node pos="l" depth="2" NCoef="0" IVar="-1" Cut="0.0000000000000000e+00" cType="1" res="6.2564492225646973e-02" rms="3.6799848079681396e-01" purity="5.0646090507507324e-01" nType="-99"/>
          <Node pos="r" depth="2" NCoef="0" IVar="-1" Cut="0.0000000000000000e+00" cType="1" res="-2.5381086394190788e-02" rms="2.9877403378486633e-01" purity="1.8508251011371613e-01" nType="-99"/>
        </Node>
      </Node>
    </BinaryTree>
    <BinaryTree type="DecisionTree" boostWeight="1.0000000000000000e+00" itree="24">
      <Node pos="s" depth="0" NCoef="0" IVar="19" Cut="5.4255068302154541e-01" cType="0" res="-7.2217476554214954e-04" rms="3.1170973181724548e-01" purity="2.7304542064666748e-01" nType="0">
        <Node pos="l" depth="1" NCoef="0" IVar="-1" Cut="0.0000000000000000e+00" cType="1" res="-3.6003373563289642e-02" rms="3.4289646148681641e-01" purity="2.8301072120666504e-01" nType="-99"/>
        <Node pos="r" depth="1" NCoef="0" IVar="13" Cut="6.1904764175415039e-01" cType="1" res="1.0185117833316326e-02" rms="3.0034518241882324e-01" purity="2.6989164948463440e-01" nType="0">
          <Node pos="l" depth="2" NCoef="0" IVar="-1" Cut="0.0000000000000000e+00" cType="1" res="3.2196246087551117e-02" rms="3.6748480796813965e-01" purity="4.3310856819152832e-01" nType="-99"/>
          <Node pos="r" depth="2" NCoef="0" IVar="-1" Cut="0.0000000000000000e+00" cType="1" res="-8.1634379923343658e-02" rms="1.4335918426513672e-01" purity="2.2737998515367508e-02" nType="-99"/>
        </Node>
      </Node>
    </BinaryTree>
    <BinaryTree type="DecisionTree" boostWeight="1.0000000000000000e+00" itree="25">
      <Node pos="s" depth="0" NCoef="0" IVar="9" Cut="4.1189445495605469e+01" cType="0" res="1.0783462785184383e-03" rms="3.1032148003578186e-01" purity="2.7540281414985657e-01" nType="0">
        <Node pos="l" depth="1" NCoef="0" IVar="-1" Cut="0.0000000000000000e+00" cType="1" res="4.4834766536951065e-02" rms="3.5335251688957214e-01" purity="5.1356017589569092e-01" nType="-99"/>
        <Node pos="r" depth="1" NCoef="0" IVar="12" Cut="4.2896920442581177e-01" cType="1" res="-7.3564960621297359e-03" rms="3.0076095461845398e-01" purity="2.3041696846485138e-01" nType="0">
          <Node pos="l" depth="2" NCoef="0" IVar="-1" Cut="0.0000000000000000e+00" cType="1" res="-1.7633634805679321e-01" rms="4.1147360205650330e-01" purity="2.5307556986808777e-01" nType="-99"/>
          <Node pos="r" depth="2" NCoef="0" IVar="-1" Cut="0.0000000000000000e+00" cType="1" res="-8.0100409686565399e-03" rms="2.9903012514114380e-01" purity="2.3021504282951355e-01" nType="-99"/>
        </Node>
      </Node>
    </BinaryTree>
    <BinaryTree type="DecisionTree" boostWeight="1.0000000000000000e+00" itree="26">
      <Node pos="s" depth="0" NCoef="0" IVar="0" Cut="2.1220760345458984e+00" cType="0" res="-9.3018672487232834e-05" rms="3.1019002199172974e-01" purity="2.7524974942207336e-01" nType="0">
        <Node pos="l" depth="1" NCoef="0" IVar="-1" Cut="0.0000000000000000e+00" cType="1" res="3.3461488783359528e-02" rms="4.0057948231697083e-01" purity="5.2598619461059570e-01" nType="-99"/>
        <Node pos="r" depth="1" NCoef="0" IVar="19" Cut="5.7786083221435547e-01" cType="1" res="-7.6520144939422607e-03" rms="2.8922086954116821e-01" purity="2.2759175300598145e-01" nType="0">
          <Node pos="l" depth="2" NCoef="0" IVar="-1" Cut="0.0000000000000000e+00" cType="1" res="7.0228124968707561e-03" rms="2.8021404147148132e-01" purity="2.3071017861366272e-01" nType="-99"/>
          <Node pos="r" depth="2" NCoef="0" IVar="-1" Cut="0.0000000000000000e+00" cType="1" res="-6.3932955265045166e-02" rms="3.1909161806106567e-01" purity="2.1468298137187958e-01" nType="-99"/>
        </Node>
      </Node>
    </BinaryTree>
    <BinaryTree type="DecisionTree" boostWeight="1.0000000000000000e+00" itree="27">
      <Node pos="s" depth="0" NCoef="0" IVar="0" Cut="2.1546039581298828e+01" cType="0" res="-6.2698731198906898e-04" rms="3.0958622694015503e-01" purity="2.7388012409210205e-01" nType="0">
        <Node pos="l" depth="1" NCoef="0" IVar="-1" Cut="0.0000000000000000e+00" cType="1" res="-2.2738194465637207e-01" rms="3.9323437213897705e-01" purity="3.9622640609741211e-01" nType="-99"/>
        <Node pos="r" depth="1" NCoef="0" IVar="0" Cut="4.3190493583679199e+00" cType="0" res="4.8096405225805938e-04" rms="3.0871132016181946e-01" purity="2.7337199449539185e-01" nType="0">
          <Node pos="l" depth="2" NCoef="0" IVar="-1" Cut="0.0000000000000000e+00" cType="1" res="5.7481806725263596e-02" rms="3.9620259404182434e-01" purity="6.5905094146728516e-01" nType="-99"/>
          <Node pos="r" depth="2" NCoef="0" IVar="-1" Cut="0.0000000000000000e+00" cType="1" res="-6.2571861781179905e-03" rms="3.0085614323616028e-01" purity="2.4572747945785522e-01" nType="-99"/>
        </Node>
      </Node>
    </BinaryTree>
    <BinaryTree type="DecisionTree" boostWeight="1.0000000000000000e+00" itree="28">
      <Node pos="s" depth="0" NCoef="0" IVar="10" Cut="9.5238095521926880e-01" cType="1" res="1.1117748217657208e-03" rms="3.0850049853324890e-01" purity="2.7658855915069580e-01" nType="0">
        <Node pos="l" depth="1" NCoef="0" IVar="-1" Cut="0.0000000000000000e+00" cType="1" res="2.4710988625884056e-02" rms="3.4576985239982605e-01" purity="4.7334980964660645e-01" nType="-99"/>
        <Node pos="r" depth="1" NCoef="0" IVar="4" Cut="1.8571428298950195e+01" cType="1" res="-1.0097712278366089e-02" rms="2.8757101297378540e-01" purity="1.7897932231426239e-01" nType="0">
          <Node pos="l" depth="2" NCoef="0" IVar="-1" Cut="0.0000000000000000e+00" cType="1" res="2.0987857133150101e-02" rms="3.4142309427261353e-01" purity="2.4849340319633484e-01" nType="-99"/>
          <Node pos="r" depth="2" NCoef="0" IVar="-1" Cut="0.0000000000000000e+00" cType="1" res="-4.3685890734195709e-02" rms="2.5134935975074768e-01" purity="1.4015404880046844e-01" nType="-99"/>
        </Node>
      </Node>
    </BinaryTree>
    <BinaryTree type="DecisionTree" boostWeight="1.0000000000000000e+00" itree="29">
      <Node pos="s" depth="0" NCoef="0" IVar="6" Cut="2.8494722843170166e+00" cType="1" res="-4.3929694220423698e-04" rms="3.0769252777099609e-01" purity="2.7470552921295166e-01" nType="0">
        <Node pos="l" depth="1" NCoef="0" IVar="-1" Cut="0.0000000000000000e+00" cType="1" res="-1.1150661110877991e-01" rms="4.4204074144363403e-01" purity="3.2782101631164551e-01" nType="-99"/>
        <Node pos="r" depth="1" NCoef="0" IVar="17" Cut="5.9181613922119141e+00" cType="1" res="1.6517429612576962e-03" rms="3.0492737889289856e-01" purity="2.7398437261581421e-01" nType="0">
          <Node pos="l" depth="2" NCoef="0" IVar="-1" Cut="0.0000000000000000e+00" cType="1" res="4.5909203588962555e-02" rms="3.6752906441688538e-01" purity="4.2469069361686707e-01" nType="-99"/>
          <Node pos="r" depth="2" NCoef="0" IVar="-1" Cut="0.0000000000000000e+00" cType="1" res="-8.5035925731062889e-03" rms="2.9210376739501953e-01" purity="2.4794770777225494e-01" nType="-99"/>
        </Node>
      </Node>
    </BinaryTree>
    <BinaryTree type="DecisionTree" boostWeight="1.0000000000000000e+00" itree="30">
      <Node pos="s" depth="0" NCoef="0" IVar="11" Cut="4.7091025114059448e-01" cType="1" res="-8.4928842261433601e-04" rms="3.0594795942306519e-01" purity="2.7400508522987366e-01" nType="0">
        <Node pos="l" depth="1" NCoef="0" IVar="-1" Cut="0.0000000000000000e+00" cType="1" res="2.7787184808403254e-03" rms="3.0307269096374512e-01" purity="2.7519732713699341e-01" nType="-99"/>
        <Node pos="r" depth="1" NCoef="0" IVar="13" Cut="-8.9762657880783081e-01" cType="1" res="-9.4548515975475311e-02" rms="3.7675580382347107e-01" purity="2.3493181169033051e-01" nType="0">
          <Node pos="l" depth="2" NCoef="0" IVar="-1" Cut="0.0000000000000000e+00" cType="1" res="1.9686949253082275e-01" rms="3.9531821012496948e-01" purity="8.0000001192092896e-01" nType="-99"/>
          <Node pos="r" depth="2" NCoef="0" IVar="-1" Cut="0.0000000000000000e+00" cType="1" res="-8.0425381660461426e-02" rms="3.7152287364006042e-01" purity="2.2222222387790680e-01" nType="-99"/>
        </Node>
      </Node>
    </BinaryTree>
    <BinaryTree type="DecisionTree" boostWeight="1.0000000000000000e+00" itree="31">
      <Node pos="s" depth="0" NCoef="0" IVar="19" Cut="2.6000264286994934e-01" cType="1" res="-1.6882694035302848e-04" rms="3.0753433704376221e-01" purity="2.7415266633033752e-01" nType="0">
        <Node pos="l" depth="1" NCoef="0" IVar="-1" Cut="0.0000000000000000e+00" cType="1" res="4.0755402296781540e-02" rms="2.9305857419967651e-01" purity="2.7842485904693604e-01" nType="-99"/>
        <Node pos="r" depth="1" NCoef="0" IVar="12" Cut="8.5793840885162354e-01" cType="1" res="-1.0469789616763592e-02" rms="3.1267625093460083e-01" purity="2.7240589261054993e-01" nType="0">
          <Node pos="l" depth="2" NCoef="0" IVar="-1" Cut="0.0000000000000000e+00" cType="1" res="7.7916115522384644e-02" rms="3.5467618703842163e-01" purity="6.9708740711212158e-01" nType="-99"/>
          <Node pos="r" depth="2" NCoef="0" IVar="-1" Cut="0.0000000000000000e+00" cType="1" res="-2.0288700237870216e-02" rms="3.0875885486602783e-01" purity="2.4238085746765137e-01" nType="-99"/>
        </Node>
      </Node>
    </BinaryTree>
    <BinaryTree type="DecisionTree" boostWeight="1.0000000000000000e+00" itree="32">
      <Node pos="s" depth="0" NCoef="0" IVar="10" Cut="9.5238095521926880e-01" cType="1" res="7.0802809204906225e-04" rms="3.0570176243782043e-01" purity="2.7464714646339417e-01" nType="0">
        <Node pos="l" depth="1" NCoef="0" IVar="-1" Cut="0.0000000000000000e+00" cType="1" res="2.3841951042413712e-02" rms="3.4379175305366516e-01" purity="4.7399005293846130e-01" nType="-99"/>
        <Node pos="r" depth="1" NCoef="0" IVar="11" Cut="1.4481336809694767e-02" cType="0" res="-1.0057495906949043e-02" rms="2.8446039557456970e-01" purity="1.7646600306034088e-01" nType="0">
          <Node pos="l" depth="2" NCoef="0" IVar="-1" Cut="0.0000000000000000e+00" cType="1" res="4.4510178267955780e-02" rms="3.2477176189422607e-01" purity="2.9050499200820923e-01" nType="-99"/>
          <Node pos="r" depth="2" NCoef="0" IVar="-1" Cut="0.0000000000000000e+00" cType="1" res="-2.9163194820284843e-02" rms="2.7613478899002075e-01" purity="1.5664990246295929e-01" nType="-99"/>
        </Node>
      </Node>
    </BinaryTree>
    <BinaryTree type="DecisionTree" boostWeight="1.0000000000000000e+00" itree="33">
      <Node pos="s" depth="0" NCoef="0" IVar="17" Cut="1.8564456701278687e+00" cType="0" res="-1.8200521590188146e-03" rms="3.0593165755271912e-01" purity="2.7334436774253845e-01" nType="0">
        <Node pos="l" depth="1" NCoef="0" IVar="-1" Cut="0.0000000000000000e+00" cType="1" res="-1.2290833983570337e-03" rms="3.0534297227859497e-01" purity="2.7390649914741516e-01" nType="-99"/>
        <Node pos="r" depth="1" NCoef="0" IVar="19" Cut="3.3052647113800049e-01" cType="0" res="-2.5623187422752380e-01" rms="3.5724791884422302e-01" purity="1.1870503425598145e-01" nType="0">
          <Node pos="l" depth="2" NCoef="0" IVar="-1" Cut="0.0000000000000000e+00" cType="1" res="-1.4043702185153961e-01" rms="3.5869696736335754e-01" purity="1.3586956262588501e-01" nType="-99"/>
          <Node pos="r" depth="2" NCoef="0" IVar="-1" Cut="0.0000000000000000e+00" cType="1" res="-2.6679390668869019e-01" rms="3.0787870287895203e-01" purity="8.5106380283832550e-02" nType="-99"/>
        </Node>
      </Node>
    </BinaryTree>
    <BinaryTree type="DecisionTree" boostWeight="1.0000000000000000e+00" itree="34">
      <Node pos="s" depth="0" NCoef="0" IVar="9" Cut="2.6595472335815430e+01" cType="0" res="2.5727332103997469e-04" rms="3.0602788925170898e-01" purity="2.7465742826461792e-01" nType="0">
        <Node pos="l" depth="1" NCoef="0" IVar="-1" Cut="0.0000000000000000e+00" cType="1" res="2.0127700641751289e-02" rms="3.3784154057502747e-01" purity="3.6870357394218445e-01" nType="-99"/>
        <Node pos="r" depth="1" NCoef="0" IVar="12" Cut="8.4642237424850464e-01" cType="1" res="-1.3169493526220322e-02" rms="2.7812987565994263e-01" purity="2.0172983407974243e-01" nType="0">
          <Node pos="l" depth="2" NCoef="0" IVar="-1" Cut="0.0000000000000000e+00" cType="1" res="6.9074630737304688e-02" rms="3.4720221161842346e-01" purity="6.0535448789596558e-01" nType="-99"/>
          <Node pos="r" depth="2" NCoef="0" IVar="-1" Cut="0.0000000000000000e+00" cType="1" res="-3.3689159899950027e-02" rms="2.6900449395179749e-01" purity="1.6020098328590393e-01" nType="-99"/>
        </Node>
      </Node>
    </BinaryTree>
    <BinaryTree type="DecisionTree" boostWeight="1.0000000000000000e+00" itree="35">
      <Node pos="s" depth="0" NCoef="0" IVar="12" Cut="4.2896920442581177e-01" cType="0" res="-2.9094418277963996e-04" rms="3.0605518817901611e-01" purity="2.7402868866920471e-01" nType="0">
        <Node pos="l" depth="1" NCoef="0" IVar="-1" Cut="0.0000000000000000e+00" cType="1" res="1.5204893425107002e-03" rms="3.0477842688560486e-01" purity="2.7422618865966797e-01" nType="-99"/>
        <Node pos="r" depth="1" NCoef="0" IVar="3" Cut="2.9475431442260742e+00" cType="0" res="-1.8160942196846008e-01" rms="4.0272545814514160e-01" purity="2.4828767776489258e-01" nType="0">
          <Node pos="l" depth="2" NCoef="0" IVar="-1" Cut="0.0000000000000000e+00" cType="1" res="1.3751184940338135e-01" rms="4.3208780884742737e-01" purity="7.2222220897674561e-01" nType="-99"/>
          <Node pos="r" depth="2" NCoef="0" IVar="-1" Cut="0.0000000000000000e+00" cType="1" res="-2.2139649093151093e-01" rms="3.6088347434997559e-01" purity="1.6194331645965576e-01" nType="-99"/>
        </Node>
      </Node>
    </BinaryTree>
    <BinaryTree type="DecisionTree" boostWeight="1.0000000000000000e+00" itree="36">
      <Node pos="s" depth="0" NCoef="0" IVar="2" Cut="1.0028474777936935e-01" cType="1" res="3.5608641337603331e-04" rms="3.0436223745346069e-01" purity="2.7585446834564209e-01" nType="0">
        <Node pos="l" depth="1" NCoef="0" IVar="-1" Cut="0.0000000000000000e+00" cType="1" res="5.9688791632652283e-02" rms="3.2725310325622559e-01" purity="7.7037340402603149e-01" nType="-99"/>
        <Node pos="r" depth="1" NCoef="0" IVar="2" Cut="1.4305290579795837e-01" cType="1" res="-5.0762910395860672e-03" rms="3.0133676528930664e-01" purity="2.2376920282840729e-01" nType="0">
          <Node pos="l" depth="2" NCoef="0" IVar="-1" Cut="0.0000000000000000e+00" cType="1" res="7.8591227531433105e-02" rms="3.5178595781326294e-01" purity="5.8867734670639038e-01" nType="-99"/>
          <Node pos="r" depth="2" NCoef="0" IVar="-1" Cut="0.0000000000000000e+00" cType="1" res="-1.4303161762654781e-02" rms="2.9729861021041870e-01" purity="2.0158956944942474e-01" nType="-99"/>
        </Node>
      </Node>
    </BinaryTree>
    <BinaryTree type="DecisionTree" boostWeight="1.0000000000000000e+00" itree="37">
      <Node pos="s" depth="0" NCoef="0" IVar="19" Cut="1.8934999406337738e-01" cType="1" res="2.5644480047049001e-05" rms="3.0432406067848206e-01" purity="2.7405518293380737e-01" nType="0">
        <Node pos="l" depth="1" NCoef="0" IVar="-1" Cut="0.0000000000000000e+00" cType="1" res="5.2272614091634750e-02" rms="3.0562651157379150e-01" purity="3.2090520858764648e-01" nType="-99"/>
        <Node pos="r" depth="1" NCoef="0" IVar="10" Cut="7.6190477609634399e-01" cType="1" res="-5.4764011874794960e-03" rms="3.0375605821609497e-01" purity="2.6640516519546509e-01" nType="0">
          <Node pos="l" depth="2" NCoef="0" IVar="-1" Cut="0.0000000000000000e+00" cType="1" res="-4.7244295477867126e-02" rms="3.6211696267127991e-01" purity="2.6641651988029480e-01" nType="-99"/>
          <Node pos="r" depth="2" NCoef="0" IVar="-1" Cut="0.0000000000000000e+00" cType="1" res="-2.0867956336587667e-03" rms="2.9774978756904602e-01" purity="2.6640418171882629e-01" nType="-99"/>
        </Node>
      </Node>
    </BinaryTree>
    <BinaryTree type="DecisionTree" boostWeight="1.0000000000000000e+00" itree="38">
      <Node pos="s" depth="0" NCoef="0" IVar="9" Cut="6.7378585815429688e+01" cType="0" res="1.5368453750852495e-04" rms="3.0440583825111389e-01" purity="2.7529114484786987e-01" nType="0">
        <Node pos="l" depth="1" NCoef="0" IVar="-1" Cut="0.0000000000000000e+00" cType="1" res="7.3768705129623413e-02" rms="2.9475921392440796e-01" purity="8.4896039962768555e-01" nType="-99"/>
        <Node pos="r" depth="1" NCoef="0" IVar="9" Cut="1.9987220764160156e+01" cType="0" res="-2.1560108289122581e-03" rms="3.0446800589561462e-01" purity="2.5558835268020630e-01" nType="0">
          <Node pos="l" depth="2" NCoef="0" IVar="-1" Cut="0.0000000000000000e+00" cType="1" res="8.7800566107034683e-03" rms="3.2365614175796509e-01" purity="2.9207149147987366e-01" nType="-99"/>
          <Node pos="r" depth="2" NCoef="0" IVar="-1" Cut="0.0000000000000000e+00" cType="1" res="-3.8201149553060532e-02" rms="2.5709480047225952e-01" purity="1.7673368752002716e-01" nType="-99"/>
        </Node>
      </Node>
    </BinaryTree>
    <BinaryTree type="DecisionTree" boostWeight="1.0000000000000000e+00" itree="39">
      <Node pos="s" depth="0" NCoef="0" IVar="13" Cut="-6.1904764175415039e-01" cType="1" res="1.0361502063460648e-04" rms="3.0413374304771423e-01" purity="2.7571851015090942e-01" nType="0">
        <Node pos="l" depth="1" NCoef="0" IVar="-1" Cut="0.0000000000000000e+00" cType="1" res="5.1037132740020752e-02" rms="2.9927262663841248e-01" purity="8.4145814180374146e-01" nType="-99"/>
        <Node pos="r" depth="1" NCoef="0" IVar="4" Cut="1.9476190567016602e+01" cType="1" res="-3.7033313419669867e-03" rms="3.0434286594390869e-01" purity="2.1999971568584442e-01" nType="0">
          <Node pos="l" depth="2" NCoef="0" IVar="-1" Cut="0.0000000000000000e+00" cType="1" res="8.9624198153614998e-03" rms="3.3349305391311646e-01" purity="2.5928348302841187e-01" nType="-99"/>
          <Node pos="r" depth="2" NCoef="0" IVar="-1" Cut="0.0000000000000000e+00" cType="1" res="-2.9625274240970612e-02" rms="2.6076558232307434e-01" purity="1.6870874166488647e-01" nType="-99"/>
        </Node>
      </Node>
    </BinaryTree>
    <BinaryTree type="DecisionTree" boostWeight="1.0000000000000000e+00" itree="40">
      <Node pos="s" depth="0" NCoef="0" IVar="0" Cut="1.4762335777282715e+01" cType="0" res="1.0102909291163087e-03" rms="3.0423247814178467e-01" purity="2.7400299906730652e-01" nType="0">
        <Node pos="l" depth="1" NCoef="0" IVar="-1" Cut="0.0000000000000000e+00" cType="1" res="-1.0422988981008530e-01" rms="3.6096131801605225e-01" purity="4.9936628341674805e-01" nType="-99"/>
        <Node pos="r" depth="1" NCoef="0" IVar="6" Cut="5.4302301406860352e+00" cType="1" res="2.1506557241082191e-03" rms="3.0338081717491150e-01" purity="2.7167084813117981e-01" nType="0">
          <Node pos="l" depth="2" NCoef="0" IVar="-1" Cut="0.0000000000000000e+00" cType="1" res="4.4057652354240417e-02" rms="3.9374268054962158e-01" purity="4.6586447954177856e-01" nType="-99"/>
          <Node pos="r" depth="2" NCoef="0" IVar="-1" Cut="0.0000000000000000e+00" cType="1" res="-4.5681102201342583e-03" rms="2.9069828987121582e-01" purity="2.4923919141292572e-01" nType="-99"/>
        </Node>
      </Node>
    </BinaryTree>
    <BinaryTree type="DecisionTree" boostWeight="1.0000000000000000e+00" itree="41">
      <Node pos="s" depth="0" NCoef="0" IVar="15" Cut="-1.3533832132816315e-01" cType="0" res="-1.1149588972330093e-03" rms="3.0321788787841797e-01" purity="2.7458694577217102e-01" nType="0">
        <Node pos="l" depth="1" NCoef="0" IVar="-1" Cut="0.0000000000000000e+00" cType="1" res="1.5358211239799857e-03" rms="3.0281138420104980e-01" purity="2.7688062191009521e-01" nType="-99"/>
        <Node pos="r" depth="1" NCoef="0" IVar="4" Cut="1.4428571701049805e+01" cType="0" res="-5.8826129883527756e-02" rms="3.0816507339477539e-01" purity="2.1423487365245819e-01" nType="0">
          <Node pos="l" depth="2" NCoef="0" IVar="-1" Cut="0.0000000000000000e+00" cType="1" res="-4.3350927531719208e-02" rms="2.9014894366264343e-01" purity="2.2725173830986023e-01" nType="-99"/>
          <Node pos="r" depth="2" NCoef="0" IVar="-1" Cut="0.0000000000000000e+00" cType="1" res="-1.3603238761425018e-01" rms="3.4804069995880127e-01" purity="1.7054264247417450e-01" nType="-99"/>
        </Node>
      </Node>
    </BinaryTree>
    <BinaryTree type="DecisionTree" boostWeight="1.0000000000000000e+00" itree="42">
      <Node pos="s" depth="0" NCoef="0" IVar="10" Cut="9.5238095521926880e-01" cType="1" res="-8.4751076065003872e-04" rms="3.0254843831062317e-01" purity="2.7409863471984863e-01" nType="0">
        <Node pos="l" depth="1" NCoef="0" IVar="-1" Cut="0.0000000000000000e+00" cType="1" res="1.7160493880510330e-02" rms="3.4096482396125793e-01" purity="4.7355768084526062e-01" nType="-99"/>
        <Node pos="r" depth="1" NCoef="0" IVar="11" Cut="2.4135561659932137e-02" cType="0" res="-9.0133361518383026e-03" rms="2.8123876452445984e-01" purity="1.7535166442394257e-01" nType="0">
          <Node pos="l" depth="2" NCoef="0" IVar="-1" Cut="0.0000000000000000e+00" cType="1" res="4.3166898190975189e-02" rms="3.2477208971977234e-01" purity="3.1132265925407410e-01" nType="-99"/>
          <Node pos="r" depth="2" NCoef="0" IVar="-1" Cut="0.0000000000000000e+00" cType="1" res="-2.3023599758744240e-02" rms="2.7581936120986938e-01" purity="1.6085924208164215e-01" nType="-99"/>
        </Node>
      </Node>
    </BinaryTree>
    <BinaryTree type="DecisionTree" boostWeight="1.0000000000000000e+00" itree="43">
      <Node pos="s" depth="0" NCoef="0" IVar="19" Cut="6.4863103628158569e-01" cType="0" res="-1.8281102529726923e-04" rms="3.0196297168731689e-01" purity="2.7442926168441772e-01" nType="0">
        <Node pos="l" depth="1" NCoef="0" IVar="-1" Cut="0.0000000000000000e+00" cType="1" res="-3.3523872494697571e-02" rms="3.3537736535072327e-01" purity="2.8561061620712280e-01" nType="-99"/>
        <Node pos="r" depth="1" NCoef="0" IVar="13" Cut="5.2380955219268799e-01" cType="1" res="4.2939223349094391e-03" rms="2.9659414291381836e-01" purity="2.7282592654228210e-01" nType="0">
          <Node pos="l" depth="2" NCoef="0" IVar="-1" Cut="0.0000000000000000e+00" cType="1" res="1.7141629010438919e-02" rms="3.6949691176414490e-01" purity="4.6803337335586548e-01" nType="-99"/>
          <Node pos="r" depth="2" NCoef="0" IVar="-1" Cut="0.0000000000000000e+00" cType="1" res="-4.4495884329080582e-02" rms="1.6756330430507660e-01" purity="3.3887658268213272e-02" nType="-99"/>
        </Node>
      </Node>
    </BinaryTree>
    <BinaryTree type="DecisionTree" boostWeight="1.0000000000000000e+00" itree="44">
      <Node pos="s" depth="0" NCoef="0" IVar="19" Cut="2.9534101486206055e-01" cType="0" res="1.1768969852710143e-04" rms="3.0190956592559814e-01" purity="2.7404800057411194e-01" nType="0">
        <Node pos="l" depth="1" NCoef="0" IVar="-1" Cut="0.0000000000000000e+00" cType="1" res="-1.0018663480877876e-02" rms="3.0908489227294922e-01" purity="2.7431848645210266e-01" nType="-99"/>
        <Node pos="r" depth="1" NCoef="0" IVar="17" Cut="3.3052716255187988e+00" cType="1" res="1.4221168123185635e-02" rms="2.8768777847290039e-01" purity="2.7354958653450012e-01" nType="0">
          <Node pos="l" depth="2" NCoef="0" IVar="-1" Cut="0.0000000000000000e+00" cType="1" res="-1.3555097579956055e-01" rms="4.4345900416374207e-01" purity="3.1408774852752686e-01" nType="-99"/>
          <Node pos="r" depth="2" NCoef="0" IVar="-1" Cut="0.0000000000000000e+00" cType="1" res="2.9970934614539146e-02" rms="2.8343209624290466e-01" purity="2.7288824319839478e-01" nType="-99"/>
        </Node>
      </Node>
    </BinaryTree>
    <BinaryTree type="DecisionTree" boostWeight="1.0000000000000000e+00" itree="45">
      <Node pos="s" depth="0" NCoef="0" IVar="12" Cut="5.0785344839096069e-01" cType="1" res="6.5843906486406922e-04" rms="3.0203241109848022e-01" purity="2.7518513798713684e-01" nType="0">
        <Node pos="l" depth="1" NCoef="0" IVar="-1" Cut="0.0000000000000000e+00" cType="1" res="-1.1301028728485107e-01" rms="4.0283823013305664e-01" purity="3.2199546694755554e-01" nType="-99"/>
        <Node pos="r" depth="1" NCoef="0" IVar="12" Cut="9.4332367181777954e-01" cType="1" res="2.0156009122729301e-03" rms="3.0039837956428528e-01" purity="2.7464252710342407e-01" nType="0">
          <Node pos="l" depth="2" NCoef="0" IVar="-1" Cut="0.0000000000000000e+00" cType="1" res="7.2107017040252686e-02" rms="3.0183482170104980e-01" purity="7.1805745363235474e-01" nType="-99"/>
          <Node pos="r" depth="2" NCoef="0" IVar="-1" Cut="0.0000000000000000e+00" cType="1" res="-3.9638732559978962e-03" rms="2.9985126852989197e-01" purity="2.2751460969448090e-01" nType="-99"/>
        </Node>
      </Node>
    </BinaryTree>
    <BinaryTree type="DecisionTree" boostWeight="1.0000000000000000e+00" itree="46">
      <Node pos="s" depth="0" NCoef="0" IVar="15" Cut="3.1694623827934265e-01" cType="1" res="9.9900891655124724e-05" rms="3.0037274956703186e-01" purity="2.7522709965705872e-01" nType="0">
        <Node pos="l" depth="1" NCoef="0" IVar="-1" Cut="0.0000000000000000e+00" cType="1" res="1.0421031154692173e-02" rms="3.1354376673698425e-01" purity="3.3380275964736938e-01" nType="-99"/>
        <Node pos="r" depth="1" NCoef="0" IVar="15" Cut="6.2393164634704590e-01" cType="0" res="-1.3980163261294365e-02" rms="2.7416211366653442e-01" purity="1.6836117208003998e-01" nType="0">
          <Node pos="l" depth="2" NCoef="0" IVar="-1" Cut="0.0000000000000000e+00" cType="1" res="6.1488017439842224e-02" rms="3.2981246709823608e-01" purity="2.9622521996498108e-01" nType="-99"/>
          <Node pos="r" depth="2" NCoef="0" IVar="-1" Cut="0.0000000000000000e+00" cType="1" res="-3.7897843867540359e-02" rms="2.6521387696266174e-01" purity="1.5178903937339783e-01" nType="-99"/>
        </Node>
      </Node>
    </BinaryTree>
    <BinaryTree type="DecisionTree" boostWeight="1.0000000000000000e+00" itree="47">
      <Node pos="s" depth="0" NCoef="0" IVar="10" Cut="7.6190477609634399e-01" cType="1" res="-2.9488044674508274e-04" rms="3.0033874511718750e-01" purity="2.7561032772064209e-01" nType="0">
        <Node pos="l" depth="1" NCoef="0" IVar="-1" Cut="0.0000000000000000e+00" cType="1" res="-3.6221336573362350e-02" rms="3.6163824796676636e-01" purity="2.7740606665611267e-01" nType="-99"/>
        <Node pos="r" depth="1" NCoef="0" IVar="11" Cut="3.5917706787586212e-02" cType="0" res="2.7520637959241867e-03" rms="2.9453387856483459e-01" purity="2.7546292543411255e-01" nType="0">
          <Node pos="l" depth="2" NCoef="0" IVar="-1" Cut="0.0000000000000000e+00" cType="1" res="3.7371754646301270e-02" rms="3.2970163226127625e-01" purity="5.5368238687515259e-01" nType="-99"/>
          <Node pos="r" depth="2" NCoef="0" IVar="-1" Cut="0.0000000000000000e+00" cType="1" res="-1.4753480441868305e-02" rms="2.7910023927688599e-01" purity="1.6914813220500946e-01" nType="-99"/>
        </Node>
      </Node>
    </BinaryTree>
    <BinaryTree type="DecisionTree" boostWeight="1.0000000000000000e+00" itree="48">
      <Node pos="s" depth="0" NCoef="0" IVar="17" Cut="5.2463235855102539e+00" cType="1" res="-1.7715374997351319e-04" rms="2.9973760247230530e-01" purity="2.7213954925537109e-01" nType="0">
        <Node pos="l" depth="1" NCoef="0" IVar="-1" Cut="0.0000000000000000e+00" cType="1" res="3.4269087016582489e-02" rms="3.9273887872695923e-01" purity="4.9289163947105408e-01" nType="-99"/>
        <Node pos="r" depth="1" NCoef="0" IVar="19" Cut="3.3066636323928833e-01" cType="1" res="-4.1605038568377495e-03" rms="2.8768399357795715e-01" purity="2.4842984974384308e-01" nType="0">
          <Node pos="l" depth="2" NCoef="0" IVar="-1" Cut="0.0000000000000000e+00" cType="1" res="2.2516591474413872e-02" rms="2.7360302209854126e-01" purity="2.5389179587364197e-01" nType="-99"/>
          <Node pos="r" depth="2" NCoef="0" IVar="-1" Cut="0.0000000000000000e+00" cType="1" res="-2.3129848763346672e-02" rms="2.9706442356109619e-01" purity="2.4439714848995209e-01" nType="-99"/>
        </Node>
      </Node>
    </BinaryTree>
    <BinaryTree type="DecisionTree" boostWeight="1.0000000000000000e+00" itree="49">
      <Node pos="s" depth="0" NCoef="0" IVar="4" Cut="1.8571428298950195e+01" cType="1" res="7.5136095983907580e-04" rms="3.0085480213165283e-01" purity="2.7532842755317688e-01" nType="0">
        <Node pos="l" depth="1" NCoef="0" IVar="-1" Cut="0.0000000000000000e+00" cType="1" res="1.5312511473894119e-02" rms="3.4877777099609375e-01" purity="3.2319182157516479e-01" nType="-99"/>
        <Node pos="r" depth="1" NCoef="0" IVar="2" Cut="9.7420200705528259e-02" cType="1" res="-6.5022185444831848e-03" rms="2.6712197065353394e-01" purity="2.4608556926250458e-01" nType="0">
          <Node pos="l" depth="2" NCoef="0" IVar="-1" Cut="0.0000000000000000e+00" cType="1" res="5.9636574238538742e-02" rms="3.0185964703559875e-01" purity="8.0158728361129761e-01" nType="-99"/>
          <Node pos="r" depth="2" NCoef="0" IVar="-1" Cut="0.0000000000000000e+00" cType="1" res="-2.0175363868474960e-02" rms="2.6266574859619141e-01" purity="1.8780645728111267e-01" nType="-99"/>
        </Node>
      </Node>
    </BinaryTree>
    <BinaryTree type="DecisionTree" boostWeight="1.0000000000000000e+00" itree="50">
      <Node pos="s" depth="0" NCoef="0" IVar="9" Cut="8.0473312377929688e+01" cType="0" res="-8.6691416800022125e-04" rms="2.9899558424949646e-01" purity="2.7427789568901062e-01" nType="0">
        <Node pos="l" depth="1" NCoef="0" IVar="-1" Cut="0.0000000000000000e+00" cType="1" res="7.9569727182388306e-02" rms="2.7013102173805237e-01" purity="8.7271541357040405e-01" nType="-99"/>
        <Node pos="r" depth="1" NCoef="0" IVar="9" Cut="2.1235498428344727e+01" cType="0" res="-2.2052198182791471e-03" rms="2.9940372705459595e-01" purity="2.6210704445838928e-01" nType="0">
          <Node pos="l" depth="2" NCoef="0" IVar="-1" Cut="0.0000000000000000e+00" cType="1" res="8.2796998322010040e-03" rms="3.2214105129241943e-01" purity="3.1097146868705750e-01" nType="-99"/>
          <Node pos="r" depth="2" NCoef="0" IVar="-1" Cut="0.0000000000000000e+00" cType="1" res="-3.1109536066651344e-02" rms="2.5595030188560486e-01" purity="1.7979329824447632e-01" nType="-99"/>
        </Node>
      </Node>
    </BinaryTree>
    <BinaryTree type="DecisionTree" boostWeight="1.0000000000000000e+00" itree="51">
      <Node pos="s" depth="0" NCoef="0" IVar="6" Cut="2.1697912216186523e+00" cType="0" res="-1.1072438210248947e-03" rms="2.9846104979515076e-01" purity="2.7368447184562683e-01" nType="0">
        <Node pos="l" depth="1" NCoef="0" IVar="-1" Cut="0.0000000000000000e+00" cType="1" res="-3.5689174546860158e-04" rms="2.9769280552864075e-01" purity="2.7428162097930908e-01" nType="-99"/>
        <Node pos="r" depth="1" NCoef="0" IVar="19" Cut="4.7046026587486267e-01" cType="0" res="-1.4462001621723175e-01" rms="3.7959185242652893e-01" purity="1.7494601011276245e-01" nType="0">
          <Node pos="l" depth="2" NCoef="0" IVar="-1" Cut="0.0000000000000000e+00" cType="1" res="-4.1391756385564804e-02" rms="3.9448705315589905e-01" purity="2.2222222387790680e-01" nType="-99"/>
          <Node pos="r" depth="2" NCoef="0" IVar="-1" Cut="0.0000000000000000e+00" cType="1" res="-1.5804998576641083e-01" rms="3.5588127374649048e-01" purity="1.4487633109092712e-01" nType="-99"/>
        </Node>
      </Node>
    </BinaryTree>
    <BinaryTree type="DecisionTree" boostWeight="1.0000000000000000e+00" itree="52">
      <Node pos="s" depth="0" NCoef="0" IVar="15" Cut="-1.3533832132816315e-01" cType="0" res="3.9528688648715615e-04" rms="2.9997164011001587e-01" purity="2.7424946427345276e-01" nType="0">
        <Node pos="l" depth="1" NCoef="0" IVar="-1" Cut="0.0000000000000000e+00" cType="1" res="3.2511644531041384e-03" rms="2.9982194304466248e-01" purity="2.7696239948272705e-01" nType="-99"/>
        <Node pos="r" depth="1" NCoef="0" IVar="4" Cut="1.4428571701049805e+01" cType="0" res="-4.6312954276800156e-02" rms="3.0012395977973938e-01" purity="2.0305289328098297e-01" nType="0">
          <Node pos="l" depth="2" NCoef="0" IVar="-1" Cut="0.0000000000000000e+00" cType="1" res="-4.3160930275917053e-02" rms="2.8444647789001465e-01" purity="2.1030832827091217e-01" nType="-99"/>
          <Node pos="r" depth="2" NCoef="0" IVar="-1" Cut="0.0000000000000000e+00" cType="1" res="-1.0157957673072815e-01" rms="3.4249737858772278e-01" purity="1.7857143282890320e-01" nType="-99"/>
        </Node>
      </Node>
    </BinaryTree>
    <BinaryTree type="DecisionTree" boostWeight="1.0000000000000000e+00" itree="53">
      <Node pos="s" depth="0" NCoef="0" IVar="13" Cut="7.1428573131561279e-01" cType="1" res="2.4436574312858284e-04" rms="2.9970785975456238e-01" purity="2.7398297190666199e-01" nType="0">
        <Node pos="l" depth="1" NCoef="0" IVar="-1" Cut="0.0000000000000000e+00" cType="1" res="6.1754193156957626e-03" rms="3.3784738183021545e-01" purity="3.5714161396026611e-01" nType="-99"/>
        <Node pos="r" depth="1" NCoef="0" IVar="0" Cut="1.0019815444946289e+01" cType="0" res="-1.4922820962965488e-02" rms="1.1780954897403717e-01" purity="1.5295443125069141e-02" nType="0">
          <Node pos="l" depth="2" NCoef="0" IVar="-1" Cut="0.0000000000000000e+00" cType="1" res="-1.2365188449621201e-01" rms="3.3571457862854004e-01" purity="1.8181818723678589e-01" nType="-99"/>
          <Node pos="r" depth="2" NCoef="0" IVar="-1" Cut="0.0000000000000000e+00" cType="1" res="-8.0530196428298950e-02" rms="1.1606445163488388e-01" purity="1.4703506603837013e-02" nType="-99"/>
        </Node>
      </Node>
    </BinaryTree>
    <BinaryTree type="DecisionTree" boostWeight="1.0000000000000000e+00" itree="54">
      <Node pos="s" depth="0" NCoef="0" IVar="17" Cut="6.1022272109985352e+00" cType="1" res="-6.8705872399732471e-04" rms="2.9931974411010742e-01" purity="2.7417045831680298e-01" nType="0">
        <Node pos="l" depth="1" NCoef="0" IVar="-1" Cut="0.0000000000000000e+00" cType="1" res="2.0276268944144249e-02" rms="3.5932549834251404e-01" purity="3.8702365756034851e-01" nType="-99"/>
        <Node pos="r" depth="1" NCoef="0" IVar="19" Cut="5.4262411594390869e-01" cType="1" res="-4.8880362883210182e-03" rms="2.8390419483184814e-01" purity="2.4877256155014038e-01" nType="0">
          <Node pos="l" depth="2" NCoef="0" IVar="-1" Cut="0.0000000000000000e+00" cType="1" res="5.3987326100468636e-03" rms="2.7345222234725952e-01" purity="2.5228223204612732e-01" nType="-99"/>
          <Node pos="r" depth="2" NCoef="0" IVar="-1" Cut="0.0000000000000000e+00" cType="1" res="-3.8629770278930664e-02" rms="3.1358972191810608e-01" purity="2.3757681250572205e-01" nType="-99"/>
        </Node>
      </Node>
    </BinaryTree>
    <BinaryTree type="DecisionTree" boostWeight="1.0000000000000000e+00" itree="55">
      <Node pos="s" depth="0" NCoef="0" IVar="0" Cut="1.4762335777282715e+01" cType="0" res="7.2566629387438297e-04" rms="2.9866379499435425e-01" purity="2.7601328492164612e-01" nType="0">
        <Node pos="l" depth="1" NCoef="0" IVar="-1" Cut="0.0000000000000000e+00" cType="1" res="-8.2813642919063568e-02" rms="3.4868398308753967e-01" purity="4.9346017837524414e-01" nType="-99"/>
        <Node pos="r" depth="1" NCoef="0" IVar="2" Cut="1.2609970569610596e-01" cType="1" res="1.6466508386656642e-03" rms="2.9793474078178406e-01" purity="2.7361449599266052e-01" nType="0">
          <Node pos="l" depth="2" NCoef="0" IVar="-1" Cut="0.0000000000000000e+00" cType="1" res="3.4378834068775177e-02" rms="3.2654044032096863e-01" purity="7.3019880056381226e-01" nType="-99"/>
          <Node pos="r" depth="2" NCoef="0" IVar="-1" Cut="0.0000000000000000e+00" cType="1" res="-3.1426830682903528e-03" rms="2.9344832897186279e-01" purity="2.0856311917304993e-01" nType="-99"/>
        </Node>
      </Node>
    </BinaryTree>
    <BinaryTree type="DecisionTree" boostWeight="1.0000000000000000e+00" itree="56">
      <Node pos="s" depth="0" NCoef="0" IVar="12" Cut="5.0785344839096069e-01" cType="1" res="-9.3294976977631450e-04" rms="2.9817232489585876e-01" purity="2.7399972081184387e-01" nType="0">
        <Node pos="l" depth="1" NCoef="0" IVar="-1" Cut="0.0000000000000000e+00" cType="1" res="-8.6694635450839996e-02" rms="3.9598721265792847e-01" purity="3.0011326074600220e-01" nType="-99"/>
        <Node pos="r" depth="1" NCoef="0" IVar="12" Cut="9.4323223829269409e-01" cType="1" res="3.9003349229460582e-05" rms="2.9670667648315430e-01" purity="2.7369600534439087e-01" nType="0">
          <Node pos="l" depth="2" NCoef="0" IVar="-1" Cut="0.0000000000000000e+00" cType="1" res="4.9334775656461716e-02" rms="2.9775312542915344e-01" purity="7.1862345933914185e-01" nType="-99"/>
          <Node pos="r" depth="2" NCoef="0" IVar="-1" Cut="0.0000000000000000e+00" cType="1" res="-4.7903847880661488e-03" rms="2.9641306400299072e-01" purity="2.2557291388511658e-01" nType="-99"/>
        </Node>
      </Node>
    </BinaryTree>
    <BinaryTree type="DecisionTree" boostWeight="1.0000000000000000e+00" itree="57">
      <Node pos="s" depth="0" NCoef="0" IVar="4" Cut="1.9476190567016602e+01" cType="1" res="3.2391480635851622e-04" rms="2.9726618528366089e-01" purity="2.7476966381072998e-01" nType="0">
        <Node pos="l" depth="1" NCoef="0" IVar="-1" Cut="0.0000000000000000e+00" cType="1" res="1.0897666215896606e-02" rms="3.2722723484039307e-01" purity="3.0953589081764221e-01" nType="-99"/>
        <Node pos="r" depth="1" NCoef="0" IVar="2" Cut="1.2327774614095688e-01" cType="1" res="-9.8434779793024063e-03" rms="2.5286677479743958e-01" purity="2.2972446680068970e-01" nType="0">
          <Node pos="l" depth="2" NCoef="0" IVar="-1" Cut="0.0000000000000000e+00" cType="1" res="5.7953473180532455e-02" rms="2.9770156741142273e-01" purity="7.8744989633560181e-01" nType="-99"/>
          <Node pos="r" depth="2" NCoef="0" IVar="-1" Cut="0.0000000000000000e+00" cType="1" res="-3.3078130334615707e-02" rms="2.4482028186321259e-01" purity="1.4872550964355469e-01" nType="-99"/>
        </Node>
      </Node>
    </BinaryTree>
    <BinaryTree type="DecisionTree" boostWeight="1.0000000000000000e+00" itree="58">
      <Node pos="s" depth="0" NCoef="0" IVar="9" Cut="6.7378646850585938e+01" cType="0" res="4.1540048550814390e-04" rms="2.9641526937484741e-01" purity="2.7487415075302124e-01" nType="0">
        <Node pos="l" depth="1" NCoef="0" IVar="-1" Cut="0.0000000000000000e+00" cType="1" res="5.3441785275936127e-02" rms="2.8691935539245605e-01" purity="8.4725445508956909e-01" nType="-99"/>
        <Node pos="r" depth="1" NCoef="0" IVar="9" Cut="1.7494140625000000e+01" cType="0" res="-1.0614625643938780e-03" rms="2.9663217067718506e-01" purity="2.5489878654479980e-01" nType="0">
          <Node pos="l" depth="2" NCoef="0" IVar="-1" Cut="0.0000000000000000e+00" cType="1" res="4.6863756142556667e-03" rms="3.0637314915657043e-01" purity="2.7478688955307007e-01" nType="-99"/>
          <Node pos="r" depth="2" NCoef="0" IVar="-1" Cut="0.0000000000000000e+00" cType="1" res="-4.2843602597713470e-02" rms="2.4527350068092346e-01" purity="1.6229008138179779e-01" nType="-99"/>
        </Node>
      </Node>
    </BinaryTree>
    <BinaryTree type="DecisionTree" boostWeight="1.0000000000000000e+00" itree="59">
      <Node pos="s" depth="0" NCoef="0" IVar="12" Cut="3.1317746639251709e-01" cType="0" res="2.3686951317358762e-04" rms="2.9828560352325439e-01" purity="2.7481332421302795e-01" nType="0">
        <Node pos="l" depth="1" NCoef="0" IVar="-1" Cut="0.0000000000000000e+00" cType="1" res="1.1462650727480650e-03" rms="2.9790434241294861e-01" purity="2.7519136667251587e-01" nType="-99"/>
        <Node pos="r" depth="1" NCoef="0" IVar="15" Cut="1.8835972994565964e-02" cType="0" res="-1.2218090146780014e-01" rms="3.5819560289382935e-01" purity="1.8437500298023224e-01" nType="0">
          <Node pos="l" depth="2" NCoef="0" IVar="-1" Cut="0.0000000000000000e+00" cType="1" res="-5.7249195873737335e-02" rms="3.3524844050407410e-01" purity="1.9028340280056000e-01" nType="-99"/>
          <Node pos="r" depth="2" NCoef="0" IVar="-1" Cut="0.0000000000000000e+00" cType="1" res="-3.1455084681510925e-01" rms="3.2145074009895325e-01" purity="1.6438356041908264e-01" nType="-99"/>
        </Node>
      </Node>
    </BinaryTree>
    <BinaryTree type="DecisionTree" boostWeight="1.0000000000000000e+00" itree="60">
      <Node pos="s" depth="0" NCoef="0" IVar="13" Cut="-3.3333334326744080e-01" cType="1" res="7.4776302790269256e-04" rms="2.9732134938240051e-01" purity="2.7548816800117493e-01" nType="0">
        <Node pos="l" depth="1" NCoef="0" IVar="-1" Cut="0.0000000000000000e+00" cType="1" res="2.1192457526922226e-02" rms="3.3813160657882690e-01" purity="7.3765563964843750e-01" nType="-99"/>
        <Node pos="r" depth="1" NCoef="0" IVar="6" Cut="6.4292049407958984e+00" cType="1" res="-2.3225166369229555e-03" rms="2.8931692242622375e-01" purity="1.9291138648986816e-01" nType="0">
          <Node pos="l" depth="2" NCoef="0" IVar="-1" Cut="0.0000000000000000e+00" cType="1" res="1.7087170854210854e-02" rms="3.3358246088027954e-01" purity="3.1778752803802490e-01" nType="-99"/>
          <Node pos="r" depth="2" NCoef="0" IVar="-1" Cut="0.0000000000000000e+00" cType="1" res="-1.4386527240276337e-02" rms="2.7066230773925781e-01" purity="1.4615887403488159e-01" nType="-99"/>
        </Node>
      </Node>
    </BinaryTree>
    <BinaryTree type="DecisionTree" boostWeight="1.0000000000000000e+00" itree="61">
      <Node pos="s" depth="0" NCoef="0" IVar="2" Cut="-7.9673194885253906e-01" cType="1" res="-9.9364013294689357e-05" rms="2.9768732190132141e-01" purity="2.7453571557998657e-01" nType="0">
        <Node pos="l" depth="1" NCoef="0" IVar="-1" Cut="0.0000000000000000e+00" cType="1" res="-1.6082300245761871e-01" rms="4.0450605750083923e-01" purity="6.7202574014663696e-01" nType="-99"/>
        <Node pos="r" depth="1" NCoef="0" IVar="2" Cut="6.5732568502426147e-01" cType="1" res="4.2303439113311470e-04" rms="2.9706311225891113e-01" purity="2.7292719483375549e-01" nType="0">
          <Node pos="l" depth="2" NCoef="0" IVar="-1" Cut="0.0000000000000000e+00" cType="1" res="-1.4400873333215714e-02" rms="2.9807198047637939e-01" purity="3.2260146737098694e-01" nType="-99"/>
          <Node pos="r" depth="2" NCoef="0" IVar="-1" Cut="0.0000000000000000e+00" cType="1" res="2.5260504335165024e-02" rms="2.9502445459365845e-01" purity="2.0307460427284241e-01" nType="-99"/>
        </Node>
      </Node>
    </BinaryTree>
    <BinaryTree type="DecisionTree" boostWeight="1.0000000000000000e+00" itree="62">
      <Node pos="s" depth="0" NCoef="0" IVar="15" Cut="2.0387509465217590e-01" cType="1" res="-1.1862620885949582e-04" rms="2.9691949486732483e-01" purity="2.7447971701622009e-01" nType="0">
        <Node pos="l" depth="1" NCoef="0" IVar="-1" Cut="0.0000000000000000e+00" cType="1" res="9.8135713487863541e-03" rms="3.1656032800674438e-01" purity="3.6632785201072693e-01" nType="-99"/>
        <Node pos="r" depth="1" NCoef="0" IVar="15" Cut="6.3620591163635254e-01" cType="0" res="-8.4374090656638145e-03" rms="2.7302363514900208e-01" purity="1.7166234552860260e-01" nType="0">
          <Node pos="l" depth="2" NCoef="0" IVar="-1" Cut="0.0000000000000000e+00" cType="1" res="5.1656786352396011e-02" rms="3.2907029986381531e-01" purity="3.3079156279563904e-01" nType="-99"/>
          <Node pos="r" depth="2" NCoef="0" IVar="-1" Cut="0.0000000000000000e+00" cType="1" res="-2.2667095065116882e-02" rms="2.6756167411804199e-01" purity="1.5859766304492950e-01" nType="-99"/>
        </Node>
      </Node>
    </BinaryTree>
    <BinaryTree type="DecisionTree" boostWeight="1.0000000000000000e+00" itree="63">
      <Node pos="s" depth="0" NCoef="0" IVar="19" Cut="6.1327975988388062e-01" cType="0" res="-7.7529187547042966e-04" rms="2.9642802476882935e-01" purity="2.7351036667823792e-01" nType="0">
        <Node pos="l" depth="1" NCoef="0" IVar="-1" Cut="0.0000000000000000e+00" cType="1" res="-2.0650580525398254e-02" rms="3.3215847611427307e-01" purity="2.8161555528640747e-01" nType="-99"/>
        <Node pos="r" depth="1" NCoef="0" IVar="6" Cut="3.2282133102416992e+00" cType="1" res="2.4951023515313864e-03" rms="2.8878039121627808e-01" purity="2.7191880345344543e-01" nType="0">
          <Node pos="l" depth="2" NCoef="0" IVar="-1" Cut="0.0000000000000000e+00" cType="1" res="-5.5623341351747513e-02" rms="4.1184723377227783e-01" purity="3.6649215221405029e-01" nType="-99"/>
          <Node pos="r" depth="2" NCoef="0" IVar="-1" Cut="0.0000000000000000e+00" cType="1" res="6.2063317745923996e-03" rms="2.8591254353523254e-01" purity="2.7020621299743652e-01" nType="-99"/>
        </Node>
      </Node>
    </BinaryTree>
    <BinaryTree type="DecisionTree" boostWeight="1.0000000000000000e+00" itree="64">
      <Node pos="s" depth="0" NCoef="0" IVar="12" Cut="9.2219799757003784e-01" cType="1" res="2.8170246514491737e-04" rms="2.9754513502120972e-01" purity="2.7464139461517334e-01" nType="0">
        <Node pos="l" depth="1" NCoef="0" IVar="-1" Cut="0.0000000000000000e+00" cType="1" res="3.9096150547266006e-02" rms="3.1127476692199707e-01" purity="6.6580909490585327e-01" nType="-99"/>
        <Node pos="r" depth="1" NCoef="0" IVar="13" Cut="-7.1428573131561279e-01" cType="1" res="-2.4377508088946342e-03" rms="2.9583746194839478e-01" purity="2.3064570128917694e-01" nType="0">
          <Node pos="l" depth="2" NCoef="0" IVar="-1" Cut="0.0000000000000000e+00" cType="1" res="5.0836987793445587e-02" rms="3.3757182955741882e-01" purity="7.7651137113571167e-01" nType="-99"/>
          <Node pos="r" depth="2" NCoef="0" IVar="-1" Cut="0.0000000000000000e+00" cType="1" res="-5.9320470318198204e-03" rms="2.9437500238418579e-01" purity="2.1422930061817169e-01" nType="-99"/>
        </Node>
      </Node>
    </BinaryTree>
    <BinaryTree type="DecisionTree" boostWeight="1.0000000000000000e+00" itree="65">
      <Node pos="s" depth="0" NCoef="0" IVar="6" Cut="6.4292049407958984e+00" cType="1" res="8.8023464195430279e-04" rms="2.9699712991714478e-01" purity="2.7619308233261108e-01" nType="0">
        <Node pos="l" depth="1" NCoef="0" IVar="-1" Cut="0.0000000000000000e+00" cType="1" res="1.7547585070133209e-02" rms="3.3763852715492249e-01" purity="3.3745118975639343e-01" nType="-99"/>
        <Node pos="r" depth="1" NCoef="0" IVar="2" Cut="6.3689476251602173e-01" cType="1" res="-3.2830673735588789e-03" rms="2.8257149457931519e-01" purity="2.5650545954704285e-01" nType="0">
          <Node pos="l" depth="2" NCoef="0" IVar="-1" Cut="0.0000000000000000e+00" cType="1" res="-2.1906049922108650e-02" rms="2.8835538029670715e-01" purity="3.1218010187149048e-01" nType="-99"/>
          <Node pos="r" depth="2" NCoef="0" IVar="-1" Cut="0.0000000000000000e+00" cType="1" res="2.0001275464892387e-02" rms="2.7425438165664673e-01" purity="1.8443883955478668e-01" nType="-99"/>
        </Node>
      </Node>
    </BinaryTree>
    <BinaryTree type="DecisionTree" boostWeight="1.0000000000000000e+00" itree="66">
      <Node pos="s" depth="0" NCoef="0" IVar="15" Cut="9.0803958475589752e-02" cType="1" res="-1.1744910152629018e-03" rms="2.9654139280319214e-01" purity="2.7251711487770081e-01" nType="0">
        <Node pos="l" depth="1" NCoef="0" IVar="-1" Cut="0.0000000000000000e+00" cType="1" res="1.0662261396646500e-02" rms="3.2119843363761902e-01" purity="3.9592394232749939e-01" nType="-99"/>
        <Node pos="r" depth="1" NCoef="0" IVar="13" Cut="-6.0328561067581177e-01" cType="1" res="-7.8545846045017242e-03" rms="2.7709645032882690e-01" purity="1.8300431966781616e-01" nType="0">
          <Node pos="l" depth="2" NCoef="0" IVar="-1" Cut="0.0000000000000000e+00" cType="1" res="8.4611929953098297e-02" rms="3.2343852519989014e-01" purity="8.1313133239746094e-01" nType="-99"/>
          <Node pos="r" depth="2" NCoef="0" IVar="-1" Cut="0.0000000000000000e+00" cType="1" res="-1.8669368699193001e-02" rms="2.7506479620933533e-01" purity="1.6268900036811829e-01" nType="-99"/>
        </Node>
      </Node>
    </BinaryTree>
    <BinaryTree type="DecisionTree" boostWeight="1.0000000000000000e+00" itree="67">
      <Node pos="s" depth="0" NCoef="0" IVar="3" Cut="1.3184970092773438e+02" cType="0" res="-3.8500025402754545e-04" rms="2.9509809613227844e-01" purity="2.7353250980377197e-01" nType="0">
        <Node pos="l" depth="1" NCoef="0" IVar="-1" Cut="0.0000000000000000e+00" cType="1" res="-1.7751459777355194e-01" rms="5.0280135869979858e-01" purity="2.8846153616905212e-01" nType="-99"/>
        <Node pos="r" depth="1" NCoef="0" IVar="14" Cut="6.3805561065673828e+00" cType="0" res="-1.0827970254467800e-04" rms="2.9462143778800964e-01" purity="2.7351227402687073e-01" nType="0">
          <Node pos="l" depth="2" NCoef="0" IVar="-1" Cut="0.0000000000000000e+00" cType="1" res="6.9107785820960999e-02" rms="4.3682950735092163e-01" purity="5.1526832580566406e-01" nType="-99"/>
          <Node pos="r" depth="2" NCoef="0" IVar="-1" Cut="0.0000000000000000e+00" cType="1" res="-1.1342698708176613e-02" rms="2.7688953280448914e-01" purity="2.5121274590492249e-01" nType="-99"/>
        </Node>
      </Node>
    </BinaryTree>
    <BinaryTree type="DecisionTree" boostWeight="1.0000000000000000e+00" itree="68">
      <Node pos="s" depth="0" NCoef="0" IVar="9" Cut="4.9786266326904297e+01" cType="0" res="8.2558579742908478e-04" rms="2.9457095265388489e-01" purity="2.7514815330505371e-01" nType="0">
        <Node pos="l" depth="1" NCoef="0" IVar="-1" Cut="0.0000000000000000e+00" cType="1" res="3.1418912112712860e-02" rms="3.2498499751091003e-01" purity="7.1080696582794189e-01" nType="-99"/>
        <Node pos="r" depth="1" NCoef="0" IVar="0" Cut="9.4379224777221680e+00" cType="0" res="-1.5454918611794710e-03" rms="2.9159510135650635e-01" purity="2.3641046881675720e-01" nType="0">
          <Node pos="l" depth="2" NCoef="0" IVar="-1" Cut="0.0000000000000000e+00" cType="1" res="-7.4454978108406067e-02" rms="3.8994890451431274e-01" purity="3.3023256063461304e-01" nType="-99"/>
          <Node pos="r" depth="2" NCoef="0" IVar="-1" Cut="0.0000000000000000e+00" cType="1" res="-7.6590420212596655e-04" rms="2.9001131653785706e-01" purity="2.3525451123714447e-01" nType="-99"/>
        </Node>
      </Node>
    </BinaryTree>
    <BinaryTree type="DecisionTree" boostWeight="1.0000000000000000e+00" itree="69">
      <Node pos="s" depth="0" NCoef="0" IVar="11" Cut="3.6746260523796082e-01" cType="1" res="-2.1360102982725948e-04" rms="2.9581451416015625e-01" purity="2.7366143465042114e-01" nType="0">
        <Node pos="l" depth="1" NCoef="0" IVar="-1" Cut="0.0000000000000000e+00" cType="1" res="2.4372050538659096e-03" rms="2.9186236858367920e-01" purity="2.7477335929870605e-01" nType="-99"/>
        <Node pos="r" depth="1" NCoef="0" IVar="13" Cut="-1.4436444640159607e-01" cType="0" res="-4.1164685040712357e-02" rms="3.7513190507888794e-01" purity="2.4734641611576080e-01" nType="0">
          <Node pos="l" depth="2" NCoef="0" IVar="-1" Cut="0.0000000000000000e+00" cType="1" res="7.5987386517226696e-03" rms="3.6517855525016785e-01" purity="2.5870648026466370e-01" nType="-99"/>
          <Node pos="r" depth="2" NCoef="0" IVar="-1" Cut="0.0000000000000000e+00" cType="1" res="-6.5881609916687012e-02" rms="3.7856301665306091e-01" purity="2.3795534670352936e-01" nType="-99"/>
        </Node>
      </Node>
    </BinaryTree>
    <BinaryTree type="DecisionTree" boostWeight="1.0000000000000000e+00" itree="70">
      <Node pos="s" depth="0" NCoef="0" IVar="15" Cut="-1.3533832132816315e-01" cType="0" res="-6.7414063960313797e-04" rms="2.9554271697998047e-01" purity="2.7374970912933350e-01" nType="0">
        <Node pos="l" depth="1" NCoef="0" IVar="-1" Cut="0.0000000000000000e+00" cType="1" res="1.2594879372045398e-03" rms="2.9523786902427673e-01" purity="2.7623847126960754e-01" nType="-99"/>
        <Node pos="r" depth="1" NCoef="0" IVar="0" Cut="8.0294055938720703e+00" cType="0" res="-3.9754807949066162e-02" rms="3.0087149143218994e-01" purity="2.0793139934539795e-01" nType="0">
          <Node pos="l" depth="2" NCoef="0" IVar="-1" Cut="0.0000000000000000e+00" cType="1" res="-1.4722019433975220e-01" rms="3.7149390578269958e-01" purity="3.6257308721542358e-01" nType="-99"/>
          <Node pos="r" depth="2" NCoef="0" IVar="-1" Cut="0.0000000000000000e+00" cType="1" res="-4.4009342789649963e-02" rms="2.9378589987754822e-01" purity="1.9786910712718964e-01" nType="-99"/>
        </Node>
      </Node>
    </BinaryTree>
    <BinaryTree type="DecisionTree" boostWeight="1.0000000000000000e+00" itree="71">
      <Node pos="s" depth="0" NCoef="0" IVar="15" Cut="3.1694623827934265e-01" cType="1" res="-1.9478047033771873e-03" rms="2.9444143176078796e-01" purity="2.7269062399864197e-01" nType="0">
        <Node pos="l" depth="1" NCoef="0" IVar="-1" Cut="0.0000000000000000e+00" cType="1" res="4.8068566247820854e-03" rms="3.0860757827758789e-01" purity="3.3092510700225830e-01" nType="-99"/>
        <Node pos="r" depth="1" NCoef="0" IVar="15" Cut="6.6544568538665771e-01" cType="0" res="-1.1665254831314087e-02" rms="2.6634135842323303e-01" purity="1.6626824438571930e-01" nType="0">
          <Node pos="l" depth="2" NCoef="0" IVar="-1" Cut="0.0000000000000000e+00" cType="1" res="3.7691883742809296e-02" rms="3.2859754562377930e-01" purity="3.3623608946800232e-01" nType="-99"/>
          <Node pos="r" depth="2" NCoef="0" IVar="-1" Cut="0.0000000000000000e+00" cType="1" res="-2.8919545933604240e-02" rms="2.6030489802360535e-01" purity="1.5228466689586639e-01" nType="-99"/>
        </Node>
      </Node>
    </BinaryTree>
    <BinaryTree type="DecisionTree" boostWeight="1.0000000000000000e+00" itree="72">
      <Node pos="s" depth="0" NCoef="0" IVar="13" Cut="7.1428573131561279e-01" cType="1" res="6.9853477180004120e-04" rms="2.9616364836692810e-01" purity="2.7541360259056091e-01" nType="0">
        <Node pos="l" depth="1" NCoef="0" IVar="-1" Cut="0.0000000000000000e+00" cType="1" res="5.1205768249928951e-03" rms="3.3377119898796082e-01" purity="3.5858055949211121e-01" nType="-99"/>
        <Node pos="r" depth="1" NCoef="0" IVar="3" Cut="1.9252401351928711e+01" cType="0" res="-9.8792631179094315e-03" rms="1.1492588371038437e-01" purity="1.4375270344316959e-02" nType="0">
          <Node pos="l" depth="2" NCoef="0" IVar="-1" Cut="0.0000000000000000e+00" cType="1" res="5.0423735380172729e-01" rms="3.9155963063240051e-01" purity="2.0833332836627960e-01" nType="-99"/>
          <Node pos="r" depth="2" NCoef="0" IVar="-1" Cut="0.0000000000000000e+00" cType="1" res="-6.9536544382572174e-02" rms="1.1302339285612106e-01" purity="1.3870827853679657e-02" nType="-99"/>
        </Node>
      </Node>
    </BinaryTree>
    <BinaryTree type="DecisionTree" boostWeight="1.0000000000000000e+00" itree="73">
      <Node pos="s" depth="0" NCoef="0" IVar="4" Cut="7.7142858505249023e+00" cType="1" res="3.6542076850309968e-04" rms="2.9570534825325012e-01" purity="2.7437156438827515e-01" nType="0">
        <Node pos="l" depth="1" NCoef="0" IVar="-1" Cut="0.0000000000000000e+00" cType="1" res="-6.8959206342697144e-02" rms="4.6238765120506287e-01" purity="3.3050847053527832e-01" nType="-99"/>
        <Node pos="r" depth="1" NCoef="0" IVar="6" Cut="6.2332143783569336e+00" cType="1" res="1.0697793914005160e-03" rms="2.9361745715141296e-01" purity="2.7384883165359497e-01" nType="0">
          <Node pos="l" depth="2" NCoef="0" IVar="-1" Cut="0.0000000000000000e+00" cType="1" res="2.0833104848861694e-02" rms="3.4592223167419434e-01" purity="3.6634179949760437e-01" nType="-99"/>
          <Node pos="r" depth="2" NCoef="0" IVar="-1" Cut="0.0000000000000000e+00" cType="1" res="-4.9751256592571735e-03" rms="2.7876946330070496e-01" purity="2.5056797266006470e-01" nType="-99"/>
        </Node>
      </Node>
    </BinaryTree>
    <BinaryTree type="DecisionTree" boostWeight="1.0000000000000000e+00" itree="74">
      <Node pos="s" depth="0" NCoef="0" IVar="10" Cut="9.5238095521926880e-01" cType="1" res="-4.4091755989938974e-04" rms="2.9479697346687317e-01" purity="2.7426183223724365e-01" nType="0">
        <Node pos="l" depth="1" NCoef="0" IVar="-1" Cut="0.0000000000000000e+00" cType="1" res="1.1209364049136639e-02" rms="3.3055457472801208e-01" purity="4.7483918070793152e-01" nType="-99"/>
        <Node pos="r" depth="1" NCoef="0" IVar="4" Cut="1.7666666030883789e+01" cType="1" res="-5.2305408753454685e-03" rms="2.7535739541053772e-01" purity="1.7546656727790833e-01" nType="0">
          <Node pos="l" depth="2" NCoef="0" IVar="-1" Cut="0.0000000000000000e+00" cType="1" res="1.8957700580358505e-02" rms="3.5133624076843262e-01" purity="2.6822802424430847e-01" nType="-99"/>
          <Node pos="r" depth="2" NCoef="0" IVar="-1" Cut="0.0000000000000000e+00" cType="1" res="-2.2573450580239296e-02" rms="2.4950757622718811e-01" purity="1.4930841326713562e-01" nType="-99"/>
        </Node>
      </Node>
    </BinaryTree>
    <BinaryTree type="DecisionTree" boostWeight="1.0000000000000000e+00" itree="75">
      <Node pos="s" depth="0" NCoef="0" IVar="19" Cut="1.8934981524944305e-01" cType="1" res="1.3135852059349418e-03" rms="2.9429700970649719e-01" purity="2.7451083064079285e-01" nType="0">
        <Node pos="l" depth="1" NCoef="0" IVar="-1" Cut="0.0000000000000000e+00" cType="1" res="3.1756013631820679e-02" rms="2.9412660002708435e-01" purity="3.2008850574493408e-01" nType="-99"/>
        <Node pos="r" depth="1" NCoef="0" IVar="6" Cut="6.2240600585937500e+00" cType="1" res="-1.4735173899680376e-03" rms="2.9423171281814575e-01" purity="2.6700472831726074e-01" nType="0">
          <Node pos="l" depth="2" NCoef="0" IVar="-1" Cut="0.0000000000000000e+00" cType="1" res="1.6938555985689163e-02" rms="3.5056975483894348e-01" purity="3.7498128414154053e-01" nType="-99"/>
          <Node pos="r" depth="2" NCoef="0" IVar="-1" Cut="0.0000000000000000e+00" cType="1" res="-9.2914672568440437e-03" rms="2.7794176340103149e-01" purity="2.3953452706336975e-01" nType="-99"/>
        </Node>
      </Node>
    </BinaryTree>
    <BinaryTree type="DecisionTree" boostWeight="1.0000000000000000e+00" itree="76">
      <Node pos="s" depth="0" NCoef="0" IVar="0" Cut="1.4762335777282715e+01" cType="0" res="2.0032507018186152e-04" rms="2.9530364274978638e-01" purity="2.7430713176727295e-01" nType="0">
        <Node pos="l" depth="1" NCoef="0" IVar="-1" Cut="0.0000000000000000e+00" cType="1" res="-7.0479251444339752e-02" rms="3.4036943316459656e-01" purity="4.8395061492919922e-01" nType="-99"/>
        <Node pos="r" depth="1" NCoef="0" IVar="3" Cut="1.0369850921630859e+02" cType="1" res="8.9544750517234206e-04" rms="2.9471021890640259e-01" purity="2.7208146452903748e-01" nType="0">
          <Node pos="l" depth="2" NCoef="0" IVar="-1" Cut="0.0000000000000000e+00" cType="1" res="1.8610201077535748e-03" rms="2.9426556825637817e-01" purity="2.7208507061004639e-01" nType="-99"/>
          <Node pos="r" depth="2" NCoef="0" IVar="-1" Cut="0.0000000000000000e+00" cType="1" res="-1.3816569745540619e-01" rms="4.5773184299468994e-01" purity="2.7007299661636353e-01" nType="-99"/>
        </Node>
      </Node>
    </BinaryTree>
    <BinaryTree type="DecisionTree" boostWeight="1.0000000000000000e+00" itree="77">
      <Node pos="s" depth="0" NCoef="0" IVar="12" Cut="3.1317746639251709e-01" cType="0" res="-7.7696063090115786e-04" rms="2.9391986131668091e-01" purity="2.7507570385932922e-01" nType="0">
        <Node pos="l" depth="1" NCoef="0" IVar="-1" Cut="0.0000000000000000e+00" cType="1" res="-5.8115040883421898e-04" rms="2.9365244507789612e-01" purity="2.7548199892044067e-01" nType="-99"/>
        <Node pos="r" depth="1" NCoef="0" IVar="3" Cut="2.5441925525665283e+00" cType="0" res="-1.0198873281478882e-01" rms="3.3897066116333008e-01" purity="1.7475728690624237e-01" nType="0">
          <Node pos="l" depth="2" NCoef="0" IVar="-1" Cut="0.0000000000000000e+00" cType="1" res="1.2887728214263916e-01" rms="4.8464846611022949e-01" purity="6.6666668653488159e-01" nType="-99"/>
          <Node pos="r" depth="2" NCoef="0" IVar="-1" Cut="0.0000000000000000e+00" cType="1" res="-1.8078924715518951e-01" rms="2.7459141612052917e-01" purity="7.7519379556179047e-02" nType="-99"/>
        </Node>
      </Node>
    </BinaryTree>
    <BinaryTree type="DecisionTree" boostWeight="1.0000000000000000e+00" itree="78">
      <Node pos="s" depth="0" NCoef="0" IVar="19" Cut="7.5461632013320923e-01" cType="0" res="-6.8879843456670642e-04" rms="2.9454821348190308e-01" purity="2.7514398097991943e-01" nType="0">
        <Node pos="l" depth="1" NCoef="0" IVar="-1" Cut="0.0000000000000000e+00" cType="1" res="-3.1720243394374847e-02" rms="3.3532291650772095e-01" purity="2.8102973103523254e-01" nType="-99"/>
        <Node pos="r" depth="1" NCoef="0" IVar="9" Cut="4.1189331054687500e+01" cType="0" res="5.0156703218817711e-04" rms="2.9255360364913940e-01" purity="2.7488324046134949e-01" nType="0">
          <Node pos="l" depth="2" NCoef="0" IVar="-1" Cut="0.0000000000000000e+00" cType="1" res="1.8742520362138748e-02" rms="3.3456936478614807e-01" purity="5.1961034536361694e-01" nType="-99"/>
          <Node pos="r" depth="2" NCoef="0" IVar="-1" Cut="0.0000000000000000e+00" cType="1" res="-4.1502360254526138e-03" rms="2.8373605012893677e-01" purity="2.2818021476268768e-01" nType="-99"/>
        </Node>
      </Node>
    </BinaryTree>
    <BinaryTree type="DecisionTree" boostWeight="1.0000000000000000e+00" itree="79">
      <Node pos="s" depth="0" NCoef="0" IVar="15" Cut="-1.3533832132816315e-01" cType="0" res="5.2930827223462984e-06" rms="2.9474091529846191e-01" purity="2.7369445562362671e-01" nType="0">
        <Node pos="l" depth="1" NCoef="0" IVar="-1" Cut="0.0000000000000000e+00" cType="1" res="1.8426278838887811e-03" rms="2.9460099339485168e-01" purity="2.7623310685157776e-01" nType="-99"/>
        <Node pos="r" depth="1" NCoef="0" IVar="0" Cut="1.9429942369461060e+00" cType="0" res="-3.0169609934091568e-02" rms="2.9681208729743958e-01" purity="2.0688430964946747e-01" nType="0">
          <Node pos="l" depth="2" NCoef="0" IVar="-1" Cut="0.0000000000000000e+00" cType="1" res="-7.5363628566265106e-02" rms="3.6258929967880249e-01" purity="3.1609871983528137e-01" nType="-99"/>
          <Node pos="r" depth="2" NCoef="0" IVar="-1" Cut="0.0000000000000000e+00" cType="1" res="-1.7133297398686409e-02" rms="2.6058760285377502e-01" purity="1.5963396430015564e-01" nType="-99"/>
        </Node>
      </Node>
    </BinaryTree>
    <BinaryTree type="DecisionTree" boostWeight="1.0000000000000000e+00" itree="80">
      <Node pos="s" depth="0" NCoef="0" IVar="12" Cut="9.9383527040481567e-01" cType="1" res="1.8038377165794373e-03" rms="2.9488384723663330e-01" purity="2.7581077814102173e-01" nType="0">
        <Node pos="l" depth="1" NCoef="0" IVar="-1" Cut="0.0000000000000000e+00" cType="1" res="3.2042704522609711e-02" rms="3.0907085537910461e-01" purity="6.6780924797058105e-01" nType="-99"/>
        <Node pos="r" depth="1" NCoef="0" IVar="13" Cut="-8.0952382087707520e-01" cType="1" res="-8.0965465167537332e-04" rms="2.9264652729034424e-01" purity="2.1810816228389740e-01" nType="0">
          <Node pos="l" depth="2" NCoef="0" IVar="-1" Cut="0.0000000000000000e+00" cType="1" res="8.4319338202476501e-02" rms="3.6488369107246399e-01" purity="7.5364667177200317e-01" nType="-99"/>
          <Node pos="r" depth="2" NCoef="0" IVar="-1" Cut="0.0000000000000000e+00" cType="1" res="-2.5914600118994713e-03" rms="2.9176855087280273e-01" purity="2.1315918862819672e-01" nType="-99"/>
        </Node>
      </Node>
    </BinaryTree>
    <BinaryTree type="DecisionTree" boostWeight="1.0000000000000000e+00" itree="81">
      <Node pos="s" depth="0" NCoef="0" IVar="15" Cut="4.3001738190650940e-01" cType="1" res="3.8156146183609962e-04" rms="2.9509806632995605e-01" purity="2.7514198422431946e-01" nType="0">
        <Node pos="l" depth="1" NCoef="0" IVar="-1" Cut="0.0000000000000000e+00" cType="1" res="5.7549518533051014e-03" rms="3.0280119180679321e-01" purity="3.0986037850379944e-01" nType="-99"/>
        <Node pos="r" depth="1" NCoef="0" IVar="13" Cut="-3.1313818693161011e-01" cType="1" res="-1.0197358205914497e-02" rms="2.6974052190780640e-01" purity="1.6829164326190948e-01" nType="0">
          <Node pos="l" depth="2" NCoef="0" IVar="-1" Cut="0.0000000000000000e+00" cType="1" res="3.2947052270174026e-02" rms="3.6212319135665894e-01" purity="6.8489342927932739e-01" nType="-99"/>
          <Node pos="r" depth="2" NCoef="0" IVar="-1" Cut="0.0000000000000000e+00" cType="1" res="-2.5468973442912102e-02" rms="2.6290389895439148e-01" purity="1.3696397840976715e-01" nType="-99"/>
        </Node>
      </Node>
    </BinaryTree>
    <BinaryTree type="DecisionTree" boostWeight="1.0000000000000000e+00" itree="82">
      <Node pos="s" depth="0" NCoef="0" IVar="4" Cut="8.6190471649169922e+00" cType="1" res="-9.6560525707900524e-04" rms="2.9376718401908875e-01" purity="2.7462103962898254e-01" nType="0">
        <Node pos="l" depth="1" NCoef="0" IVar="-1" Cut="0.0000000000000000e+00" cType="1" res="-4.6865280717611313e-02" rms="4.5075854659080505e-01" purity="3.3164128661155701e-01" nType="-99"/>
        <Node pos="r" depth="1" NCoef="0" IVar="19" Cut="2.9533743858337402e-01" cType="1" res="-1.9359242287464440e-04" rms="2.9057648777961731e-01" purity="2.7373039722442627e-01" nType="0">
          <Node pos="l" depth="2" NCoef="0" IVar="-1" Cut="0.0000000000000000e+00" cType="1" res="1.6369435936212540e-02" rms="2.7627128362655640e-01" purity="2.7455919981002808e-01" nType="-99"/>
          <Node pos="r" depth="2" NCoef="0" IVar="-1" Cut="0.0000000000000000e+00" cType="1" res="-7.4916034936904907e-03" rms="2.9793244600296021e-01" purity="2.7328115701675415e-01" nType="-99"/>
        </Node>
      </Node>
    </BinaryTree>
    <BinaryTree type="DecisionTree" boostWeight="1.0000000000000000e+00" itree="83">
      <Node pos="s" depth="0" NCoef="0" IVar="11" Cut="8.2136863470077515e-01" cType="1" res="-3.9470818592235446e-04" rms="2.9380178451538086e-01" purity="2.7569261193275452e-01" nType="0">
        <Node pos="l" depth="1" NCoef="0" IVar="-1" Cut="0.0000000000000000e+00" cType="1" res="3.5094167105853558e-04" rms="2.9321077466011047e-01" purity="2.7662736177444458e-01" nType="-99"/>
        <Node pos="r" depth="1" NCoef="0" IVar="13" Cut="-1.3770496845245361e-01" cType="0" res="-5.1761988550424576e-02" rms="3.3574464917182922e-01" purity="1.9735391438007355e-01" nType="0">
          <Node pos="l" depth="2" NCoef="0" IVar="-1" Cut="0.0000000000000000e+00" cType="1" res="1.9912661984562874e-02" rms="3.5541969537734985e-01" purity="2.6415094733238220e-01" nType="-99"/>
